/* Generated by Edge Impulse
 *
 * Permission is hereby granted, free of charge, to any person obtaining a copy
 * of this software and associated documentation files (the "Software"), to deal
 * in the Software without restriction, including without limitation the rights
 * to use, copy, modify, merge, publish, distribute, sublicense, and/or sell
 * copies of the Software, and to permit persons to whom the Software is
 * furnished to do so, subject to the following conditions:
 *
 * The above copyright notice and this permission notice shall be included in
 * all copies or substantial portions of the Software.
 *
 * THE SOFTWARE IS PROVIDED "AS IS", WITHOUT WARRANTY OF ANY KIND, EXPRESS OR
 * IMPLIED, INCLUDING BUT NOT LIMITED TO THE WARRANTIES OF MERCHANTABILITY,
 * FITNESS FOR A PARTICULAR PURPOSE AND NONINFRINGEMENT. IN NO EVENT SHALL THE
 * AUTHORS OR COPYRIGHT HOLDERS BE LIABLE FOR ANY CLAIM, DAMAGES OR OTHER
 * LIABILITY, WHETHER IN AN ACTION OF CONTRACT, TORT OR OTHERWISE, ARISING FROM,
 * OUT OF OR IN CONNECTION WITH THE SOFTWARE OR THE USE OR OTHER DEALINGS IN THE
 * SOFTWARE.
 */
// Generated on: 23.10.2023 15:32:34

#include <stdio.h>
#include <stdlib.h>
#include "edge-impulse-sdk/tensorflow/lite/c/builtin_op_data.h"
#include "edge-impulse-sdk/tensorflow/lite/c/common.h"
#include "edge-impulse-sdk/tensorflow/lite/micro/micro_mutable_op_resolver.h"
#include "edge-impulse-sdk/porting/ei_classifier_porting.h"

#if EI_CLASSIFIER_PRINT_STATE
#if defined(__cplusplus) && EI_C_LINKAGE == 1
extern "C" {
    extern void ei_printf(const char *format, ...);
}
#else
extern void ei_printf(const char *format, ...);
#endif
#endif

#if defined __GNUC__
#define ALIGN(X) __attribute__((aligned(X)))
#elif defined _MSC_VER
#define ALIGN(X) __declspec(align(X))
#elif defined __TASKING__
#define ALIGN(X) __align(X)
#elif defined __ICCARM__
#define ALIGN(x) __attribute__((aligned(x)))
#endif

#ifndef EI_MAX_SCRATCH_BUFFER_COUNT
#ifndef CONFIG_IDF_TARGET_ESP32S3
#define EI_MAX_SCRATCH_BUFFER_COUNT 14
#else
#define EI_MAX_SCRATCH_BUFFER_COUNT 28
#endif // CONFIG_IDF_TARGET_ESP32S3
#endif // EI_MAX_SCRATCH_BUFFER_COUNT

#ifndef EI_MAX_OVERFLOW_BUFFER_COUNT
#define EI_MAX_OVERFLOW_BUFFER_COUNT 10
#endif // EI_MAX_OVERFLOW_BUFFER_COUNT

using namespace tflite;
using namespace tflite::ops;
using namespace tflite::ops::micro;

namespace {

#if defined(EI_CLASSIFIER_ALLOCATION_STATIC_HIMAX) || defined(EI_CLASSIFIER_ALLOCATION_STATIC_HIMAX_GNU)
constexpr int kTensorArenaSize = 242560;
#else
constexpr int kTensorArenaSize = 241536;
#endif

#if defined(EI_CLASSIFIER_ALLOCATION_STATIC)
uint8_t tensor_arena[kTensorArenaSize] ALIGN(16);
#elif defined(EI_CLASSIFIER_ALLOCATION_STATIC_HIMAX)
#pragma Bss(".tensor_arena")
uint8_t tensor_arena[kTensorArenaSize] ALIGN(16);
#pragma Bss()
#elif defined(EI_CLASSIFIER_ALLOCATION_STATIC_HIMAX_GNU)
uint8_t tensor_arena[kTensorArenaSize] ALIGN(16) __attribute__((section(".tensor_arena")));
#else
#define EI_CLASSIFIER_ALLOCATION_HEAP 1
uint8_t* tensor_arena = NULL;
#endif

static uint8_t* tensor_boundary;
static uint8_t* current_location;

template <int SZ, class T> struct TfArray {
  int sz; T elem[SZ];
};
enum used_operators_e {
  OP_CONV_2D, OP_DEPTHWISE_CONV_2D, OP_PAD, OP_ADD, OP_SOFTMAX,  OP_LAST
};
struct TensorInfo_t { // subset of TfLiteTensor used for initialization from constant memory
  TfLiteAllocationType allocation_type;
  TfLiteType type;
  void* data;
  TfLiteIntArray* dims;
  size_t bytes;
  TfLiteQuantization quantization;
};
struct NodeInfo_t { // subset of TfLiteNode used for initialization from constant memory
  struct TfLiteIntArray* inputs;
  struct TfLiteIntArray* outputs;
  void* builtin_data;
  used_operators_e used_op_index;
};

typedef struct {
  TfLiteTensor tensor;
  int16_t index;
} TfLiteTensorWithIndex;

typedef struct {
  TfLiteEvalTensor tensor;
  int16_t index;
} TfLiteEvalTensorWithIndex;

TfLiteContext ctx{};
static const int MAX_TFL_TENSOR_COUNT = 4;
static TfLiteTensorWithIndex tflTensors[MAX_TFL_TENSOR_COUNT];
static const int MAX_TFL_EVAL_COUNT = 4;
static TfLiteEvalTensorWithIndex tflEvalTensors[MAX_TFL_EVAL_COUNT];
TfLiteRegistration registrations[OP_LAST];
TfLiteNode tflNodes[27];

const TfArray<4, int> tensor_dimension0 = { 4, { 1,96,96,1 } };
const TfArray<1, float> quant0_scale = { 1, { 0.0039215688593685627, } };
const TfArray<1, int> quant0_zero = { 1, { -128 } };
const TfLiteAffineQuantization quant0 = { (TfLiteFloatArray*)&quant0_scale, (TfLiteIntArray*)&quant0_zero, 0 };
const ALIGN(16) int32_t tensor_data1[4*2] = { 
  0, 0, 
  0, 1, 
  0, 1, 
  0, 0, 
};
const TfArray<2, int> tensor_dimension1 = { 2, { 4,2 } };
const ALIGN(16) int8_t tensor_data2[16*3*3*1] = { 
  /* [0][0][][] */ -85, -112, -30, 
  /* [0][1][][] */ 66, -38, 17, 
  /* [0][2][][] */ 31, 127, 19, 
  /* [1][0][][] */ 111, -95, -11, 
  /* [1][1][][] */ -127, 111, 25, 
  /* [1][2][][] */ 17, 0, -12, 
  /* [2][0][][] */ -23, -2, -48, 
  /* [2][1][][] */ 36, 95, 127, 
  /* [2][2][][] */ -11, -93, -77, 
  /* [3][0][][] */ 119, 125, 57, 
  /* [3][1][][] */ 0, -22, -16, 
  /* [3][2][][] */ -101, -127, -45, 
  /* [4][0][][] */ 33, -52, 4, 
  /* [4][1][][] */ 30, -127, 2, 
  /* [4][2][][] */ 17, -78, -10, 
  /* [5][0][][] */ -65, 30, 2, 
  /* [5][1][][] */ -127, 38, 6, 
  /* [5][2][][] */ -82, 29, 10, 
  /* [6][0][][] */ -18, 79, 127, 
  /* [6][1][][] */ -53, 54, -17, 
  /* [6][2][][] */ -38, -55, -91, 
  /* [7][0][][] */ 35, 26, -18, 
  /* [7][1][][] */ 127, 76, -10, 
  /* [7][2][][] */ 34, 0, -31, 
  /* [8][0][][] */ -19, -29, 53, 
  /* [8][1][][] */ -51, -84, 127, 
  /* [8][2][][] */ -24, -59, 96, 
  /* [9][0][][] */ -24, 58, -12, 
  /* [9][1][][] */ -14, 127, -14, 
  /* [9][2][][] */ -8, 88, -8, 
  /* [10][0][][] */ 24, 86, 11, 
  /* [10][1][][] */ -37, -127, -30, 
  /* [10][2][][] */ 11, 39, 17, 
  /* [11][0][][] */ 8, -17, 10, 
  /* [11][1][][] */ 66, -92, 36, 
  /* [11][2][][] */ -84, 127, -45, 
  /* [12][0][][] */ -41, 49, -11, 
  /* [12][1][][] */ -127, 115, 6, 
  /* [12][2][][] */ -78, 80, 5, 
  /* [13][0][][] */ 79, 14, -26, 
  /* [13][1][][] */ 127, 100, -23, 
  /* [13][2][][] */ 85, 116, 40, 
  /* [14][0][][] */ -30, -28, 48, 
  /* [14][1][][] */ 45, 99, -127, 
  /* [14][2][][] */ -15, -69, 82, 
  /* [15][0][][] */ -79, -27, 4, 
  /* [15][1][][] */ -127, -122, 13, 
  /* [15][2][][] */ -30, -75, -9, 
};
const TfArray<4, int> tensor_dimension2 = { 4, { 16,3,3,1 } };
const TfArray<16, float> quant2_scale = { 16, { 0.032540787011384964, 0.093588598072528839, 0.039719626307487488, 0.024882838129997253, 0.008631603792309761, 0.011848066002130508, 0.022378526628017426, 0.0089981323108077049, 0.029734406620264053, 0.01060321182012558, 0.063646622002124786, 0.079274259507656097, 0.053547777235507965, 0.0056870831176638603, 0.075850628316402435, 0.010855706408619881, } };
const TfArray<16, int> quant2_zero = { 16, { 0,0,0,0,0,0,0,0,0,0,0,0,0,0,0,0 } };
const TfLiteAffineQuantization quant2 = { (TfLiteFloatArray*)&quant2_scale, (TfLiteIntArray*)&quant2_zero, 0 };
const ALIGN(16) int32_t tensor_data3[16] = { 3084, -2900, -501, 3322, 57531, 45510, 9372, -12740, 5303, -7970, 2902, -1523, 7705, -44781, -765, 65501, };
const TfArray<1, int> tensor_dimension3 = { 1, { 16 } };
const TfArray<16, float> quant3_scale = { 16, { 0.00012761093967128545, 0.00036701414501294494, 0.0001557632494950667, 9.7579766588751227e-05, 3.3849428291432559e-05, 4.6463006583508104e-05, 8.7758933659642935e-05, 3.5286793718114495e-05, 0.00011660552263492718, 4.1581224650144577e-05, 0.00024959462461993098, 0.0003108794626314193, 0.00020999129628762603, 2.2302288925857283e-05, 0.00029745345818810165, 4.2571398807922378e-05, } };
const TfArray<16, int> quant3_zero = { 16, { 0,0,0,0,0,0,0,0,0,0,0,0,0,0,0,0 } };
const TfLiteAffineQuantization quant3 = { (TfLiteFloatArray*)&quant3_scale, (TfLiteIntArray*)&quant3_zero, 0 };
const ALIGN(16) int8_t tensor_data4[1*3*3*16] = { 
  /* [0][0][][] */ 1,-3,0,3,-18,10,8,17,-4,-11,1,-6,-3,-10,7,0, 7,-4,-1,2,15,-3,11,-25,-7,8,-4,80,-11,18,7,0, 3,-4,-4,2,3,-14,-3,12,0,2,-2,-12,4,-8,-2,0, 
  /* [0][1][][] */ 16,-6,-8,3,127,-25,-127,-20,127,127,-3,-7,107,-25,-1,-17, -127,127,127,1,-86,-93,-19,-100,13,-105,127,127,127,127,127,127, 16,-12,-8,0,-10,127,4,-8,-3,-12,-9,-1,9,-6,-10,-7, 
  /* [0][2][][] */ -1,-10,-1,-10,-17,15,55,8,-8,-8,-6,-2,-5,0,1,-10, 22,-12,-3,-127,8,-17,-8,127,-7,1,-4,-18,-10,-57,-4,-34, 4,-4,-1,-1,2,-5,2,-2,1,2,-5,-3,-2,-6,0,-10, 
};
const TfArray<4, int> tensor_dimension4 = { 4, { 1,3,3,16 } };
const TfArray<16, float> quant4_scale = { 16, { 0.0035990329924970865, 0.0079588610678911209, 0.006930746603757143, 0.0075745228677988052, 0.030143585056066513, 0.021150467917323112, 0.0060051376931369305, 0.019302463158965111, 0.011576876975595951, 0.034282580018043518, 0.0080463802441954613, 0.0088188266381621361, 0.004460544791072607, 0.0082611078396439552, 0.0086536435410380363, 0.014100084081292152, } };
const TfArray<16, int> quant4_zero = { 16, { 0,0,0,0,0,0,0,0,0,0,0,0,0,0,0,0 } };
const TfLiteAffineQuantization quant4 = { (TfLiteFloatArray*)&quant4_scale, (TfLiteIntArray*)&quant4_zero, 3 };
const ALIGN(16) int32_t tensor_data5[16] = { 27034, -681, -503, 3054, -1415, 796, 11257, 2080, -283, 330, -1892, 2724, 1378, 156, -965, -1630, };
const TfArray<1, int> tensor_dimension5 = { 1, { 16 } };
const TfArray<16, float> quant5_scale = { 16, { 8.4683131717611104e-05, 0.00018726731650531292, 0.00016307638725265861, 0.00017822407244239002, 0.00070926081389188766, 0.00049765809671953321, 0.00014129736518952996, 0.00045417560613714159, 0.0002723970974329859, 0.0008066489826887846, 0.0001893266016850248, 0.00020750181283801794, 0.00010495400056242943, 0.00019437901210039854, 0.00020361514179967344, 0.00033176669967360795, } };
const TfArray<16, int> quant5_zero = { 16, { 0,0,0,0,0,0,0,0,0,0,0,0,0,0,0,0 } };
const TfLiteAffineQuantization quant5 = { (TfLiteFloatArray*)&quant5_scale, (TfLiteIntArray*)&quant5_zero, 0 };
const ALIGN(16) int8_t tensor_data6[8*1*1*16] = { 
  /* [0][0][][] */ -13,-10,-22,-66,-21,-34,22,-18,37,7,-30,-7,118,127,-20,-111, 
  /* [1][0][][] */ 127,-60,-41,21,-43,78,-72,-46,-34,82,-36,-54,-7,0,-67,-12, 
  /* [2][0][][] */ -35,-97,43,43,48,-51,-75,-20,29,-89,27,-127,40,-24,-82,22, 
  /* [3][0][][] */ 39,11,13,13,-10,68,-52,-24,127,44,9,25,4,-6,12,22, 
  /* [4][0][][] */ -95,-31,-27,-123,-9,45,52,-127,31,-16,-45,-32,-121,30,-47,-21, 
  /* [5][0][][] */ 86,54,69,-29,48,-49,-127,-123,-15,-79,69,46,-56,49,68,-45, 
  /* [6][0][][] */ 103,38,-113,-72,26,-73,3,-89,-42,11,-127,91,89,-81,8,70, 
  /* [7][0][][] */ -127,-2,98,-26,-64,5,-3,-60,-49,64,83,-31,64,-31,29,29, 
};
const TfArray<4, int> tensor_dimension6 = { 4, { 8,1,1,16 } };
const TfArray<8, float> quant6_scale = { 8, { 0.0068220808170735836, 0.0089358575642108917, 0.0073341750539839268, 0.0095094256103038788, 0.0067062191665172577, 0.0070220404304563999, 0.0071679260581731796, 0.010546829551458359, } };
const TfArray<8, int> quant6_zero = { 8, { 0,0,0,0,0,0,0,0 } };
const TfLiteAffineQuantization quant6 = { (TfLiteFloatArray*)&quant6_scale, (TfLiteIntArray*)&quant6_zero, 0 };
const ALIGN(16) int32_t tensor_data7[8] = { -7868, -3099, 12361, -9786, 23568, 7788, -8371, 10662, };
const TfArray<1, int> tensor_dimension7 = { 1, { 8 } };
const TfArray<8, float> quant7_scale = { 8, { 0.00016051955753937364, 0.0002102554717566818, 0.00017256883438676596, 0.00022375119442585856, 0.00015779340174049139, 0.00016522448277100921, 0.00016865709039848298, 0.00024816070799715817, } };
const TfArray<8, int> quant7_zero = { 8, { 0,0,0,0,0,0,0,0 } };
const TfLiteAffineQuantization quant7 = { (TfLiteFloatArray*)&quant7_scale, (TfLiteIntArray*)&quant7_zero, 0 };
const ALIGN(16) int8_t tensor_data8[48*1*1*8] = { 
  /* [0][0][][] */ -35,33,-3,-19,-81,-43,-127,26, 
  /* [1][0][][] */ 80,-71,-56,-57,127,-88,105,30, 
  /* [2][0][][] */ -93,127,-37,-113,51,-14,-22,36, 
  /* [3][0][][] */ 40,27,87,-17,101,91,127,0, 
  /* [4][0][][] */ -78,-127,45,-12,-77,-108,13,-17, 
  /* [5][0][][] */ 127,-18,71,62,-59,-14,-5,-25, 
  /* [6][0][][] */ 20,37,127,-28,41,-37,-47,30, 
  /* [7][0][][] */ 28,2,-127,-37,-43,97,92,-72, 
  /* [8][0][][] */ -13,127,-35,14,70,108,31,61, 
  /* [9][0][][] */ 3,127,-59,73,12,-106,52,105, 
  /* [10][0][][] */ -2,-127,1,-30,-75,-126,-63,-89, 
  /* [11][0][][] */ -127,-82,111,50,-5,-60,104,64, 
  /* [12][0][][] */ -33,56,-127,81,43,-59,-79,100, 
  /* [13][0][][] */ 97,-127,91,72,10,31,35,-58, 
  /* [14][0][][] */ -32,102,-37,-127,-20,-124,-34,-53, 
  /* [15][0][][] */ 36,123,31,-18,39,-72,102,-127, 
  /* [16][0][][] */ -110,-127,-74,98,-45,10,-17,70, 
  /* [17][0][][] */ -31,-122,-127,73,-65,70,-58,67, 
  /* [18][0][][] */ -88,-79,-53,82,-12,70,-3,127, 
  /* [19][0][][] */ 54,-118,92,-127,16,-69,27,-28, 
  /* [20][0][][] */ -7,79,32,6,47,127,75,-9, 
  /* [21][0][][] */ 27,95,42,-29,33,-64,88,-127, 
  /* [22][0][][] */ 19,19,115,22,-2,127,31,-41, 
  /* [23][0][][] */ -105,-59,42,-76,93,96,-66,-127, 
  /* [24][0][][] */ -92,-98,31,-76,112,117,-51,-127, 
  /* [25][0][][] */ 127,9,-63,-15,9,32,-60,-6, 
  /* [26][0][][] */ -124,-35,-127,-24,-43,-26,22,0, 
  /* [27][0][][] */ 85,34,1,-62,-127,-25,87,90, 
  /* [28][0][][] */ -127,-85,-9,43,-75,-108,0,22, 
  /* [29][0][][] */ 113,83,47,-127,40,17,-56,-89, 
  /* [30][0][][] */ -96,-73,39,-76,74,88,-54,-127, 
  /* [31][0][][] */ 50,43,-10,127,14,-78,9,6, 
  /* [32][0][][] */ -35,127,-10,40,17,63,-19,53, 
  /* [33][0][][] */ -33,127,-81,27,25,-36,-25,2, 
  /* [34][0][][] */ -127,-115,-30,102,-30,11,19,98, 
  /* [35][0][][] */ -52,127,-30,6,73,111,55,77, 
  /* [36][0][][] */ 69,16,7,-42,-127,-30,98,96, 
  /* [37][0][][] */ -80,117,32,22,-127,112,-33,-107, 
  /* [38][0][][] */ 42,36,35,18,127,70,108,51, 
  /* [39][0][][] */ -26,-72,31,1,7,32,-95,127, 
  /* [40][0][][] */ -67,-58,-85,127,-16,0,20,78, 
  /* [41][0][][] */ 127,8,42,111,-52,1,5,-25, 
  /* [42][0][][] */ -45,10,-68,-127,52,-111,7,82, 
  /* [43][0][][] */ 26,-7,81,-1,29,127,90,5, 
  /* [44][0][][] */ -26,-24,-65,127,47,15,-29,-42, 
  /* [45][0][][] */ 61,121,104,-120,63,-53,21,-127, 
  /* [46][0][][] */ -26,-127,-42,31,-11,34,-58,109, 
  /* [47][0][][] */ 30,41,109,2,82,127,118,-19, 
};
const TfArray<4, int> tensor_dimension8 = { 4, { 48,1,1,8 } };
const TfArray<48, float> quant8_scale = { 48, { 0.0040762233547866344, 0.0040854676626622677, 0.0035352983977645636, 0.0033326169941574335, 0.0006431114743463695, 0.0040104235522449017, 0.0055011166259646416, 0.002051470335572958, 0.0028831595554947853, 0.0053808982484042645, 0.0028462877962738276, 0.0030481575522571802, 0.0019388938089832664, 0.0038363118655979633, 0.0032652071677148342, 0.0035322944168001413, 0.0028827071655541658, 0.00077730120392516255, 0.0026077514048665762, 0.0033519705757498741, 0.0034876349382102489, 0.0025147015694528818, 0.0044152424670755863, 0.0027968555223196745, 0.0040763244032859802, 0.0079297767952084541, 0.0034238367807120085, 0.0072209620848298073, 0.0025067026726901531, 0.00070304417749866843, 0.0028133047744631767, 0.0070952414534986019, 0.0038829208351671696, 0.0038915188051760197, 0.0034174243919551373, 0.003163615707308054, 0.003431007731705904, 0.0057765580713748932, 0.0036079694982618093, 0.0060040252283215523, 0.0035543995909392834, 0.0035119440872222185, 0.0034976301249116659, 0.0042983870953321457, 0.0038633458316326141, 0.0025694344658404589, 0.0034082503989338875, 0.0032226827461272478, } };
const TfArray<48, int> quant8_zero = { 48, { 0,0,0,0,0,0,0,0,0,0,0,0,0,0,0,0,0,0,0,0,0,0,0,0,0,0,0,0,0,0,0,0,0,0,0,0,0,0,0,0,0,0,0,0,0,0,0,0 } };
const TfLiteAffineQuantization quant8 = { (TfLiteFloatArray*)&quant8_scale, (TfLiteIntArray*)&quant8_zero, 0 };
const ALIGN(16) int32_t tensor_data9[48] = { 1997, -648, -414, 1721, 23123, 2221, -661, 6625, 2121, 1980, 545, 4430, 2101, 878, -1247, 703, 3550, 19003, 4530, -1094, 1943, -1333, -10, 4010, -427, -1001, 2273, -76, 4722, 21047, 3861, -57, 564, -141, 3132, -110, 978, -248, 1841, 1354, 2233, 2809, 383, -571, 1131, 2992, 1540, -226, };
const TfArray<1, int> tensor_dimension9 = { 1, { 48 } };
const TfArray<48, float> quant9_scale = { 48, { 0.00027532406966201961, 0.00027594846324063838, 0.00023878787760622799, 0.00022509797418024391, 4.3438263674033806e-05, 0.00027087968192063272, 0.0003715669154189527, 0.00013856432633474469, 0.00019473987049423158, 0.00036344688851386309, 0.00019224939751438797, 0.00020588446932379156, 0.00013096047041472048, 0.00025911949342116714, 0.00022054485452827066, 0.00023858496570028365, 0.00019470931147225201, 5.250196045381017e-05, 0.00017613772070035338, 0.00022640520182903856, 0.00023556849919259548, 0.0001698527776170522, 0.00029822273063473403, 0.00018891054787673056, 0.00027533087995834649, 0.00053560809465125203, 0.00023125931329559535, 0.00048773200251162052, 0.00016931249410845339, 4.7486351832048967e-05, 0.0001900216011563316, 0.00047924034879542887, 0.00026226765476167202, 0.00026284839259460568, 0.00023082620464265347, 0.00021368297166191041, 0.00023174367379397154, 0.00039017130620777607, 0.00024369636957999319, 0.00040553533472120762, 0.00024007803585845977, 0.0002372104354435578, 0.00023624360619578511, 0.00029032985912635922, 0.00026094546774402261, 0.00017354964802507311, 0.00023020655498839915, 0.00021767258294858038, } };
const TfArray<48, int> quant9_zero = { 48, { 0,0,0,0,0,0,0,0,0,0,0,0,0,0,0,0,0,0,0,0,0,0,0,0,0,0,0,0,0,0,0,0,0,0,0,0,0,0,0,0,0,0,0,0,0,0,0,0 } };
const TfLiteAffineQuantization quant9 = { (TfLiteFloatArray*)&quant9_scale, (TfLiteIntArray*)&quant9_zero, 0 };
const ALIGN(16) int8_t tensor_data10[1*3*3*48] = { 
  /* [0][0][][] */ -44,-107,-2,-26,127,-57,58,-58,-83,-76,-20,-49,125,29,50,-101,68,-21,9,-31,-77,92,-15,6,-25,93,45,-31,81,-58,10,-32,-108,-76,50,66,27,69,116,-82,-127,-8,25,72,53,-126,75,47, -71,-124,-73,54,-68,110,56,-70,-86,42,88,-115,127,98,127,-54,-74,-91,41,-46,-94,56,-60,118,-78,107,73,-124,105,-42,3,-127,-52,-92,84,119,109,95,127,-74,-123,-80,77,97,74,126,85,74, -10,-64,-64,94,-52,-39,12,-7,106,25,65,-76,22,74,-51,-10,-75,-4,21,-26,-29,-10,-84,-6,-64,45,12,-66,36,57,123,-68,13,13,-14,42,90,58,54,11,-12,94,60,35,38,42,12,-103, 
  /* [0][1][][] */ -102,-74,-13,-85,-85,-65,94,-93,-126,-127,86,-86,98,63,-124,-42,127,-127,-67,-65,-66,81,-30,3,-16,99,91,-46,-106,-60,-13,-31,-90,-127,-127,54,37,81,8,-93,59,-10,70,113,77,127,96,-127, -113,-127,-127,-126,-42,127,127,-127,127,51,127,-127,98,127,76,-127,53,-86,-127,-127,-127,127,-127,127,-127,127,127,-127,-127,127,-19,-122,-127,-97,46,127,127,127,0,-127,109,-108,127,127,127,8,127,96, -57,-65,-112,127,65,-52,47,-17,77,24,16,-61,14,75,86,-38,-19,11,-16,-39,-75,-13,-64,-10,-105,48,18,-80,-55,42,127,-99,-39,11,58,76,97,67,-21,-19,45,127,78,24,53,-43,12,17, 
  /* [0][2][][] */ -127,-28,13,27,-51,-29,11,-23,45,-49,17,-41,14,18,-38,-23,-80,-23,94,-24,-49,31,-58,-23,-1,73,68,-25,39,54,-11,-2,-9,-67,-43,44,8,11,-70,-37,20,-3,31,44,20,67,16,-62, -64,-49,-5,-71,85,45,57,-59,113,20,-46,-76,-1,40,-120,-62,41,8,44,-53,-41,-18,-47,46,-41,72,75,-31,36,5,-30,-40,-38,-31,-64,58,30,2,-120,-82,29,-50,87,73,35,-106,26,4, 6,-34,-43,-13,-41,-22,13,-15,-91,22,-28,-22,-6,21,49,-24,28,42,-7,-35,-52,-22,-11,-16,-46,28,12,-15,2,-58,55,-28,-85,24,21,44,21,14,-62,-30,7,49,28,10,15,1,9,30, 
};
const TfArray<4, int> tensor_dimension10 = { 4, { 1,3,3,48 } };
const TfArray<48, float> quant10_scale = { 48, { 0.0043986118398606777, 0.0050948760472238064, 0.0083912936970591545, 0.0074403248727321625, 0.024211814627051353, 0.0064247283153235912, 0.0056024575605988503, 0.0053461603820323944, 0.0040811267681419849, 0.0033780350349843502, 0.0032030900474637747, 0.0025818261783570051, 0.0041924682445824146, 0.0035821530036628246, 0.0075061102397739887, 0.0073264851234853268, 0.0055660633370280266, 0.019725020974874496, 0.0064045400358736515, 0.0089005166664719582, 0.0056389425881206989, 0.018145168200135231, 0.0070760347880423069, 0.011269301176071167, 0.0055473409593105316, 0.0048003317788243294, 0.003058064728975296, 0.0047011892311275005, 0.0051713683642446995, 0.037640299648046494, 0.011130009777843952, 0.0040595852769911289, 0.0048334198072552681, 0.0072620050050318241, 0.0074774967506527901, 0.0030441577546298504, 0.0043129641562700272, 0.001983617665246129, 0.0046971831470727921, 0.0030084364116191864, 0.0061452370136976242, 0.0061042080633342266, 0.0035305148921906948, 0.0041615832597017288, 0.0039901444688439369, 0.0094754947349429131, 0.0035988313611596823, 0.0088570807129144669, } };
const TfArray<48, int> quant10_zero = { 48, { 0,0,0,0,0,0,0,0,0,0,0,0,0,0,0,0,0,0,0,0,0,0,0,0,0,0,0,0,0,0,0,0,0,0,0,0,0,0,0,0,0,0,0,0,0,0,0,0 } };
const TfLiteAffineQuantization quant10 = { (TfLiteFloatArray*)&quant10_scale, (TfLiteIntArray*)&quant10_zero, 3 };
const ALIGN(16) int32_t tensor_data11[48] = { 13096, 6555, 4553, 620, 2484, -543, 185, 28018, -2808, 3063, 5436, 55474, -629, -566, -255, 10861, -1875, 12738, 780, 6352, 14567, -109, 4591, -9118, 11015, 639, 603, 12701, -393, -2975, -8378, 10972, 4707, 2361, -586, 3206, -9161, 9854, -1349, 18436, -1318, -261, 2900, 640, -747, -3025, -263, -22, };
const TfArray<1, int> tensor_dimension11 = { 1, { 48 } };
const TfArray<48, float> quant11_scale = { 48, { 0.00010349674994358793, 0.00011987944162683561, 0.00019744220480788499, 0.00017506646690890193, 0.00056968978606164455, 0.00015117008297238499, 0.00013182254042476416, 0.00012579200847540051, 9.6026516985148191e-05, 7.948317943373695e-05, 7.536682824138552e-05, 6.0748850955860689e-05, 9.8646312835626304e-05, 8.4285951743368059e-05, 0.00017661436868365854, 0.00017238789587281644, 0.00013096620386932045, 0.00046411814400926232, 0.00015069506480358541, 0.00020942393166478723, 0.0001326810015598312, 0.00042694513103924692, 0.00016649493773002177, 0.00026516002253629267, 0.0001305256737396121, 0.00011294898285996169, 7.1954462327994406e-05, 0.0001106162162614055, 0.0001216792588820681, 0.00088565412443131208, 0.00026188258198089898, 9.5519651949871331e-05, 0.00011372752487659454, 0.00017087071319110692, 0.00017594110977370292, 7.1627240686211735e-05, 0.00010148151341127232, 4.6673358156112954e-05, 0.00011052195623051375, 7.0786743890494108e-05, 0.0001445938105462119, 0.00014362842193804681, 8.3070939581375569e-05, 9.7919604741036892e-05, 9.3885755632072687e-05, 0.00022295281814876944, 8.4678387793246657e-05, 0.00020840190700255334, } };
const TfArray<48, int> quant11_zero = { 48, { 0,0,0,0,0,0,0,0,0,0,0,0,0,0,0,0,0,0,0,0,0,0,0,0,0,0,0,0,0,0,0,0,0,0,0,0,0,0,0,0,0,0,0,0,0,0,0,0 } };
const TfLiteAffineQuantization quant11 = { (TfLiteFloatArray*)&quant11_scale, (TfLiteIntArray*)&quant11_zero, 0 };
const ALIGN(16) int8_t tensor_data12[8*1*1*48] = { 
  /* [0][0][][] */ -49,0,29,14,-30,-11,9,6,-42,-6,-66,-55,-25,-64,-12,-34,53,-45,38,43,-20,29,-37,12,4,-41,58,-15,-7,-27,22,10,82,32,36,-127,19,2,-19,-33,6,-24,44,48,37,5,26,3, 
  /* [1][0][][] */ 9,30,66,-28,-17,45,-50,-31,5,21,-15,-94,4,99,-23,60,-25,16,-19,-58,10,-85,-26,18,-75,-10,-6,-126,-26,-12,23,-58,49,79,-44,2,127,-32,3,46,-29,42,-90,-29,117,-15,-38,-26, 
  /* [2][0][][] */ -3,-23,-64,13,-2,49,30,6,-15,39,-4,22,62,-95,18,-63,32,-92,24,37,-22,48,-3,28,-16,58,-25,-67,17,5,15,-66,-49,-88,41,-31,109,21,-13,-58,-9,26,81,29,127,16,17,28, 
  /* [3][0][][] */ -3,28,-68,50,16,-40,-66,-104,15,-26,-37,3,3,27,32,79,-5,19,-38,27,3,-97,29,-61,-71,-6,127,-13,-46,-1,-68,17,-2,-86,9,-12,-19,-38,-20,103,-46,-33,-2,21,40,0,-37,42, 
  /* [4][0][][] */ -27,-50,3,1,30,-25,-10,-7,29,-29,58,-78,1,32,6,12,-18,-22,11,-19,-3,-48,6,-14,13,-6,39,50,32,19,-17,26,-6,0,3,0,-65,81,30,-26,33,-26,-19,-21,-74,14,127,16, 
  /* [5][0][][] */ 43,-16,5,19,24,-43,32,-127,22,-28,-8,117,-77,67,21,-62,-4,-89,14,0,-38,65,-41,-43,-60,78,-22,0,-23,54,-45,-34,28,62,39,-4,-38,-8,-44,-41,8,-36,-43,-13,-33,50,90,18, 
  /* [6][0][][] */ 54,-22,22,-11,-35,-20,-37,20,-42,11,-41,127,-43,-36,-4,58,11,45,10,35,38,-85,-20,23,25,40,-65,5,7,-38,8,42,6,19,-12,-5,14,0,-1,-5,-8,-19,39,54,-3,-34,74,-16, 
  /* [7][0][][] */ -28,9,-10,73,33,43,9,32,19,7,73,-1,127,110,68,50,47,48,-12,4,17,-20,-90,-22,16,-6,-31,69,34,-25,-34,-14,36,8,45,-100,-78,37,38,60,-37,33,86,126,-63,-26,-113,59, 
};
const TfArray<4, int> tensor_dimension12 = { 4, { 8,1,1,48 } };
const TfArray<8, float> quant12_scale = { 8, { 0.011523179709911346, 0.0049855206161737442, 0.0058331163600087166, 0.0062029995024204254, 0.0078422632068395615, 0.0067284759134054184, 0.010979825630784035, 0.0063044973649084568, } };
const TfArray<8, int> quant12_zero = { 8, { 0,0,0,0,0,0,0,0 } };
const TfLiteAffineQuantization quant12 = { (TfLiteFloatArray*)&quant12_scale, (TfLiteIntArray*)&quant12_zero, 0 };
const ALIGN(16) int32_t tensor_data13[8] = { 7525, 16904, -3408, 6613, -908, 2931, -11714, -19701, };
const TfArray<1, int> tensor_dimension13 = { 1, { 8 } };
const TfArray<8, float> quant13_scale = { 8, { 0.00027113364194519818, 0.00011730637197615579, 0.0001372497936245054, 0.00014595293032471091, 0.00018452384392730892, 0.00015831708151381463, 0.00025834885309450328, 0.00014834111789241433, } };
const TfArray<8, int> quant13_zero = { 8, { 0,0,0,0,0,0,0,0 } };
const TfLiteAffineQuantization quant13 = { (TfLiteFloatArray*)&quant13_scale, (TfLiteIntArray*)&quant13_zero, 0 };
const ALIGN(16) int8_t tensor_data14[48*1*1*8] = { 
  /* [0][0][][] */ 61,127,-87,-86,20,84,12,76, 
  /* [1][0][][] */ 63,-70,48,-127,-59,64,-84,-38, 
  /* [2][0][][] */ -29,127,112,48,106,4,57,10, 
  /* [3][0][][] */ 85,33,-99,64,-16,-93,-127,-29, 
  /* [4][0][][] */ -31,31,10,-68,-27,107,127,48, 
  /* [5][0][][] */ 21,83,-127,-77,55,110,39,-39, 
  /* [6][0][][] */ -10,127,56,46,79,23,29,-103, 
  /* [7][0][][] */ 127,-32,-60,45,11,7,124,21, 
  /* [8][0][][] */ 61,127,64,102,101,80,98,-86, 
  /* [9][0][][] */ 45,108,-127,-89,16,100,-7,61, 
  /* [10][0][][] */ -63,-38,17,-56,-11,-26,-49,127, 
  /* [11][0][][] */ 21,-104,-127,-11,29,-18,34,-7, 
  /* [12][0][][] */ -18,-103,-124,-34,-127,0,-77,39, 
  /* [13][0][][] */ -9,4,-96,97,-127,-25,3,-12, 
  /* [14][0][][] */ -69,-39,-127,-6,39,-3,-15,-58, 
  /* [15][0][][] */ 22,-107,-127,15,-113,-35,-36,-17, 
  /* [16][0][][] */ 127,-64,-18,68,-86,28,32,98, 
  /* [17][0][][] */ -29,122,127,-31,-49,-9,-24,-34, 
  /* [18][0][][] */ 12,-127,31,58,-3,-66,39,-76, 
  /* [19][0][][] */ 127,-47,-54,39,-95,-1,41,100, 
  /* [20][0][][] */ -27,-127,82,74,-12,-87,1,-72, 
  /* [21][0][][] */ -14,-62,-18,-39,127,-1,48,21, 
  /* [22][0][][] */ -127,23,-71,50,52,57,-84,-105, 
  /* [23][0][][] */ -84,-56,60,-9,-109,104,127,-43, 
  /* [24][0][][] */ -34,56,-4,-40,-31,127,108,-7, 
  /* [25][0][][] */ -72,-118,-127,-56,-57,-13,-24,-52, 
  /* [26][0][][] */ -11,80,-8,127,-100,32,-59,0, 
  /* [27][0][][] */ 17,-127,33,79,16,-53,1,-125, 
  /* [28][0][][] */ 36,127,56,40,113,-23,21,-94, 
  /* [29][0][][] */ 123,19,-49,-20,121,-127,-100,59, 
  /* [30][0][][] */ 29,-9,30,-127,18,-31,9,-22, 
  /* [31][0][][] */ 47,-47,4,69,-17,40,16,127, 
  /* [32][0][][] */ -104,-73,-7,-62,-89,127,54,86, 
  /* [33][0][][] */ -29,44,38,-46,34,127,-123,82, 
  /* [34][0][][] */ 33,127,-76,-51,13,47,-62,68, 
  /* [35][0][][] */ 8,-127,31,46,-22,-51,46,-67, 
  /* [36][0][][] */ -12,-29,-81,-13,-127,-47,-21,11, 
  /* [37][0][][] */ -48,-127,72,85,-46,-94,-16,-47, 
  /* [38][0][][] */ -72,22,64,-69,-127,-88,-60,86, 
  /* [39][0][][] */ 62,-127,86,46,-8,-74,-16,-82, 
  /* [40][0][][] */ 5,54,22,63,-127,-18,-61,17, 
  /* [41][0][][] */ 100,127,-83,-86,49,35,-5,13, 
  /* [42][0][][] */ -5,-38,-19,11,127,16,47,19, 
  /* [43][0][][] */ 127,33,83,34,-63,-29,61,110, 
  /* [44][0][][] */ 77,42,-10,13,71,-103,-127,17, 
  /* [45][0][][] */ 47,4,19,27,67,-127,0,-58, 
  /* [46][0][][] */ 55,-35,-7,127,43,60,26,66, 
  /* [47][0][][] */ -65,-66,44,52,-43,19,127,-61, 
};
const TfArray<4, int> tensor_dimension14 = { 4, { 48,1,1,8 } };
const TfArray<48, float> quant14_scale = { 48, { 0.0033231878187507391, 0.0025531828869134188, 0.0009739558445289731, 0.0033181170001626015, 0.0034325351007282734, 0.0029915340710431337, 0.0020074357744306326, 0.00065776624251157045, 0.0018241144716739655, 0.0035350087564438581, 0.0031603020615875721, 0.0031119529157876968, 0.00074158597271889448, 0.003785968292504549, 0.0038280379958450794, 0.00072594982339069247, 0.0038749945815652609, 0.0029119148384779692, 0.0043447907082736492, 0.002616403391584754, 0.0031154099851846695, 0.0030685835517942905, 0.0046643787063658237, 0.00062311795772984624, 0.0020458835642784834, 0.0021100500598549843, 0.0009270280716009438, 0.0038241459988057613, 0.0020083619747310877, 0.0017833608435466886, 0.0062415548600256443, 0.0057450197637081146, 0.0034176388289779425, 0.0030473300721496344, 0.0041199438273906708, 0.0041025499813258648, 0.0026356768794357777, 0.0040973201394081116, 0.0033615909051150084, 0.0032092034816741943, 0.0025494948495179415, 0.003609509440138936, 0.0031266482546925545, 0.0023189987987279892, 0.0023670538794249296, 0.0032177863176912069, 0.0051507032476365566, 0.0023619816638529301, } };
const TfArray<48, int> quant14_zero = { 48, { 0,0,0,0,0,0,0,0,0,0,0,0,0,0,0,0,0,0,0,0,0,0,0,0,0,0,0,0,0,0,0,0,0,0,0,0,0,0,0,0,0,0,0,0,0,0,0,0 } };
const TfLiteAffineQuantization quant14 = { (TfLiteFloatArray*)&quant14_scale, (TfLiteIntArray*)&quant14_zero, 0 };
const ALIGN(16) int32_t tensor_data15[48] = { 3354, 6274, 18812, 1616, 3043, -2818, 7547, 29530, 6824, -943, 5079, -3080, 24751, -2086, 1988, 28067, -550, 2929, 28, 4805, 4149, 4576, 723, 34399, 8077, 5149, 21538, 2005, 7025, 8474, 1053, 1370, 1015, 2561, -419, 550, -4522, -695, 3371, 3069, 5991, 2851, 4881, 6632, 6026, 4418, 2384, 6483, };
const TfArray<1, int> tensor_dimension15 = { 1, { 48 } };
const TfArray<48, float> quant15_scale = { 48, { 0.00017237436259165406, 0.00013243405555840582, 5.0519265641923994e-05, 0.00017211133672390133, 0.00017804621893446892, 0.00015517142310272902, 0.00010412606206955388, 3.4118453186238185e-05, 9.4617149443365633e-05, 0.0001833615533541888, 0.00016392544785048813, 0.00016141757078003138, 3.8466198020614684e-05, 0.00019637886725831777, 0.00019856102881021798, 3.7655150663340464e-05, 0.00020099667017348111, 0.00015104154590517282, 0.00022536508913617581, 0.00013571331510320306, 0.00016159687947947532, 0.00015916799020487815, 0.00024194217985495925, 3.2321240723831579e-05, 0.00010612035111989826, 0.00010944867972284555, 4.8085115849971771e-05, 0.00019835915009025484, 0.00010417409794172272, 9.2503250925801694e-05, 0.00032375057344324887, 0.00029799522599205375, 0.0001772735413396731, 0.00015806556621100754, 0.00021370223839767277, 0.00021280001965351403, 0.00013671304623130709, 0.00021252874284982681, 0.00017436633061151952, 0.0001664619630901143, 0.00013224275608081371, 0.00018722591630648822, 0.00016217981465160847, 0.00012028688797727227, 0.00012277951464056969, 0.00016690716438461095, 0.00026716792490333319, 0.00012251641601324081, } };
const TfArray<48, int> quant15_zero = { 48, { 0,0,0,0,0,0,0,0,0,0,0,0,0,0,0,0,0,0,0,0,0,0,0,0,0,0,0,0,0,0,0,0,0,0,0,0,0,0,0,0,0,0,0,0,0,0,0,0 } };
const TfLiteAffineQuantization quant15 = { (TfLiteFloatArray*)&quant15_scale, (TfLiteIntArray*)&quant15_zero, 0 };
const ALIGN(16) int8_t tensor_data16[1*3*3*48] = { 
  /* [0][0][][] */ 3,-45,9,15,-23,-85,-43,45,-43,1,1,10,38,-7,-18,6,90,15,28,6,2,-23,-62,19,-1,-7,-5,-15,-71,69,-36,-97,58,-11,-50,-53,-15,-29,14,-28,-16,23,12,12,-9,61,127,-36, -127,-108,-24,127,-78,69,-94,127,24,12,17,-6,44,19,5,-41,-32,53,30,7,10,127,19,127,105,-23,-56,52,71,-127,-23,-67,70,-11,-34,-123,21,11,-51,-62,-127,-14,-101,-125,36,53,53,127, -5,-7,11,11,-32,19,39,38,4,-45,-14,3,-26,-7,3,6,-50,20,-70,-36,-5,-28,127,18,-72,5,9,6,18,48,20,31,-2,-20,-29,66,9,3,17,59,23,-16,25,-39,-10,43,-25,-1, 
  /* [0][1][][] */ -19,-27,-28,11,24,-109,127,-76,-17,16,28,40,127,10,-4,-33,-18,-24,31,60,61,-64,51,13,-48,127,-79,-24,127,-104,40,-127,-39,4,-83,20,17,-59,-36,12,117,127,17,-127,-59,-58,-1,69, 102,-127,127,2,127,61,-66,-44,19,127,127,-127,-111,127,127,127,127,127,127,127,127,114,5,13,127,-85,-127,123,43,117,127,-12,-127,127,127,127,-127,127,-127,-114,41,29,-127,-42,127,-127,-6,96, 31,33,-40,1,-63,127,-120,93,98,-90,14,72,-47,5,15,-66,16,-3,-117,5,21,-114,-32,3,68,-5,-17,127,-80,-42,32,-28,-26,13,77,-32,44,-4,-3,-111,111,-3,40,41,-51,87,91,-67, 
  /* [0][2][][] */ -15,35,7,-25,2,-61,-13,-5,15,3,-9,8,-20,-12,-8,2,-45,17,5,-31,-3,-27,88,-13,-99,8,46,-38,14,1,9,46,-6,-2,-42,40,6,-14,25,64,-26,-5,19,-3,-19,14,-10,19, 43,-19,-33,-31,35,41,123,-117,127,-36,-13,5,-87,-18,-20,-70,-15,105,9,23,5,27,-21,-33,-59,56,98,-16,-102,16,-25,-21,-21,-4,-38,-6,66,-29,2,127,-106,-10,-1,57,37,48,11,-100, -3,33,5,-16,-21,-6,-16,-47,-24,-29,-17,1,16,-9,-8,12,41,37,-21,-19,-9,-30,-45,-14,16,-19,41,-14,-17,7,15,21,31,-20,-32,-63,0,6,27,-2,-6,-15,19,11,-12,13,60,-47, 
};
const TfArray<4, int> tensor_dimension16 = { 4, { 1,3,3,48 } };
const TfArray<48, float> quant16_scale = { 48, { 0.0093783168122172356, 0.0062405047938227654, 0.03078729473054409, 0.0085566965863108635, 0.0087518040090799332, 0.013418532907962799, 0.0082687763497233391, 0.013046474196016788, 0.0049416152760386467, 0.010780497454106808, 0.010207772254943848, 0.055626370012760162, 0.017431257292628288, 0.019349651411175728, 0.01512124203145504, 0.026271827518939972, 0.008587895892560482, 0.0034728026948869228, 0.0099075380712747574, 0.011708296835422516, 0.011123857460916042, 0.0075790896080434322, 0.0031251658219844103, 0.019814306870102882, 0.0089034838601946831, 0.015576387755572796, 0.017761526629328728, 0.0081272060051560402, 0.0090569909662008286, 0.012595898471772671, 0.0067098927684128284, 0.0061884750612080097, 0.007826569490134716, 0.009109904058277607, 0.0066833277232944965, 0.01140737347304821, 0.083900235593318939, 0.015201865695416927, 0.0071184001863002777, 0.0067936964333057404, 0.0063243228942155838, 0.0076691941358149052, 0.011431489139795303, 0.0081167547032237053, 0.013113139197230339, 0.0033545559272170067, 0.0034242798574268818, 0.007584842387586832, } };
const TfArray<48, int> quant16_zero = { 48, { 0,0,0,0,0,0,0,0,0,0,0,0,0,0,0,0,0,0,0,0,0,0,0,0,0,0,0,0,0,0,0,0,0,0,0,0,0,0,0,0,0,0,0,0,0,0,0,0 } };
const TfLiteAffineQuantization quant16 = { (TfLiteFloatArray*)&quant16_scale, (TfLiteIntArray*)&quant16_zero, 3 };
const ALIGN(16) int32_t tensor_data17[48] = { -538, 11048, -631, -1084, 2122, -1180, 2066, -1031, -3759, 509, -5433, -125, 2412, -1127, -2325, 4158, 5332, 524, -577, -4123, -6522, 411, 19998, -5324, -2029, -2159, 3890, -6683, -342, 538, -8129, 7560, 3859, 240, 3215, 149, -104, -430, 8506, 1455, 6798, -1528, 1669, 6252, -1492, 12107, -2535, -1730, };
const TfArray<1, int> tensor_dimension17 = { 1, { 48 } };
const TfArray<48, float> quant17_scale = { 48, { 0.00022066627570893615, 0.00014683541667181998, 0.00072440697113052011, 0.00020133404177613556, 0.0002059248072328046, 0.00031573019805364311, 0.00019455944129731506, 0.00030697588226757944, 0.00011627330241026357, 0.00025365877081640065, 0.00024018288240768015, 0.0013088558334857225, 0.00041014724411070347, 0.00045528591726906598, 0.00035579394898377359, 0.00061816064408048987, 0.00020206814224366099, 8.1713005783967674e-05, 0.00023311855329666287, 0.0002754893503151834, 0.00026173781952820718, 0.00017833152378443629, 7.3533316026441753e-05, 0.00046621900401078165, 0.00020949373720213771, 0.00036650325637310743, 0.00041791828698478639, 0.00019122837693430483, 0.00021310566808097064, 0.00029637408442795277, 0.00015787984011694789, 0.00014561117859557271, 0.00018415457452647388, 0.00021435068629216403, 0.00015725477715022862, 0.00026840879581868649, 0.0019741232972592115, 0.00035769096575677395, 0.00016749177302699536, 0.00015985168283805251, 0.00014880759408697486, 0.00018045163596980274, 0.00026897623320110142, 0.00019098246411886066, 0.00030854446231387556, 7.8930730524007231e-05, 8.0571291618980467e-05, 0.00017846688569989055, } };
const TfArray<48, int> quant17_zero = { 48, { 0,0,0,0,0,0,0,0,0,0,0,0,0,0,0,0,0,0,0,0,0,0,0,0,0,0,0,0,0,0,0,0,0,0,0,0,0,0,0,0,0,0,0,0,0,0,0,0 } };
const TfLiteAffineQuantization quant17 = { (TfLiteFloatArray*)&quant17_scale, (TfLiteIntArray*)&quant17_zero, 0 };
const ALIGN(16) int8_t tensor_data18[8*1*1*48] = { 
  /* [0][0][][] */ -33,-43,-18,-76,-4,-12,88,90,-109,-91,-29,4,-63,2,-68,40,-85,14,17,127,63,-33,18,92,80,70,19,5,-97,-56,-78,-70,-57,109,35,-48,35,-28,93,-3,33,5,1,-112,41,-31,-32,-92, 
  /* [1][0][][] */ -15,48,-23,-28,-66,59,-26,-59,-35,70,-18,19,47,44,-56,-10,-25,-127,66,-50,110,11,-65,23,59,-3,-79,69,40,-13,69,26,-45,-13,-14,-16,5,102,-14,-29,66,51,-1,4,103,34,-31,55, 
  /* [2][0][][] */ -29,-35,112,5,84,-47,-9,19,-36,1,-11,46,10,-42,-48,-127,-58,-98,-26,14,-89,21,-39,-35,-50,22,1,-42,-42,6,-30,-5,-3,-7,23,-5,27,-27,-55,7,34,-29,33,-37,-46,-43,-71,-51, 
  /* [3][0][][] */ 52,19,66,10,17,-26,35,64,-53,-32,45,-27,-71,50,-17,49,61,29,-31,25,-107,-66,127,2,13,-3,-63,-30,-46,68,115,-69,6,-110,-22,46,-11,-80,-19,77,-75,-60,75,-6,-94,-73,55,-4, 
  /* [4][0][][] */ 19,-18,79,-32,13,-6,-3,-4,-57,-16,-23,4,50,-77,43,-96,37,49,-4,-40,12,38,12,18,6,-6,60,-16,28,24,-127,-17,-26,-18,8,22,48,-3,35,7,-43,-18,-68,24,-14,-101,-3,32, 
  /* [5][0][][] */ 23,-48,66,31,28,24,26,-3,-76,-14,-50,29,30,10,11,-52,99,78,-4,-13,93,-63,127,-91,-22,55,3,41,13,14,-36,-46,-19,-46,-37,8,42,28,68,3,-79,31,38,27,53,-22,78,-2, 
  /* [6][0][][] */ -44,59,-125,94,57,18,43,21,-24,-9,74,-89,-89,-25,-22,31,-126,34,-1,93,24,42,-95,-87,-3,-22,12,87,-28,-39,-46,-7,58,80,-50,-33,-16,-7,86,10,81,68,-127,-59,-39,111,-56,-34, 
  /* [7][0][][] */ 38,73,-88,17,17,59,123,70,50,86,-105,0,-47,13,-67,-42,33,42,127,102,92,9,110,24,103,110,-46,108,-76,36,7,-61,15,-71,-24,27,-11,106,-67,82,-78,44,-8,-79,79,-20,45,-41, 
};
const TfArray<4, int> tensor_dimension18 = { 4, { 8,1,1,48 } };
const TfArray<8, float> quant18_scale = { 8, { 0.0040104389190673828, 0.0047402144409716129, 0.0058326651342213154, 0.004658043384552002, 0.0048225084319710732, 0.0054723150096833706, 0.0038172444328665733, 0.0035707976203411818, } };
const TfArray<8, int> quant18_zero = { 8, { 0,0,0,0,0,0,0,0 } };
const TfLiteAffineQuantization quant18 = { (TfLiteFloatArray*)&quant18_scale, (TfLiteIntArray*)&quant18_zero, 0 };
const ALIGN(16) int32_t tensor_data19[8] = { 2791, 1448, 23415, -3846, 5175, -15343, 1547, -14531, };
const TfArray<1, int> tensor_dimension19 = { 1, { 8 } };
const TfArray<8, float> quant19_scale = { 8, { 9.4363269454333931e-05, 0.00011153445666423067, 0.00013723918527830392, 0.00010960102372337133, 0.00011347078543622047, 0.00012876035179942846, 8.9817520347423851e-05, 8.401877130381763e-05, } };
const TfArray<8, int> quant19_zero = { 8, { 0,0,0,0,0,0,0,0 } };
const TfLiteAffineQuantization quant19 = { (TfLiteFloatArray*)&quant19_scale, (TfLiteIntArray*)&quant19_zero, 0 };
const ALIGN(16) int8_t tensor_data20[48*1*1*8] = { 
  /* [0][0][][] */ 80,12,127,-47,55,100,-69,-42, 
  /* [1][0][][] */ 10,-87,-127,11,53,30,28,4, 
  /* [2][0][][] */ -127,-7,-57,-33,64,24,-58,-38, 
  /* [3][0][][] */ 45,72,127,-85,-12,-113,-4,-14, 
  /* [4][0][][] */ -127,22,-50,-25,44,17,-48,-59, 
  /* [5][0][][] */ -105,26,-54,-17,12,38,-88,-127, 
  /* [6][0][][] */ -47,-124,-127,49,99,9,4,40, 
  /* [7][0][][] */ -68,-127,-85,-77,-59,-59,25,81, 
  /* [8][0][][] */ 98,28,-22,-14,97,-82,-127,8, 
  /* [9][0][][] */ -34,49,-48,81,-55,-37,127,-22, 
  /* [10][0][][] */ -24,125,35,61,127,-22,-7,48, 
  /* [11][0][][] */ -78,-29,-14,-4,-79,102,127,0, 
  /* [12][0][][] */ 76,30,-127,43,-12,-30,-71,-15, 
  /* [13][0][][] */ 66,-35,-73,9,10,-127,-27,-28, 
  /* [14][0][][] */ 4,-75,64,-9,127,-127,-66,3, 
  /* [15][0][][] */ -46,-42,-1,127,73,83,-82,35, 
  /* [16][0][][] */ 117,29,-39,21,78,-101,-127,-25, 
  /* [17][0][][] */ 59,127,58,68,44,60,24,-87, 
  /* [18][0][][] */ 36,-26,2,-11,127,-1,25,-11, 
  /* [19][0][][] */ 9,127,32,13,-124,22,24,-36, 
  /* [20][0][][] */ -43,16,65,-127,21,38,-15,105, 
  /* [21][0][][] */ -26,65,23,-127,26,49,-15,110, 
  /* [22][0][][] */ -60,-72,-113,7,-127,118,124,-31, 
  /* [23][0][][] */ 98,42,-127,16,28,-36,-80,-18, 
  /* [24][0][][] */ -64,55,12,6,-23,80,-127,97, 
  /* [25][0][][] */ -101,-58,-127,1,-64,-82,69,92, 
  /* [26][0][][] */ 48,-5,-36,-32,113,-18,127,-45, 
  /* [27][0][][] */ 127,-68,29,98,11,26,-25,102, 
  /* [28][0][][] */ 53,65,65,-15,127,-69,63,-14, 
  /* [29][0][][] */ -19,-11,-28,-43,-67,16,127,-25, 
  /* [30][0][][] */ 62,-127,-71,-76,-108,-7,13,-57, 
  /* [31][0][][] */ 10,33,-7,-4,-127,-2,-31,-11, 
  /* [32][0][][] */ 48,-61,-61,95,-3,-83,116,-127, 
  /* [33][0][][] */ 44,127,48,36,47,-36,-19,-22, 
  /* [34][0][][] */ -124,-38,127,-12,-26,116,102,11, 
  /* [35][0][][] */ -28,66,127,-4,-47,-59,-30,32, 
  /* [36][0][][] */ -101,2,119,-16,-16,127,79,17, 
  /* [37][0][][] */ -23,-81,-2,-127,-52,-83,62,44, 
  /* [38][0][][] */ 43,-13,86,-56,54,54,-127,11, 
  /* [39][0][][] */ -16,95,-127,-54,-19,4,2,76, 
  /* [40][0][][] */ 65,-52,11,25,5,-1,5,127, 
  /* [41][0][][] */ 1,69,127,4,3,84,-66,41, 
  /* [42][0][][] */ 61,-127,-101,-7,-101,23,22,-77, 
  /* [43][0][][] */ -9,-77,37,-68,127,-45,12,42, 
  /* [44][0][][] */ -4,127,107,40,6,57,-75,4, 
  /* [45][0][][] */ -38,42,15,84,-112,60,-127,21, 
  /* [46][0][][] */ -46,-41,60,46,-127,-114,-29,-5, 
  /* [47][0][][] */ -15,57,46,-110,-127,44,-15,58, 
};
const TfArray<4, int> tensor_dimension20 = { 4, { 48,1,1,8 } };
const TfArray<48, float> quant20_scale = { 48, { 0.0025712810456752777, 0.0031472083646804094, 0.0032178943511098623, 0.0023518691305071115, 0.0022890863474458456, 0.0023040063679218292, 0.0021903121378272772, 0.0017156798858195543, 0.0027232994325459003, 0.0038237825501710176, 0.0021823160350322723, 0.0020628804340958595, 0.0035119601525366306, 0.0032878411002457142, 0.0028156812768429518, 0.0017131227068603039, 0.0028721452690660954, 0.0024037542752921581, 0.0018304948462173343, 0.0033910989295691252, 0.0038708318024873734, 0.0032388889230787754, 0.0019607688300311565, 0.0018624603981152177, 0.0026888630818575621, 0.0022512371651828289, 0.003145136870443821, 0.0030682962387800217, 0.0013446862576529384, 0.0033240318298339844, 0.0018061521695926785, 0.0018594337161630392, 0.0025840403977781534, 0.0021979259327054024, 0.0025754319503903389, 0.0031869600061327219, 0.0024968939833343029, 0.0028243970591574907, 0.0027151901740580797, 0.0024516521953046322, 0.0034337502438575029, 0.0012850175844505429, 0.0016564022516831756, 0.0031030557584017515, 0.0014377965126186609, 0.0030018738470971584, 0.0027016852982342243, 0.0026935574132949114, } };
const TfArray<48, int> quant20_zero = { 48, { 0,0,0,0,0,0,0,0,0,0,0,0,0,0,0,0,0,0,0,0,0,0,0,0,0,0,0,0,0,0,0,0,0,0,0,0,0,0,0,0,0,0,0,0,0,0,0,0 } };
const TfLiteAffineQuantization quant20 = { (TfLiteFloatArray*)&quant20_scale, (TfLiteIntArray*)&quant20_zero, 0 };
const ALIGN(16) int32_t tensor_data21[48] = { 2694, -1886, 911, -2927, 4826, -1089, 4866, -4748, 1935, 760, 2728, 5415, 643, -522, 886, 6800, -2024, 4577, 7137, 1095, -874, 2512, -1382, 6894, 2305, 2734, 1460, -1174, 9175, -578, 3789, -2641, -784, 5323, -1006, 2375, 2531, 1138, 517, 4499, 2192, 10336, -4775, 1942, 8539, -24, 3071, 3268, };
const TfArray<1, int> tensor_dimension21 = { 1, { 48 } };
const TfArray<48, float> quant21_scale = { 48, { 0.00017555849626660347, 0.0002148808998754248, 0.00021970710076857358, 0.00016057777975220233, 0.00015629117842763662, 0.00015730987070128322, 0.00014954720973037183, 0.00011714090214809403, 0.00018593780987430364, 0.00026107512530870736, 0.00014900126552674919, 0.00014084660506341606, 0.00023978493118193001, 0.00022448283561971039, 0.00019224533753003925, 0.00011696630826918408, 0.00019610050367191434, 0.00016412032709922642, 0.00012498008436523378, 0.00023153293295763433, 0.0002642874896991998, 0.00022114053717814386, 0.00013387475337367505, 0.00012716258061118424, 0.00018358661327511072, 0.00015370696200989187, 0.00021473945525940508, 0.00020949303871020675, 9.1810696176253259e-05, 0.00022695380903314799, 0.00012331805191934109, 0.0001269559288630262, 0.00017642966122366488, 0.00015006704779807478, 0.00017584190936759114, 0.00021759500668849796, 0.0001704796013655141, 0.00019284040899947286, 0.00018538413860369474, 0.00016739063721615821, 0.00023444501857738942, 8.7736720161046833e-05, 0.00011309362162137404, 0.00021186629601288587, 9.8167955002281815e-05, 0.00020495793432928622, 0.0001844620710471645, 0.0001839071192080155, } };
const TfArray<48, int> quant21_zero = { 48, { 0,0,0,0,0,0,0,0,0,0,0,0,0,0,0,0,0,0,0,0,0,0,0,0,0,0,0,0,0,0,0,0,0,0,0,0,0,0,0,0,0,0,0,0,0,0,0,0 } };
const TfLiteAffineQuantization quant21 = { (TfLiteFloatArray*)&quant21_scale, (TfLiteIntArray*)&quant21_zero, 0 };
const ALIGN(16) int8_t tensor_data22[1*3*3*48] = { 
  /* [0][0][][] */ -77,35,-119,89,-110,48,-27,105,-64,-66,59,-53,47,-92,-41,-54,91,77,75,-121,85,-113,74,-97,-93,-43,72,127,-79,-48,-90,67,69,-88,55,-88,-64,-126,85,-49,33,-70,127,-70,93,65,-64,-7, -113,66,-89,116,-81,112,-45,98,-127,-93,77,-83,81,-97,-81,-71,99,96,127,-124,112,-94,107,-127,-79,-99,89,91,42,-93,-93,80,97,-127,85,-90,-93,-127,99,-64,-127,93,86,-72,-26,98,-47,-101, -40,62,9,28,-28,60,-38,5,-66,-28,44,-37,39,-54,-27,-3,39,44,69,-31,41,-67,44,-11,-49,-30,10,22,109,-32,-54,-15,36,-84,37,-17,-41,-42,33,-33,-111,-36,68,-42,-77,69,-17,-102, 
  /* [0][1][][] */ -75,85,-62,127,-93,84,-89,127,-95,-118,85,-95,94,-103,-93,-109,121,76,-73,-94,114,-125,127,-91,-93,-102,94,127,-119,-81,-127,49,69,31,97,-112,-102,-89,95,-79,-87,-90,101,-104,127,68,-127,-121, -127,127,-127,126,-127,127,-127,6,-119,-127,127,-127,127,-127,-127,-127,127,127,-45,-127,127,-127,121,-107,-127,-127,127,103,19,-127,-103,127,127,44,127,-127,-127,-91,127,-127,-123,127,97,-127,-40,127,-120,-120, -58,63,-79,45,-82,46,-68,31,-72,-25,58,-57,50,-79,-50,-21,76,45,-45,-16,43,-50,57,-36,-94,-42,61,52,127,-86,-43,32,53,11,48,-36,-42,5,48,-37,-53,-54,52,-43,-79,58,-34,-106, 
  /* [0][2][][] */ -43,25,2,61,-40,34,-42,52,-56,-34,32,-35,31,-41,-39,-51,60,23,-74,-18,22,-25,30,-16,-46,-56,25,12,-59,-36,-24,18,26,50,51,-60,-26,-41,21,-66,-83,-36,14,-62,69,16,-72,-72, -75,46,-90,77,-73,43,-61,69,-38,-51,49,-64,67,-58,-70,-69,80,51,-96,-34,38,-31,36,-28,-46,-61,48,25,15,-80,-46,44,35,79,64,-83,-35,-37,33,-61,-34,67,31,-79,-12,47,-74,-127, -17,7,-84,15,-59,-13,-19,109,-3,-2,16,-43,8,-24,-26,6,41,11,-71,12,5,-17,4,0,-33,-29,20,19,79,-14,-7,13,0,51,10,-64,-8,-22,20,-8,13,0,-8,-25,-50,14,-14,-105, 
};
const TfArray<4, int> tensor_dimension22 = { 4, { 1,3,3,48 } };
const TfArray<48, float> quant22_scale = { 48, { 0.0046694302000105381, 0.0072727268561720848, 0.0030317632481455803, 0.0053286692127585411, 0.004060438834130764, 0.0046145832166075706, 0.0030800688546150923, 0.010990711860358715, 0.0048498162068426609, 0.0031605316326022148, 0.0028800459112972021, 0.0044863088987767696, 0.0045583248138427734, 0.0038465894758701324, 0.0021252043079584837, 0.0035746102221310139, 0.0033342733513563871, 0.0037040379829704762, 0.0067256679758429527, 0.0023774611763656139, 0.0035795974545180798, 0.0030235445592552423, 0.0044566742144525051, 0.0077506415545940399, 0.0036587503273040056, 0.0034513245336711407, 0.0033188844099640846, 0.0025528799742460251, 0.0090112481266260147, 0.0056585045531392097, 0.0032230797223746777, 0.019663970917463303, 0.0054080751724541187, 0.006397545337677002, 0.0045649493113160133, 0.0035649619530886412, 0.0052075213752686977, 0.0032122333068400621, 0.0048522260040044785, 0.0055663874372839928, 0.0040422249585390091, 0.0096391560509800911, 0.010518584400415421, 0.004259349312633276, 0.0075994199141860008, 0.0037783558946102858, 0.0026557764504104853, 0.00272364541888237, } };
const TfArray<48, int> quant22_zero = { 48, { 0,0,0,0,0,0,0,0,0,0,0,0,0,0,0,0,0,0,0,0,0,0,0,0,0,0,0,0,0,0,0,0,0,0,0,0,0,0,0,0,0,0,0,0,0,0,0,0 } };
const TfLiteAffineQuantization quant22 = { (TfLiteFloatArray*)&quant22_scale, (TfLiteIntArray*)&quant22_zero, 3 };
const ALIGN(16) int32_t tensor_data23[48] = { 13764, -386, 19594, -469, 17590, -1796, 29375, 323, 10220, 29484, 2123, 24471, -2171, 12245, 35097, 23119, 79, -3277, 3875, 41818, -1322, 18928, -18, 16416, 15526, 32515, -1871, -2397, -5897, 12597, 19264, -323, -482, -793, -866, 16002, 10394, 24960, 87, 15786, 20901, -596, 500, 12729, -1055, -1326, 34133, 31446, };
const TfArray<1, int> tensor_dimension23 = { 1, { 48 } };
const TfArray<48, float> quant23_scale = { 48, { 0.0001098689463105984, 0.00017112298519350588, 7.1335605753120035e-05, 0.00012538045120891184, 9.5539740868844092e-05, 0.00010857843153644353, 7.2472212195862085e-05, 0.000258604995906353, 0.00011411332525312901, 7.4365452746860683e-05, 6.7765788116957992e-05, 0.00010556021152297035, 0.00010725470201577991, 9.0507986897137016e-05, 5.0004808144876733e-05, 8.4108476585242897e-05, 7.8453493188135326e-05, 8.7153835920616984e-05, 0.00015825101581867784, 5.5940265156095847e-05, 8.4225823229644448e-05, 7.1142225351650268e-05, 0.00010486292740097269, 0.00018236803589388728, 8.6088242824189365e-05, 8.1207639595959336e-05, 7.8091397881507874e-05, 6.0067766753491014e-05, 0.00021202936477493495, 0.00013314129319041967, 7.5837167969439179e-05, 0.00046268166624940932, 0.00012724882981274277, 0.00015053048264235258, 0.00010741057485574856, 8.388145943172276e-05, 0.00012252992019057274, 7.5581963756121695e-05, 0.00011417002679081634, 0.00013097382907290012, 9.5111179689411074e-05, 0.00022680367692373693, 0.00024749612202867866, 0.00010021998605225235, 0.00017880988889373839, 8.8902495917864144e-05, 6.2488856201525778e-05, 6.4085776102729142e-05, } };
const TfArray<48, int> quant23_zero = { 48, { 0,0,0,0,0,0,0,0,0,0,0,0,0,0,0,0,0,0,0,0,0,0,0,0,0,0,0,0,0,0,0,0,0,0,0,0,0,0,0,0,0,0,0,0,0,0,0,0 } };
const TfLiteAffineQuantization quant23 = { (TfLiteFloatArray*)&quant23_scale, (TfLiteIntArray*)&quant23_zero, 0 };
const ALIGN(16) int8_t tensor_data24[16*1*1*48] = { 
  /* [0][0][][] */ 31,40,24,-34,71,64,-41,59,-17,109,5,48,-38,40,-13,45,32,80,56,-73,-66,79,-5,46,63,43,25,45,-53,-54,-6,99,-25,15,-78,52,52,-127,-40,12,22,-42,57,-4,-9,-54,-74,-16, 
  /* [1][0][][] */ -52,-1,-82,-41,8,92,-54,17,-12,-34,-42,34,59,-20,-29,-27,-26,-30,-11,16,-62,43,-104,-39,-53,-36,46,66,-23,-28,43,-42,11,-58,-29,50,13,-57,127,-29,-20,30,-47,-17,35,54,25,14, 
  /* [2][0][][] */ -5,9,61,-26,-16,-87,24,12,101,81,-62,18,108,-30,127,74,-72,-11,-19,28,89,-90,-39,-118,4,-25,32,-64,36,56,-44,20,26,-29,54,45,-70,28,8,-36,38,25,55,-14,15,-80,94,-61, 
  /* [3][0][][] */ 38,0,-26,-29,28,112,15,-18,39,-49,24,-24,-48,7,11,38,-35,-64,25,-127,-14,-1,-27,-19,-44,88,112,65,-10,-40,28,37,57,-28,97,30,-46,-54,3,34,14,3,-18,-3,29,24,-10,-25, 
  /* [4][0][][] */ 94,-8,3,-53,90,84,44,9,85,-9,-105,30,35,-5,12,-20,-106,-124,-18,-93,-13,16,-40,-37,-86,127,-99,127,-53,-46,24,84,36,-56,19,-24,-16,16,-22,28,-53,-10,-14,48,-58,110,-28,-50, 
  /* [5][0][][] */ 0,-6,-60,7,-20,56,15,-24,59,57,38,81,52,-25,30,-3,-34,127,-27,36,11,-2,-65,-10,33,2,-60,-31,-14,22,17,-19,-36,2,43,12,-45,-6,-80,6,86,-16,29,45,-17,8,-37,27, 
  /* [6][0][][] */ 63,17,16,69,-10,-31,98,-54,3,73,127,109,45,43,-52,61,40,-46,-77,96,50,-68,-46,61,-92,91,95,-9,120,59,-33,-3,96,-62,-124,-7,102,31,1,-1,7,58,53,-42,68,125,45,4, 
  /* [7][0][][] */ -95,-2,-32,29,-72,-64,26,46,83,124,-57,-74,-99,14,-17,-12,-79,100,9,121,-49,42,13,35,-19,-95,-25,-86,30,49,-6,10,-17,9,14,-17,6,-59,127,6,10,43,13,-16,54,74,-30,-4, 
  /* [8][0][][] */ -12,-93,49,-62,52,-60,74,-42,-31,-122,30,13,-32,0,28,28,-1,8,-44,100,6,33,-21,30,65,-12,-70,-34,-127,-22,-54,-118,5,-54,1,82,-12,35,106,13,11,-4,67,115,-3,-72,-43,82, 
  /* [9][0][][] */ 23,-40,14,-62,30,88,-41,46,24,-47,-33,-19,19,-48,110,-13,9,-102,32,38,-78,45,54,-30,-18,-77,-23,70,61,69,-39,-31,-47,25,-6,127,-23,-44,-59,-30,-24,-8,31,103,60,71,-68,18, 
  /* [10][0][][] */ -12,17,-26,-7,18,27,-62,-41,48,28,63,-5,-32,-15,47,-47,-58,127,-5,46,1,-10,17,32,-43,44,3,81,41,8,-32,-11,69,10,-5,25,4,-46,-38,18,-84,4,26,-16,19,43,23,40, 
  /* [11][0][][] */ -30,47,-24,38,31,62,0,10,16,14,-127,-69,78,12,-10,-48,1,28,-49,-48,-11,-8,107,10,46,12,-17,36,-6,27,-6,45,29,-6,-46,-2,49,82,103,21,31,-28,67,-4,-46,-18,90,5, 
  /* [12][0][][] */ -62,0,37,17,-57,-60,4,1,-35,-40,-127,13,67,-81,21,35,44,100,98,-114,-33,44,-41,-84,1,-19,31,-21,5,14,-20,72,68,88,35,-31,-54,-28,28,-2,-37,12,60,-1,35,-16,-40,-37, 
  /* [13][0][][] */ -51,-113,-52,-108,3,28,54,15,-120,26,120,-67,54,43,127,11,115,27,-14,-92,73,-72,121,0,-70,7,-20,7,-43,-101,-114,16,51,-23,-70,69,32,-65,87,-81,-4,57,74,42,50,-41,112,-58, 
  /* [14][0][][] */ 68,24,-52,3,-40,14,-89,-26,-30,58,54,44,-9,-52,16,-45,50,-118,30,14,87,-59,25,-11,-10,124,-89,1,-69,-26,-93,6,127,46,86,-18,-82,14,-25,55,-4,-55,108,-24,-57,-47,-52,54, 
  /* [15][0][][] */ -58,17,42,20,92,4,-1,46,22,78,-19,53,52,-21,-36,-10,14,36,1,-37,25,-30,-44,-53,56,-66,-35,59,-28,-2,11,16,-57,0,127,-2,-84,5,59,-16,-52,-21,27,-5,-34,-36,-12,14, 
};
const TfArray<4, int> tensor_dimension24 = { 4, { 16,1,1,48 } };
const TfArray<16, float> quant24_scale = { 16, { 0.0051564062014222145, 0.0067199282348155975, 0.0060877902433276176, 0.0068403575569391251, 0.0042900489643216133, 0.0066051040776073933, 0.0035679249558597803, 0.0062125218100845814, 0.0038033900782465935, 0.0034226586576551199, 0.0069024390541017056, 0.0057897935621440411, 0.0052809054031968117, 0.0047092330642044544, 0.0058470387011766434, 0.0066267922520637512, } };
const TfArray<16, int> quant24_zero = { 16, { 0,0,0,0,0,0,0,0,0,0,0,0,0,0,0,0 } };
const TfLiteAffineQuantization quant24 = { (TfLiteFloatArray*)&quant24_scale, (TfLiteIntArray*)&quant24_zero, 0 };
const ALIGN(16) int32_t tensor_data25[16] = { -3000, 12919, -25369, 3498, 14019, -16418, -48753, -10203, -4746, 8290, -17204, -15930, 7464, -14307, -4697, -2487, };
const TfArray<1, int> tensor_dimension25 = { 1, { 16 } };
const TfArray<16, float> quant25_scale = { 16, { 0.00010359637235524133, 0.00013500879867933691, 0.00012230862921569496, 0.00013742831652052701, 8.6190557340160012e-05, 0.00013270188355818391, 7.1682501584291458e-05, 0.00012481458543334156, 7.6413183705881238e-05, 6.8763984018005431e-05, 0.00013867559027858078, 0.00011632163659669459, 0.00010609766468405724, 9.4612303655594587e-05, 0.00011747173994081095, 0.0001331376115558669, } };
const TfArray<16, int> quant25_zero = { 16, { 0,0,0,0,0,0,0,0,0,0,0,0,0,0,0,0 } };
const TfLiteAffineQuantization quant25 = { (TfLiteFloatArray*)&quant25_scale, (TfLiteIntArray*)&quant25_zero, 0 };
const ALIGN(16) int8_t tensor_data26[96*1*1*16] = { 
  /* [0][0][][] */ 35,17,3,52,-127,-21,86,45,42,81,-32,42,7,8,31,77, 
  /* [1][0][][] */ -9,28,-75,-6,127,99,-11,-5,-32,27,-65,52,-53,85,-39,-43, 
  /* [2][0][][] */ -39,61,71,-6,62,80,6,45,32,-8,44,-14,54,-127,-1,5, 
  /* [3][0][][] */ 127,-24,22,4,30,23,-18,7,31,43,-59,-23,-45,48,-41,50, 
  /* [4][0][][] */ -92,-8,23,35,-122,-1,-86,-40,-27,37,-26,-64,-32,28,-44,127, 
  /* [5][0][][] */ -105,13,61,7,127,31,10,23,-52,35,-35,24,-60,69,-87,-18, 
  /* [6][0][][] */ -127,27,-32,24,-11,-67,73,12,6,-24,-54,32,4,9,-42,10, 
  /* [7][0][][] */ 1,127,62,-53,82,40,123,-4,44,10,27,67,122,20,-45,-11, 
  /* [8][0][][] */ -20,-25,-82,62,-48,66,-41,-70,49,-41,88,28,127,61,-103,-9, 
  /* [9][0][][] */ -26,-127,-24,108,-47,-60,-17,56,49,48,15,75,-79,7,-18,-42, 
  /* [10][0][][] */ -50,-12,-115,45,-102,79,78,-44,-3,-41,89,-7,21,127,-62,88, 
  /* [11][0][][] */ -27,-110,-39,37,-6,90,19,1,38,-13,27,-65,-9,127,-106,97, 
  /* [12][0][][] */ -32,-80,-70,66,-87,-127,6,52,77,74,-36,107,8,-59,-26,-12, 
  /* [13][0][][] */ -66,-17,-36,-4,-17,-5,33,18,-19,127,-6,-24,37,27,7,-11, 
  /* [14][0][][] */ -108,-30,-47,-42,8,84,-34,-71,127,-44,79,54,87,-26,-68,-102, 
  /* [15][0][][] */ 2,-127,99,-54,-59,-30,3,70,19,-54,-92,-34,86,-49,-33,-50, 
  /* [16][0][][] */ -26,-22,18,-37,30,30,-14,-19,58,-127,42,-17,-12,-12,-83,-83, 
  /* [17][0][][] */ -15,-1,41,-67,23,-12,-49,5,97,-54,26,77,121,-73,-16,-127, 
  /* [18][0][][] */ 60,14,-50,-127,-2,-5,126,-16,19,44,-3,81,-26,100,-37,-113, 
  /* [19][0][][] */ -42,-59,-26,-75,-127,38,-22,4,46,-49,25,-110,-12,-25,-20,2, 
  /* [20][0][][] */ 19,76,66,-91,61,-3,-46,79,-109,-127,36,-88,-40,106,-15,-11, 
  /* [21][0][][] */ 16,-95,-127,0,89,14,89,117,-91,-89,-15,28,99,-108,-18,40, 
  /* [22][0][][] */ 49,1,75,-14,-5,20,84,25,12,114,38,29,-2,1,127,4, 
  /* [23][0][][] */ -126,-55,-28,51,47,51,23,6,-13,4,10,-86,1,50,52,127, 
  /* [24][0][][] */ -16,-12,51,14,8,-84,-9,-16,6,117,-127,76,-38,-39,60,-49, 
  /* [25][0][][] */ 111,-55,70,127,30,-16,-16,69,-119,74,93,-63,7,55,66,-2, 
  /* [26][0][][] */ -25,37,9,47,-61,112,-20,43,-71,-39,-79,37,-1,27,46,-127, 
  /* [27][0][][] */ 40,6,-9,-44,-47,3,-73,10,-101,-26,-62,-39,-66,41,-3,127, 
  /* [28][0][][] */ -67,27,22,1,33,-14,-127,10,-8,-31,-2,-9,7,-51,-77,-20, 
  /* [29][0][][] */ -32,-115,-26,89,-32,8,127,8,73,54,-110,63,51,-28,-42,80, 
  /* [30][0][][] */ 45,-44,-68,4,-127,11,56,-35,10,11,2,-19,-21,53,1,75, 
  /* [31][0][][] */ -127,9,12,86,-35,1,-44,-13,-33,-49,6,-24,-24,-53,-21,102, 
  /* [32][0][][] */ -127,-51,-91,-2,-96,-52,8,-21,116,54,-57,-57,45,80,16,-1, 
  /* [33][0][][] */ -7,15,-109,40,-127,-108,53,-24,-111,29,-67,-64,-7,123,70,56, 
  /* [34][0][][] */ 38,44,9,26,-103,-50,25,13,29,-127,-24,28,-18,-9,55,91, 
  /* [35][0][][] */ 61,13,-54,12,-127,5,71,-1,26,32,-10,9,17,65,30,56, 
  /* [36][0][][] */ 0,13,-56,65,127,-28,40,85,-83,24,-88,-87,13,-28,20,21, 
  /* [37][0][][] */ -117,49,4,-65,47,-70,-41,-41,-2,-23,-31,26,59,-110,-11,-127, 
  /* [38][0][][] */ 42,87,49,-61,-116,-101,-127,-58,-64,-92,33,39,-59,-95,78,3, 
  /* [39][0][][] */ 9,-23,5,68,30,79,83,-61,-38,70,7,-21,-10,118,41,127, 
  /* [40][0][][] */ 84,58,75,89,-71,-25,6,-13,-92,50,-3,-20,-62,-44,127,11, 
  /* [41][0][][] */ -26,-7,9,46,-85,127,3,66,-53,27,-98,10,7,50,39,-114, 
  /* [42][0][][] */ 0,-102,47,-18,127,20,53,24,-34,-76,-83,-16,-38,0,-12,22, 
  /* [43][0][][] */ -45,-81,-53,7,116,23,-1,104,-68,-79,-127,-98,108,-32,-67,65, 
  /* [44][0][][] */ -26,-44,-74,-100,35,88,91,22,-32,-127,-69,78,-58,39,29,110, 
  /* [45][0][][] */ 14,-67,-66,-13,-127,69,-46,-86,64,-16,13,-49,10,16,-33,39, 
  /* [46][0][][] */ 32,-77,-19,12,66,-79,-11,127,-22,-40,45,78,-53,-58,60,-108, 
  /* [47][0][][] */ -89,-29,11,71,-8,14,29,25,-6,122,51,93,-58,42,-12,127, 
  /* [48][0][][] */ 39,-11,-82,-84,29,-57,10,52,41,-77,-2,19,-60,1,-43,-127, 
  /* [49][0][][] */ 70,30,10,37,-4,-25,34,72,-15,127,-35,59,-29,2,80,87, 
  /* [50][0][][] */ 3,2,11,4,-127,-16,-9,-54,60,19,20,50,-19,-56,12,-1, 
  /* [51][0][][] */ 10,4,-4,-127,-19,77,46,-42,8,10,27,-47,66,79,-16,19, 
  /* [52][0][][] */ 37,-34,7,-83,108,-120,-13,-30,51,7,127,-56,55,17,-38,84, 
  /* [53][0][][] */ -80,-60,32,-28,-40,-127,25,-109,-5,84,-92,87,-39,1,20,-82, 
  /* [54][0][][] */ 38,74,34,-18,-127,-28,-56,-97,-12,4,52,44,-66,-48,37,16, 
  /* [55][0][][] */ 23,16,-41,81,-41,29,35,-3,11,127,24,55,-2,6,-1,44, 
  /* [56][0][][] */ 24,-83,-75,101,-72,44,2,27,127,-20,24,26,-17,-22,38,58, 
  /* [57][0][][] */ 43,33,96,-97,79,2,-6,-5,96,-46,27,127,41,-59,99,-53, 
  /* [58][0][][] */ 91,-66,23,-80,40,27,-1,127,60,110,-3,50,53,8,116,-9, 
  /* [59][0][][] */ -57,43,17,-39,-20,-78,6,6,-36,9,-69,-92,-127,-48,60,-6, 
  /* [60][0][][] */ 40,-29,28,9,15,-15,16,-56,26,127,-15,61,-8,-34,-23,-26, 
  /* [61][0][][] */ 63,62,16,-22,-94,-127,-24,-67,-60,-18,-23,17,-76,-59,89,87, 
  /* [62][0][][] */ -17,75,-31,45,-45,127,-51,27,-60,12,-35,39,-19,39,51,-85, 
  /* [63][0][][] */ 34,-17,-70,-127,-25,-39,79,-10,-6,-104,-31,24,-42,76,24,-37, 
  /* [64][0][][] */ -49,26,16,-29,41,-56,28,60,-127,-15,-71,-53,-33,60,36,59, 
  /* [65][0][][] */ -57,-4,-49,-13,70,53,-50,-73,-117,-61,13,-10,-127,110,-53,56, 
  /* [66][0][][] */ -3,70,-11,31,-43,127,-12,8,-57,11,-38,37,-26,35,45,-80, 
  /* [67][0][][] */ 26,-22,-49,-4,23,-79,52,-84,16,32,7,113,-72,-9,-18,-127, 
  /* [68][0][][] */ 11,-127,-37,60,-18,13,36,100,43,28,49,8,-84,31,-22,6, 
  /* [69][0][][] */ -1,73,25,-85,58,16,-43,95,38,118,52,72,71,-66,24,-127, 
  /* [70][0][][] */ 41,31,37,-28,82,14,-91,-43,-127,-96,8,66,-35,68,-87,0, 
  /* [71][0][][] */ -29,-70,43,-59,76,-26,48,27,-91,92,-127,-87,-13,94,-36,52, 
  /* [72][0][][] */ 15,17,67,13,-70,-24,-115,-72,8,74,-40,74,39,126,-127,-15, 
  /* [73][0][][] */ 4,-38,-16,-34,37,-127,27,-54,82,101,113,-21,21,-36,-78,127, 
  /* [74][0][][] */ 4,11,-31,67,-81,-3,95,19,76,60,30,109,127,20,-60,11, 
  /* [75][0][][] */ -31,40,-24,41,-63,127,-23,17,-31,29,-50,43,-20,59,33,-76, 
  /* [76][0][][] */ -67,100,-42,30,-93,-7,-17,13,71,66,-58,-37,52,-49,-127,32, 
  /* [77][0][][] */ 127,127,-122,106,84,86,68,35,65,21,91,-43,91,38,70,12, 
  /* [78][0][][] */ 19,-35,4,-53,69,-127,25,-40,48,50,120,-27,-7,-27,-51,115, 
  /* [79][0][][] */ -38,67,2,19,2,-42,-33,-10,-127,-3,53,8,113,46,-94,-46, 
  /* [80][0][][] */ -88,37,108,20,92,47,-25,-127,-100,79,-67,-30,-8,-90,39,74, 
  /* [81][0][][] */ 73,83,-27,-3,27,-13,94,114,-127,123,-64,-49,-53,21,111,125, 
  /* [82][0][][] */ 50,127,-32,-78,-14,-38,115,-93,18,15,-56,75,109,-13,76,-33, 
  /* [83][0][][] */ -5,-22,14,24,4,26,-29,-113,70,-36,104,5,44,-45,-64,-127, 
  /* [84][0][][] */ -127,-82,-35,-18,-37,120,93,7,76,67,119,106,60,78,-81,6, 
  /* [85][0][][] */ 127,7,99,-81,60,-14,-10,77,28,112,-72,1,-34,51,111,-4, 
  /* [86][0][][] */ -87,67,-38,-2,26,94,24,14,91,35,127,-30,-26,58,-15,-17, 
  /* [87][0][][] */ 7,-53,21,-45,40,-127,35,-31,45,-16,65,-41,37,-41,-46,72, 
  /* [88][0][][] */ -87,65,51,-1,118,-22,32,12,-59,-70,98,-91,76,103,99,-127, 
  /* [89][0][][] */ -23,32,-15,36,-34,127,-26,41,-42,14,-33,27,-6,63,25,-101, 
  /* [90][0][][] */ 50,-78,24,16,127,-5,55,32,-13,-96,-121,-27,-17,10,-60,33, 
  /* [91][0][][] */ -29,66,-33,-42,7,-81,-82,33,-75,12,-127,-121,-81,-84,-22,22, 
  /* [92][0][][] */ 74,63,58,49,-127,-98,19,17,-41,65,-18,-29,-12,-85,42,-2, 
  /* [93][0][][] */ 11,-127,-108,77,-59,-49,-5,107,102,55,4,35,-67,21,-20,-31, 
  /* [94][0][][] */ 100,28,117,-18,15,-41,15,44,9,76,2,61,11,12,127,-11, 
  /* [95][0][][] */ -67,-38,8,-27,127,-13,40,65,-36,-15,-99,-45,24,0,-62,36, 
};
const TfArray<4, int> tensor_dimension26 = { 4, { 96,1,1,16 } };
const TfArray<96, float> quant26_scale = { 96, { 0.0052446285262703896, 0.0022886553779244423, 0.0059129330329596996, 0.0034181775990873575, 0.0027403826825320721, 0.0012355751823633909, 0.0038409559056162834, 0.0033071713987737894, 0.0016757380217313766, 0.0030804018024355173, 0.00080145779065787792, 0.0027845024596899748, 0.0040193106979131699, 0.0091733606532216072, 0.0030735870823264122, 0.0025187029968947172, 0.0048098545521497726, 0.0023691968526691198, 0.0032796179875731468, 0.0013859154423698783, 0.0036888094618916512, 0.0015724098775535822, 0.0038130921311676502, 0.0028293551877140999, 0.0015517508145421743, 0.0034503911156207323, 0.0031308017205446959, 0.0042560542933642864, 0.0034638154320418835, 0.0045522581785917282, 0.0031348373740911484, 0.0021973971743136644, 0.0048973904922604561, 0.0015275104669854045, 0.0024435154628008604, 0.0035269903019070625, 0.0029613170772790909, 0.0038959020748734474, 0.0025551808066666126, 0.0042149396613240242, 0.001323105301707983, 0.0038793822750449181, 0.0033885382581502199, 0.0022458361927419901, 0.0023094101343303919, 0.0024706281255930662, 0.0022977828048169613, 0.0021695857867598534, 0.0045881737023591995, 0.0043232999742031097, 0.0043987180106341839, 0.00313207833096385, 0.0029533705674111843, 0.0021867565810680389, 0.0021325510460883379, 0.0063402401283383369, 0.0033933322411030531, 0.0011130491038784385, 0.0022845626808702946, 0.0035386821255087852, 0.0026183738373219967, 0.0015882281586527824, 0.0027642741333693266, 0.0044218767434358597, 0.0013350596418604255, 0.0014823587844148278, 0.0038914596661925316, 0.0026670997031033039, 0.002571185352280736, 0.0023095200303941965, 0.0042770719155669212, 0.0024733704049140215, 0.0020368995610624552, 0.0027717540506273508, 0.0047861663624644279, 0.0031365412287414074, 0.0041181128472089767, 0.0016430207761004567, 0.0031232123728841543, 0.0024433538783341646, 0.0027264484670013189, 0.0029842783696949482, 0.0025116875767707825, 0.00133443099912256, 0.0025330702774226665, 0.0012540782336145639, 0.0019672003109008074, 0.0037711337208747864, 0.0043686884455382824, 0.0034522542264312506, 0.0030529822688549757, 0.0017178815323859453, 0.0028907640371471643, 0.0030492609366774559, 0.0021070130169391632, 0.002422272926196456, } };
const TfArray<96, int> quant26_zero = { 96, { 0,0,0,0,0,0,0,0,0,0,0,0,0,0,0,0,0,0,0,0,0,0,0,0,0,0,0,0,0,0,0,0,0,0,0,0,0,0,0,0,0,0,0,0,0,0,0,0,0,0,0,0,0,0,0,0,0,0,0,0,0,0,0,0,0,0,0,0,0,0,0,0,0,0,0,0,0,0,0,0,0,0,0,0,0,0,0,0,0,0,0,0,0,0,0,0 } };
const TfLiteAffineQuantization quant26 = { (TfLiteFloatArray*)&quant26_scale, (TfLiteIntArray*)&quant26_zero, 0 };
const ALIGN(16) int32_t tensor_data27[96] = { 1208, 6862, 112, 2255, 5005, 15628, 307, 1949, 10816, -1481, 23987, 3388, 1676, 357, 3586, 462, 2283, 5424, -578, 13465, 1216, 10296, -1510, 2009, -10051, 1059, 3794, 1401, 5094, 1053, 4126, 5343, 1614, 11401, 4657, 3713, 4201, 2137, 4124, 1718, 15022, 1388, 2183, 2128, 3199, 6753, 6247, 7337, 1338, -1162, 2149, 4682, 3221, -3682, 7688, -47, 1992, 16817, 1528, 1861, 3320, 11194, 4655, -265, 14295, 11903, 2071, 4157, 5838, 4462, 2565, 1712, -5818, 4712, 1585, 4079, 269, 10307, 3717, 6864, 3139, 811, 3418, 14532, 490, 12419, 7211, 2119, -730, 3219, 1270, 10315, 4190, 2594, 5313, 5716, };
const TfArray<1, int> tensor_dimension27 = { 1, { 96 } };
const TfArray<96, float> quant27_scale = { 96, { 0.00025437565636821091, 0.00011100466508651152, 0.00028678987291641533, 0.00016578890790697187, 0.00013291439972817898, 5.9928031987510622e-05, 0.00018629455007612705, 0.00016040485934354365, 8.1276870332658291e-05, 0.00014940605615265667, 3.8872411096235737e-05, 0.00013505430251825601, 0.00019494513981044292, 0.00044492754386737943, 0.00014907552395015955, 0.00012216246977914125, 0.00023328819952439517, 0.00011491109762573615, 0.00015906846965663135, 6.7219851189292967e-05, 0.00017891512834466994, 7.6265234383754432e-05, 0.00018494309915695339, 0.00013722975563723594, 7.5263225880917162e-05, 0.00016735133249312639, 0.00015185055963229388, 0.00020642770687118173, 0.00016800242883618921, 0.00022079423069953918, 0.00015204629744403064, 0.00010657844541128725, 0.00023753388086333871, 7.4087511165998876e-05, 0.00011851570889120921, 0.00017106655286625028, 0.00014363019727170467, 0.0001889595587272197, 0.00012393172073643655, 0.00020443355606403202, 6.4173429564107209e-05, 0.00018815831572283059, 0.00016435132420156151, 0.00010892784484894946, 0.00011201131565030664, 0.00011983072909060866, 0.0001114473634515889, 0.00010522953380132094, 0.00022253621136769652, 0.00020968927128706127, 0.00021334720076993108, 0.00015191247803159058, 0.00014324477524496615, 0.0001060623544617556, 0.00010343327448936179, 0.00030751517624594271, 0.00016458384925499558, 5.3985255362931639e-05, 0.00011080616241088137, 0.0001716336264507845, 0.00012699671788141131, 7.7032455010339618e-05, 0.00013407318328972906, 0.00021447044855449349, 6.4753236074466258e-05, 7.1897564339451492e-05, 0.00018874408851843327, 0.00012936002167407423, 0.00012470797810237855, 0.00011201664892723784, 0.00020744711218867451, 0.00011996374087175354, 9.8793971119448543e-05, 0.00013443597708828747, 0.00023213926760945469, 0.00015212893777061254, 0.00019973726011812687, 7.9690013080835342e-05, 0.00015148245438467711, 0.00011850787268485874, 0.00013223856512922794, 0.00014474386989604682, 0.00012182220234535635, 6.472274981206283e-05, 0.00012285930279176682, 6.0825466789538041e-05, 9.5413408416789025e-05, 0.00018290802836418152, 0.00021189069957472384, 0.00016744168533477932, 0.00014807615661993623, 8.3320919657126069e-05, 0.00014020821254234761, 0.00014789565466344357, 0.00010219462274108082, 0.00011748540418921039, } };
const TfArray<96, int> quant27_zero = { 96, { 0,0,0,0,0,0,0,0,0,0,0,0,0,0,0,0,0,0,0,0,0,0,0,0,0,0,0,0,0,0,0,0,0,0,0,0,0,0,0,0,0,0,0,0,0,0,0,0,0,0,0,0,0,0,0,0,0,0,0,0,0,0,0,0,0,0,0,0,0,0,0,0,0,0,0,0,0,0,0,0,0,0,0,0,0,0,0,0,0,0,0,0,0,0,0,0 } };
const TfLiteAffineQuantization quant27 = { (TfLiteFloatArray*)&quant27_scale, (TfLiteIntArray*)&quant27_zero, 0 };
const ALIGN(16) int8_t tensor_data28[1*3*3*96] = { 
  /* [0][0][][] */ -48,-3,-2,-27,104,-13,24,-29,-2,3,-16,-27,-46,-8,9,-29,-21,6,-21,-19,-16,28,55,35,-15,-13,-40,-18,20,-1,27,6,-40,1,-48,-37,3,-59,-40,3,3,17,18,-29,-34,30,-66,-21,-43,3,-5,46,-38,11,31,-25,-17,-22,5,-18,-2,-19,-15,-56,-5,-21,-52,-11,1,30,-3,-3,28,3,-1,2,3,24,127,-13,-127,16,-124,-14,-39,-25,38,5,-28,-18,6,-19,-17,44,-42,14, -59,49,34,-80,-42,-1,127,-49,4,5,-47,11,-68,-1,-77,115,-20,65,65,-33,-7,127,85,110,18,-7,61,56,127,37,127,-34,-106,-15,-118,-50,-24,-113,127,-62,-22,-127,-10,-48,41,-39,-34,-11,54,16,29,127,-78,58,-84,-13,-89,-16,-9,21,-2,-127,-127,-47,-56,-2,-7,-99,-23,19,-64,99,-127,-34,0,-30,-110,-19,0,-87,-94,20,47,-56,106,79,-93,27,-127,3,58,-26,4,127,-19,-88, -40,1,-23,-14,56,3,37,-37,-10,12,-22,15,28,-6,0,-15,-10,-7,-42,-26,-5,3,18,30,-1,-7,10,-9,11,4,15,8,35,7,-16,47,-10,-71,-31,8,4,43,25,-9,-18,-30,-56,-44,10,-11,-5,27,-6,6,4,-6,60,-23,1,-22,-8,-6,-48,6,-28,-32,120,-33,-4,20,-18,6,13,1,0,9,2,87,-43,17,-80,8,-127,-20,-7,-38,3,-30,-16,-25,7,40,4,23,-29,9, 
  /* [0][1][][] */ -127,-5,9,-48,47,78,-34,-41,-3,-12,-30,-9,-104,26,11,60,-16,35,93,15,43,-17,105,-33,55,29,63,10,-11,1,-7,-25,-127,-15,32,-7,-13,-127,-62,-127,-21,-9,91,-14,-77,127,-101,-47,87,90,8,-40,-103,76,63,-35,59,-40,39,-31,14,-7,61,-100,-28,16,-30,-107,-18,-5,-127,12,59,127,6,-64,-127,-62,-54,-32,-41,-3,-68,-72,36,33,-91,42,-46,127,104,-87,127,-4,-58,-3, 79,127,127,127,-127,-127,106,-70,127,127,-72,-56,-90,127,-35,127,127,-127,121,127,127,-81,127,-127,-127,-127,127,127,-110,127,-31,127,-11,127,127,-90,127,84,-9,-4,127,-7,-127,-101,127,-30,127,127,127,-127,127,-123,107,127,-127,127,-93,127,-127,127,-102,121,88,-127,127,127,-19,127,-86,-127,-26,-127,16,109,127,63,-2,-127,82,-127,29,127,84,127,127,79,-127,127,-19,54,-11,-24,-100,-37,-127,-28, -119,-22,20,-65,10,51,-57,-10,-41,-6,1,127,-127,32,20,61,-20,36,40,8,22,-24,44,-30,55,9,34,7,-10,-9,7,-21,-97,-28,75,127,-10,-102,-74,-119,-31,-51,42,-25,-67,-57,-96,-98,16,72,-7,-22,127,0,83,-37,127,-34,53,-64,2,-31,-117,-48,-62,-8,-53,-123,-15,0,-79,-6,35,-103,-9,127,-117,-51,-59,-7,-75,-21,-91,-84,-1,33,-90,29,-27,-63,127,127,-54,-34,-61,2, 
  /* [0][2][][] */ -27,-31,26,-6,45,0,-16,20,-8,12,30,-22,68,-23,-19,-46,-7,-11,-89,-28,-23,-6,21,-27,9,-2,-18,-9,-11,2,-9,-1,92,-1,-7,-20,-7,2,-11,-24,-40,6,30,8,36,7,-67,9,-31,14,-30,-20,-10,3,23,-24,9,-25,12,-34,0,11,-11,5,-25,-30,127,28,23,15,37,2,-12,-20,-12,-26,-14,86,-29,-3,0,16,-71,-26,1,-6,60,-19,35,3,-20,-20,-9,-17,-35,-13, -40,-39,44,-83,-46,-2,41,127,-53,102,127,-24,-51,11,127,105,-15,-37,127,-55,-36,-30,94,8,32,-22,59,14,-18,1,-115,-48,-11,-28,-109,-4,-106,-119,55,-93,-35,-105,-31,127,25,-34,-65,32,25,5,-11,-2,62,52,-51,-40,-47,-52,48,-62,127,23,92,-10,-82,-41,-37,-52,127,31,-16,13,31,-28,-4,-30,-19,-12,2,45,-80,-17,-84,-104,66,-127,2,8,-14,3,45,-3,15,-125,-88,127, -45,8,7,7,19,-8,-1,-6,-21,2,18,44,73,-2,1,-19,-3,0,-11,-38,-8,4,-7,-34,4,-13,-27,-18,-15,2,-36,6,76,5,5,13,-9,-18,-41,-27,-34,26,28,7,23,-9,-69,1,-43,12,-7,-15,22,-12,30,-24,60,-15,16,-23,3,20,-9,-2,-19,-20,-22,39,33,13,5,-15,-45,-54,-6,-2,-28,8,77,6,-53,4,-51,-8,-35,-6,57,-2,33,10,-19,7,7,-38,-21,-8, 
};
const TfArray<4, int> tensor_dimension28 = { 4, { 1,3,3,96 } };
const TfArray<96, float> quant28_scale = { 96, { 0.004931032657623291, 0.011311993002891541, 0.0082354387268424034, 0.0081504285335540771, 0.0084526510909199715, 0.022521788254380226, 0.005840696394443512, 0.0085403090342879295, 0.014414960518479347, 0.012924951501190662, 0.010418866761028767, 0.0102657750248909, 0.0048342482186853886, 0.0086825331673026085, 0.0098244119435548782, 0.0073590073734521866, 0.010381856933236122, 0.012641140259802341, 0.0071061654016375542, 0.012833720073103905, 0.010536879301071167, 0.0093548540025949478, 0.0054612290114164352, 0.0064102867618203163, 0.10552942752838135, 0.0097212009131908417, 0.009301038458943367, 0.0084413429722189903, 0.011689650826156139, 0.0090818284079432487, 0.006512240506708622, 0.013315084390342236, 0.0046901502646505833, 0.018386419862508774, 0.0057991794310510159, 0.0087621835991740227, 0.01029408723115921, 0.0050650658085942268, 0.006968596950173378, 0.0050703971646726131, 0.017412977293133736, 0.010150108486413956, 0.01307249628007412, 0.0065437061712145805, 0.0067965495400130749, 0.012506617233157158, 0.0059819244779646397, 0.013052851893007755, 0.0081710247322916985, 0.019727109000086784, 0.011304882355034351, 0.0075597013346850872, 0.0073075308464467525, 0.010892080143094063, 0.010518515482544899, 0.010565174743533134, 0.0054521765559911728, 0.015122571960091591, 0.017604019492864609, 0.008486027829349041, 0.008119688369333744, 0.011510057374835014, 0.0065041366033256054, 0.0061056064441800117, 0.014673430472612381, 0.015674754977226257, 0.0041225492022931576, 0.0043047796934843063, 0.0087349899113178253, 0.014153948053717613, 0.0084756296128034592, 0.01115125697106123, 0.024267390370368958, 0.0080903228372335434, 0.0085995672270655632, 0.01065509207546711, 0.0038004738744348288, 0.0079821860417723656, 0.006765065249055624, 0.0081450855359435081, 0.0058007021434605122, 0.011056620627641678, 0.00479857437312603, 0.011306189000606537, 0.005313544999808073, 0.010574769228696823, 0.0055460347793996334, 0.013034040108323097, 0.0096067935228347778, 0.010492065921425819, 0.0054256445728242397, 0.011222913861274719, 0.011474239639937878, 0.0065684942528605461, 0.0039138109423220158, 0.011379588395357132, } };
const TfArray<96, int> quant28_zero = { 96, { 0,0,0,0,0,0,0,0,0,0,0,0,0,0,0,0,0,0,0,0,0,0,0,0,0,0,0,0,0,0,0,0,0,0,0,0,0,0,0,0,0,0,0,0,0,0,0,0,0,0,0,0,0,0,0,0,0,0,0,0,0,0,0,0,0,0,0,0,0,0,0,0,0,0,0,0,0,0,0,0,0,0,0,0,0,0,0,0,0,0,0,0,0,0,0,0 } };
const TfLiteAffineQuantization quant28 = { (TfLiteFloatArray*)&quant28_scale, (TfLiteIntArray*)&quant28_zero, 3 };
const ALIGN(16) int32_t tensor_data29[96] = { 11619, -2612, -5464, 6439, 99, 1526, -473, 1418, 1468, -4152, 1186, -2967, 8620, -2575, -1955, -8066, 803, 1273, -7755, 635, -2333, -688, -6971, 1382, 3, 7123, -10524, -3816, -164, -3504, 725, -448, 9014, -432, 1470, -384, 1069, 11933, 3108, 11966, 353, 4872, -1096, 5569, 1160, 960, 13095, 107, -5587, -731, -3372, 93, -2631, -4719, 366, 3169, -1820, 4759, -288, 3396, -1674, 39, 1276, 8107, 7278, -964, 17858, 13386, -2241, -495, 7974, -465, 75, 2770, -2441, 145, 17223, 3327, 8663, 8160, 12084, -2186, 9374, 11709, -1787, -1155, 9359, -5173, 5283, -1391, -8592, -558, 566, 2371, 20804, -1592, };
const TfArray<1, int> tensor_dimension29 = { 1, { 96 } };
const TfArray<96, float> quant29_scale = { 96, { 0.00010817853035405278, 0.00024816603399813175, 0.00018067161727230996, 0.00017880662926472723, 0.00018543688929639757, 0.00049408996710553765, 0.00012813501234631985, 0.0001873599539976567, 0.00031623989343643188, 0.0002835516061168164, 0.00022857234580442309, 0.00022521376376971602, 0.00010605523857520893, 0.00019048011745326221, 0.00021553100668825209, 0.00016144418623298407, 0.00022776040714234114, 0.00027732527814805508, 0.00015589727263431996, 0.00028155013569630682, 0.00023116133525036275, 0.00020522969134617597, 0.00011981013813056052, 0.0001406308583682403, 0.0023151373025029898, 0.00021326672867871821, 0.00020404907991178334, 0.00018518880824558437, 0.00025645119603723288, 0.00019923997751902789, 0.00014286756049841642, 0.00029211046057753265, 0.0001028939732350409, 0.00040336698293685913, 0.00012722420797217637, 0.0001922275114338845, 0.00022583488316740841, 0.00011111899220850319, 0.00015287924907170236, 0.00011123594595119357, 0.00038201131974346936, 0.00022267622989602387, 0.00028678847593255341, 0.00014355785970110446, 0.00014910481695551425, 0.00027437406242825091, 0.00013123331882525235, 0.00028635753551498055, 0.00017925848078448325, 0.0004327794595155865, 0.00024801003746688366, 0.00016584707191213965, 0.00016031488485168666, 0.00023895384219940752, 0.00023075846547726542, 0.00023178209085017443, 0.00011961154814343899, 0.00033176367287524045, 0.00038620244595222175, 0.00018616911256685853, 0.00017813224985729903, 0.00025251120678149164, 0.00014268976519815624, 0.00013394669804256409, 0.00032191028003580868, 0.00034387764753773808, 9.0441768406890333e-05, 9.4439594249706715e-05, 0.00019163092656526715, 0.00031051371479406953, 0.00018594099674373865, 0.00024463975569233298, 0.00053238554392009974, 0.000177488022018224, 0.00018865997844841331, 0.00023375471937470138, 8.3375976828392595e-05, 0.00017511568148620427, 0.00014841411029919982, 0.00017868941358756274, 0.00012725760461762547, 0.00024256357573904097, 0.00010527261474635452, 0.00024803867563605309, 0.00011657020513666794, 0.00023199256975203753, 0.00012167063687229529, 0.00028594481409527361, 0.00021075682889204472, 0.00023017820785753429, 0.00011902947881026193, 0.000246211769990623, 0.00025172543246299028, 0.00014410166477318853, 8.5862404375802726e-05, 0.0002496489614713937, } };
const TfArray<96, int> quant29_zero = { 96, { 0,0,0,0,0,0,0,0,0,0,0,0,0,0,0,0,0,0,0,0,0,0,0,0,0,0,0,0,0,0,0,0,0,0,0,0,0,0,0,0,0,0,0,0,0,0,0,0,0,0,0,0,0,0,0,0,0,0,0,0,0,0,0,0,0,0,0,0,0,0,0,0,0,0,0,0,0,0,0,0,0,0,0,0,0,0,0,0,0,0,0,0,0,0,0,0 } };
const TfLiteAffineQuantization quant29 = { (TfLiteFloatArray*)&quant29_scale, (TfLiteIntArray*)&quant29_zero, 0 };
const ALIGN(16) int8_t tensor_data30[16*1*1*96] = { 
  /* [0][0][][] */ 33,30,2,12,-20,-79,-8,5,-27,-88,12,1,55,-70,63,38,-91,-36,39,9,74,24,-76,9,-4,72,123,69,13,82,66,-44,-1,-3,0,-18,30,10,-7,-3,127,15,41,-31,-10,-10,7,-40,35,-47,100,1,-73,-3,46,13,-10,-46,8,29,-1,45,-80,-11,20,-10,53,25,-5,-22,21,29,7,42,-19,30,59,-29,56,24,-32,40,31,33,-67,1,-6,78,12,5,-91,-18,21,14,113,80, 
  /* [1][0][][] */ 23,48,-61,-10,-7,-47,100,-100,-63,-39,-70,-50,2,-40,-14,-61,-33,-21,-30,-17,-3,-99,115,-38,-8,19,7,70,-52,3,-43,22,-36,28,20,3,-16,55,-56,85,26,19,-18,-55,61,-57,-14,31,-89,-8,41,-112,-46,41,62,71,31,19,-61,11,-31,-5,-8,-21,29,34,96,16,-38,-127,15,-3,19,65,-15,38,-59,-34,104,-34,54,-5,60,-69,-26,-69,-23,10,-24,-42,37,0,70,-67,-33,47, 
  /* [2][0][][] */ 8,-13,9,-17,65,38,-51,43,-54,25,13,-26,27,-10,16,32,23,-21,-127,-1,-23,-35,-11,25,7,1,-44,5,-27,-12,-5,61,-19,-39,-8,15,-39,12,-22,-19,64,-7,19,34,11,51,4,1,-75,14,-17,17,-21,44,15,-74,28,17,44,32,-17,-3,-21,53,39,-1,-37,-14,-11,0,-21,-32,17,41,19,68,-48,-15,-12,-30,19,39,35,-15,-5,-46,-11,-45,-21,-32,-5,67,-1,8,74,-19, 
  /* [3][0][][] */ 38,-33,-14,-121,-5,-32,105,-21,22,100,-69,-4,11,-10,-14,58,42,41,-30,22,-60,4,18,2,-45,101,36,-8,-42,-11,-66,61,3,-23,29,-19,4,-54,-27,49,14,6,0,15,62,-50,-1,40,33,-20,19,-47,100,37,34,-6,3,-17,-13,-31,-26,51,65,-2,-24,-21,118,-44,-32,-17,-52,29,14,-60,-9,-71,21,-49,127,5,-33,-33,-31,-47,-28,-36,68,70,-48,49,-59,5,7,-75,-23,48, 
  /* [4][0][][] */ -27,86,38,18,-24,12,-45,-25,14,-37,2,-4,25,42,-29,14,-15,-37,-32,-74,39,-32,-79,36,-35,-26,-25,27,-44,127,-49,-14,5,-40,1,-36,80,42,-31,-1,16,4,13,-45,-51,-1,64,-4,22,-21,-59,-8,-67,19,54,28,0,56,-19,21,-19,-65,-23,-5,60,32,-79,-15,-2,5,20,-76,-17,65,60,68,-40,12,-73,35,5,77,28,-71,47,-82,-43,-78,-45,-47,-58,-25,8,11,38,-29, 
  /* [5][0][][] */ -9,-13,32,-17,-9,-19,-12,-4,38,10,-7,-9,-18,-28,18,-19,-26,5,-52,-45,-18,19,-10,13,22,-59,51,-24,-3,35,16,76,-3,-72,23,10,-33,-40,-30,3,-47,-2,-24,12,-4,21,-74,18,-25,22,48,-8,29,-65,4,19,-17,-50,11,-32,44,22,22,45,-36,9,107,-17,-1,-24,3,14,4,35,39,0,-8,-7,127,30,-21,-11,-31,30,36,70,17,99,4,-43,-10,8,7,-27,-39,16, 
  /* [6][0][][] */ 21,-67,68,15,-38,114,-62,-110,-29,-67,-83,61,9,8,-33,98,5,38,15,-46,-95,-18,-81,-66,6,-62,-14,69,-127,52,-17,-36,52,87,-15,-1,-6,-38,15,-17,-63,33,32,-25,17,49,-102,3,57,20,-86,-117,89,13,-34,-25,32,-26,23,-20,-27,-53,46,5,59,-81,-64,-65,-87,11,-16,-88,-27,-110,19,-114,98,14,-79,51,-23,87,25,-107,65,-39,-12,-11,-68,90,-81,81,48,-58,67,-100, 
  /* [7][0][][] */ 1,-13,-84,54,-27,-1,37,16,-100,-19,77,53,2,-62,-5,-28,-10,-12,1,11,-55,-13,-36,-40,66,47,-15,62,3,36,24,27,-52,-127,23,107,-1,9,-39,5,-3,-26,27,-77,28,60,69,95,-39,62,-28,7,20,-39,44,-70,-15,36,-75,-14,57,14,4,-32,77,-49,90,-25,-64,-25,69,2,-16,-29,-82,-18,33,-37,92,-30,-10,-9,-78,-24,42,19,-69,36,-10,13,9,31,57,-11,81,6, 
  /* [8][0][][] */ -9,-57,11,7,-16,-3,22,2,-10,-8,43,40,24,30,-44,-11,72,2,13,1,-8,-76,-37,-22,-24,-33,69,7,-18,40,3,-28,-16,1,2,-2,-43,-15,20,-28,-6,47,28,-41,15,-23,23,-18,32,-7,45,1,-3,7,-45,9,-15,104,-56,-5,-12,-63,-59,-9,-87,-33,-24,23,-11,13,42,-16,-31,-127,41,-100,8,16,-52,16,-25,-11,4,62,65,-63,-43,54,-30,81,13,-15,-52,3,0,-63, 
  /* [9][0][][] */ -21,-37,-31,27,0,21,3,43,-40,-1,54,63,-28,52,20,-49,-10,34,-36,-39,3,38,-12,9,-29,30,12,16,36,-2,17,-4,-20,-19,5,50,-21,-14,26,-2,-14,-35,11,-3,14,42,0,44,-46,10,-5,30,111,16,-14,2,11,-18,43,14,-31,2,82,6,10,23,55,3,28,0,-17,21,3,-127,-35,-112,-34,-18,33,-7,-7,33,-1,-42,48,3,-58,-7,-6,114,37,32,46,35,-9,29, 
  /* [10][0][][] */ 23,38,9,2,-23,17,-38,-35,67,8,-37,15,20,13,-4,-55,-30,2,20,-2,25,-15,-19,-37,13,-18,-85,45,-17,46,-9,14,18,26,-11,-1,11,12,4,-3,37,-7,48,-44,-27,-10,14,21,14,3,10,-25,-24,-13,-5,35,-14,5,-7,-8,-18,-40,-12,9,-6,-13,-88,-25,-43,-14,45,-12,-20,28,33,25,48,-20,-93,10,-2,30,8,-7,10,7,-71,-127,-21,22,14,24,45,-30,20,24, 
  /* [11][0][][] */ 10,-38,7,12,-70,33,20,-4,76,-17,-23,-50,31,16,23,-17,-29,48,23,-79,11,29,14,-27,36,15,63,6,34,-62,-33,14,17,115,-104,2,25,-1,55,8,-51,61,-24,11,-42,2,-12,-11,48,-22,-28,-17,-25,16,-76,97,-28,1,1,-26,21,-1,-10,-71,-9,-35,-127,-73,1,-38,-90,33,49,22,-7,-6,33,55,-109,-41,5,-3,-8,4,-18,-6,57,90,20,-52,9,11,-42,30,87,24, 
  /* [12][0][][] */ 24,26,-38,-29,19,-25,-4,47,51,-43,18,3,-6,-15,-5,14,14,-44,-28,17,-2,51,4,41,-47,-34,-127,-17,71,-19,29,-2,-22,-74,59,-6,25,-19,-7,19,4,-65,33,32,39,0,32,9,-65,3,-33,93,51,-21,36,-77,11,25,-44,-28,2,54,70,9,-8,-17,30,23,98,23,33,28,1,-4,-25,-7,-33,-54,46,-57,8,-51,27,-31,4,5,7,-97,-20,32,-36,27,11,67,12,44, 
  /* [13][0][][] */ -17,16,-72,33,27,15,-15,2,26,67,-29,49,-53,-35,57,-50,12,49,51,20,-33,-38,1,11,46,48,-14,19,8,36,54,-13,-10,58,1,54,9,-32,-50,-52,8,-30,36,17,45,40,-30,56,-48,51,4,5,-21,-37,57,23,23,-41,-15,-13,19,25,3,-18,19,87,126,35,25,0,-57,-5,46,52,-85,69,20,-89,127,-41,-5,-34,21,8,29,63,-32,-30,-15,-19,6,47,39,12,60,53, 
  /* [14][0][][] */ -6,47,12,18,-50,-45,26,52,-79,-37,73,23,-84,-11,72,-16,-37,32,-61,27,-37,26,-93,15,-49,0,-56,-119,11,6,32,73,-58,23,3,-11,-41,-70,-11,-39,32,-50,76,-21,-13,46,-68,35,-14,-37,89,29,-13,28,-28,21,-57,35,-6,43,25,51,-13,46,19,-55,4,-74,29,55,51,32,-48,45,5,12,31,-12,41,19,-78,92,4,-114,80,-1,0,3,-127,-15,-20,6,-27,19,38,40, 
  /* [15][0][][] */ 54,-31,32,30,48,8,-7,-32,20,38,-53,-23,61,71,6,-16,-13,6,-63,32,17,-25,35,29,78,-48,88,34,39,-37,-43,60,75,51,2,-80,66,65,60,53,82,61,-38,9,-44,-127,23,-43,-16,-21,-28,-4,1,-35,-33,66,-18,-3,-5,13,5,-59,-33,34,32,30,-61,40,-9,-41,-19,-5,10,-116,-33,-100,-13,20,-118,31,99,-31,40,14,-53,3,-3,1,31,84,11,-77,-26,-35,26,-43, 
};
const TfArray<4, int> tensor_dimension30 = { 4, { 16,1,1,96 } };
const TfArray<16, float> quant30_scale = { 16, { 0.0029035520274192095, 0.0023517063818871975, 0.0036198876332491636, 0.0029202001169323921, 0.0034205697011202574, 0.005659736692905426, 0.0022553731687366962, 0.0027544158510863781, 0.0045936079695820808, 0.0042735273018479347, 0.0037463395856320858, 0.0030993975233286619, 0.0043495940044522285, 0.0047595114447176456, 0.0037105933297425508, 0.0040141786448657513, } };
const TfArray<16, int> quant30_zero = { 16, { 0,0,0,0,0,0,0,0,0,0,0,0,0,0,0,0 } };
const TfLiteAffineQuantization quant30 = { (TfLiteFloatArray*)&quant30_scale, (TfLiteIntArray*)&quant30_zero, 0 };
const ALIGN(16) int32_t tensor_data31[16] = { -26290, -3118, 3008, -14114, 16326, -13133, 25060, -9081, 12476, -8663, 13991, 9792, -4269, -32148, 973, 4801, };
const TfArray<1, int> tensor_dimension31 = { 1, { 16 } };
const TfArray<16, float> quant31_scale = { 16, { 6.5813008404802531e-05, 5.3304665925679728e-05, 8.2049744378309697e-05, 6.6190361394546926e-05, 7.7531927672680467e-05, 0.00012828572653234005, 5.1121140131726861e-05, 6.2432627601083368e-05, 0.00010412045230623335, 9.6865383966360241e-05, 8.4915947809349746e-05, 7.0252113800961524e-05, 9.8589538538362831e-05, 0.00010788088547997177, 8.4105711721349508e-05, 9.0986890427302569e-05, } };
const TfArray<16, int> quant31_zero = { 16, { 0,0,0,0,0,0,0,0,0,0,0,0,0,0,0,0 } };
const TfLiteAffineQuantization quant31 = { (TfLiteFloatArray*)&quant31_scale, (TfLiteIntArray*)&quant31_zero, 0 };
const ALIGN(16) int8_t tensor_data32[96*1*1*16] = { 
  /* [0][0][][] */ -87,40,-20,-26,-19,-60,-55,-39,76,-53,57,-45,91,-127,15,-119, 
  /* [1][0][][] */ -101,81,-112,-124,-80,13,-7,60,-56,-27,101,-79,57,127,13,52, 
  /* [2][0][][] */ -51,-5,-63,9,-33,-58,25,-32,-85,127,85,-6,27,32,-27,116, 
  /* [3][0][][] */ -47,-64,4,-50,-77,20,-44,-107,-10,8,39,-63,-60,-32,-127,-34, 
  /* [4][0][][] */ 76,13,-23,49,-63,-1,-127,33,28,73,21,67,-2,-2,-54,-87, 
  /* [5][0][][] */ -87,73,-88,-32,53,-52,-14,-79,92,-33,12,-43,11,-117,-127,-84, 
  /* [6][0][][] */ 0,-33,-39,23,-92,90,22,-56,-41,-54,123,-27,-13,-1,-127,9, 
  /* [7][0][][] */ -28,127,123,-77,78,107,13,-54,31,82,-95,-11,51,-3,11,59, 
  /* [8][0][][] */ -47,-6,29,-4,53,4,87,127,-67,-18,-48,-84,29,81,-67,-54, 
  /* [9][0][][] */ 81,72,123,23,-112,-30,-113,-127,87,9,127,31,-35,-123,69,-49, 
  /* [10][0][][] */ 5,-121,11,-82,-127,63,22,3,-29,-41,-23,40,-1,43,-105,7, 
  /* [11][0][][] */ 114,-57,-9,81,-98,-36,49,-7,127,98,-36,42,19,-66,-17,95, 
  /* [12][0][][] */ -79,-77,127,-14,73,-14,31,63,54,-36,109,81,-38,20,-112,20, 
  /* [13][0][][] */ -8,-32,26,31,28,3,127,48,-107,21,16,12,-17,121,90,-80, 
  /* [14][0][][] */ 104,-61,127,7,69,59,114,64,107,82,87,38,71,-42,28,-41, 
  /* [15][0][][] */ -21,120,11,-52,27,101,-71,85,-48,-40,-43,-10,-46,127,-24,-35, 
  /* [16][0][][] */ -55,62,125,-48,29,84,-1,-17,-8,22,-20,48,99,5,100,127, 
  /* [17][0][][] */ 15,107,70,-127,19,-34,11,-81,-58,74,-22,58,-52,-19,89,-52, 
  /* [18][0][][] */ -64,16,-61,-81,106,58,-38,-66,33,69,97,61,-3,127,-38,-11, 
  /* [19][0][][] */ 41,127,69,59,52,-23,11,-6,-32,101,39,93,40,52,-50,35, 
  /* [20][0][][] */ 93,-12,1,76,-62,-10,-33,54,-36,-46,-127,-35,95,-39,29,-12, 
  /* [21][0][][] */ -91,-82,-29,125,-19,4,-127,67,15,10,31,28,-49,41,-76,9, 
  /* [22][0][][] */ 8,5,-59,-39,127,-6,-26,58,69,79,33,57,-26,22,-11,26, 
  /* [23][0][][] */ -66,19,-15,10,4,45,95,75,-11,127,-24,-29,-10,17,-41,-27, 
  /* [24][0][][] */ 21,-77,32,3,127,31,68,-23,47,20,41,23,-61,16,-11,-16, 
  /* [25][0][][] */ 127,-60,99,9,-1,-24,-51,120,115,3,-59,-6,116,-52,124,67, 
  /* [26][0][][] */ 54,32,82,54,48,-4,-54,-14,3,65,23,127,18,-49,4,-16, 
  /* [27][0][][] */ -46,51,-69,3,-34,95,24,-106,17,-79,112,33,30,-43,127,120, 
  /* [28][0][][] */ -52,32,-75,-127,28,-91,25,-58,-97,106,-67,36,-19,15,-42,100, 
  /* [29][0][][] */ 127,117,-97,34,58,84,-49,-41,21,50,-6,92,-123,18,-35,78, 
  /* [30][0][][] */ -36,104,-110,-67,87,-32,14,46,-77,55,-78,-19,15,108,-4,127, 
  /* [31][0][][] */ 29,-100,82,22,68,-50,-82,32,-13,15,17,-36,-70,42,31,127, 
  /* [32][0][][] */ -40,60,-12,46,-103,71,2,65,10,-127,29,-70,32,42,43,43, 
  /* [33][0][][] */ -73,-4,66,87,-1,23,-57,1,-49,-60,30,-11,-20,4,12,127, 
  /* [34][0][][] */ -9,16,-88,-78,48,-10,-1,50,16,-10,-1,-9,-57,-26,-44,127, 
  /* [35][0][][] */ 86,-14,25,-3,1,17,-79,-27,-14,-127,-63,11,-1,-36,53,-31, 
  /* [36][0][][] */ 1,26,-112,-7,20,127,-12,43,-30,9,60,32,2,13,-57,41, 
  /* [37][0][][] */ 55,46,56,-64,53,-127,49,-27,-105,66,-73,-16,2,32,89,31, 
  /* [38][0][][] */ -44,127,36,-53,38,15,74,-87,2,-4,-110,31,-40,-95,-93,22, 
  /* [39][0][][] */ 81,36,-108,-108,-12,-29,-13,-66,13,-6,-2,-24,37,-4,-127,-70, 
  /* [40][0][][] */ -32,25,-66,-83,-48,-15,20,-127,-9,-11,2,-35,40,70,42,58, 
  /* [41][0][][] */ -42,-79,-13,127,5,-28,-59,-10,-4,-44,68,-55,-61,-5,6,29, 
  /* [42][0][][] */ -19,66,-24,-127,16,17,13,-22,72,-11,-4,8,73,-35,-30,11, 
  /* [43][0][][] */ -4,39,0,29,109,20,10,13,2,48,5,-77,-127,-46,12,-18, 
  /* [44][0][][] */ 92,-29,23,42,-24,-17,6,26,29,-36,12,11,127,-17,-47,-42, 
  /* [45][0][][] */ -1,-97,-64,43,-40,-89,1,52,36,-20,12,33,-90,127,27,-40, 
  /* [46][0][][] */ -16,-66,30,69,-5,1,-79,46,23,-38,45,-16,16,63,72,127, 
  /* [47][0][][] */ -33,-44,19,66,12,-17,55,13,6,-52,-127,-36,54,-22,-58,5, 
  /* [48][0][][] */ -83,105,-19,-15,25,59,-5,-113,39,-3,28,-72,72,-127,-52,-4, 
  /* [49][0][][] */ -54,6,47,-37,4,-3,127,118,-35,-24,-14,12,-38,29,-49,31, 
  /* [50][0][][] */ 48,23,-88,41,45,-127,-36,-2,-66,66,-32,1,3,-75,-109,-50, 
  /* [51][0][][] */ -47,52,-32,113,-14,45,-46,-64,-38,-74,13,-50,-10,25,-27,127, 
  /* [52][0][][] */ -113,17,24,-6,29,47,56,-1,-4,-86,-47,-24,-98,-55,-127,-11, 
  /* [53][0][][] */ -28,-62,-43,-127,-25,-16,6,78,26,-71,-55,33,-1,26,54,82, 
  /* [54][0][][] */ 4,-55,1,7,-54,55,51,-14,-13,-79,55,29,-26,-7,-127,33, 
  /* [55][0][][] */ -13,-30,-35,46,66,-26,59,88,-56,-54,-127,-35,71,-25,-26,37, 
  /* [56][0][][] */ 90,-21,-61,-21,-127,36,-118,-8,2,-5,-46,12,120,-33,53,10, 
  /* [57][0][][] */ -50,4,5,-18,127,52,41,35,-32,50,-8,3,-43,64,-119,-27, 
  /* [58][0][][] */ 28,13,-17,-21,59,-23,-49,-72,54,-127,-68,7,-102,-51,-29,85, 
  /* [59][0][][] */ -57,-29,-2,14,6,72,-117,-57,97,127,-75,12,-25,-3,-8,-1, 
  /* [60][0][][] */ 11,-60,-12,11,-127,-56,32,16,13,53,-10,45,9,-20,37,49, 
  /* [61][0][][] */ 18,40,-92,-21,-40,-19,-127,-87,-19,2,50,118,56,-51,79,58, 
  /* [62][0][][] */ 68,-9,42,-20,-3,36,42,124,-80,127,23,112,55,40,40,106, 
  /* [63][0][][] */ 34,-127,-9,-12,-80,21,33,-36,-18,-25,-3,-14,-28,117,100,35, 
  /* [64][0][][] */ -49,-24,-127,-28,36,28,19,8,13,-110,52,-7,102,-26,-94,78, 
  /* [65][0][][] */ -20,-2,61,65,97,-15,89,77,-40,-8,-127,-73,24,108,-86,-12, 
  /* [66][0][][] */ -50,-127,-5,-93,-62,-95,45,-33,-1,-68,10,71,-56,-43,-79,84, 
  /* [67][0][][] */ -55,-86,-113,-27,-52,102,13,-127,-53,-14,-40,-88,13,-18,-77,52, 
  /* [68][0][][] */ 127,29,13,-29,-63,5,-61,-44,-73,-103,-33,-3,51,-11,60,-59, 
  /* [69][0][][] */ 33,5,20,0,-17,-52,-55,37,-5,127,-8,16,-20,45,80,-14, 
  /* [70][0][][] */ 49,-16,-32,89,-127,42,-28,-103,99,110,38,77,55,-51,-25,25, 
  /* [71][0][][] */ 127,-48,71,77,-72,-32,23,-21,85,12,-56,43,60,-50,26,-12, 
  /* [72][0][][] */ -7,-34,44,107,60,6,-127,86,87,-16,45,10,-55,-72,-78,87, 
  /* [73][0][][] */ 43,8,52,-104,58,-87,-55,56,-7,127,-38,24,23,-119,35,-26, 
  /* [74][0][][] */ 83,1,27,50,-127,-22,28,-8,-80,-44,17,-43,25,-59,11,16, 
  /* [75][0][][] */ 73,127,-108,15,63,53,-15,-39,-25,-26,54,79,-107,61,49,84, 
  /* [76][0][][] */ -58,-34,-5,-32,-53,2,66,-2,-64,26,86,44,-68,-127,-27,90, 
  /* [77][0][][] */ -51,127,-25,15,-49,-76,46,81,51,-56,-17,45,-22,52,-16,81, 
  /* [78][0][][] */ 120,33,-73,58,-68,17,-111,-28,-12,-15,-72,10,24,-127,24,72, 
  /* [79][0][][] */ -70,-48,127,75,-42,-116,-67,-64,-16,31,25,21,-95,127,-52,97, 
  /* [80][0][][] */ 70,81,27,-127,-9,30,73,-20,21,29,-44,24,87,-68,-21,-12, 
  /* [81][0][][] */ 47,-71,36,-127,113,59,-3,122,114,36,-31,-53,9,11,-98,-65, 
  /* [82][0][][] */ 81,48,55,14,127,-88,31,36,-8,102,-27,22,-18,-31,27,-96, 
  /* [83][0][][] */ -61,82,16,10,75,88,127,118,1,87,-25,-62,-105,76,-34,-104, 
  /* [84][0][][] */ 16,-93,-27,109,9,-77,-62,41,-77,52,-79,-25,-127,63,-30,-68, 
  /* [85][0][][] */ -98,78,-47,-10,-23,-39,-42,-45,-33,39,13,-65,-127,-86,-94,52, 
  /* [86][0][][] */ -41,80,109,127,46,-27,57,53,-4,47,-38,-99,33,96,-127,-60, 
  /* [87][0][][] */ -22,62,127,-33,-108,-25,26,15,26,-33,11,39,-47,29,-20,0, 
  /* [88][0][][] */ -23,-60,-109,38,43,38,-12,30,-22,-70,-111,-97,127,-16,23,36, 
  /* [89][0][][] */ 17,43,7,-127,-4,-65,-56,48,124,-27,51,-109,-26,-33,57,-80, 
  /* [90][0][][] */ -6,73,20,11,-24,46,48,116,8,-63,-17,127,61,10,-51,84, 
  /* [91][0][][] */ -63,4,-41,57,93,50,-32,-115,-54,26,-4,35,-106,-127,-72,-10, 
  /* [92][0][][] */ -30,80,-3,-14,-127,4,-88,62,-60,57,97,71,-13,-7,53,8, 
  /* [93][0][][] */ 91,61,85,48,-127,-61,9,21,-9,-43,-30,-55,27,-42,-12,3, 
  /* [94][0][][] */ -37,-127,21,-117,12,39,-18,7,72,-28,8,56,7,74,-49,50, 
  /* [95][0][][] */ -21,-52,-23,-59,109,80,-42,28,78,51,-85,77,-32,127,-65,37, 
};
const TfArray<4, int> tensor_dimension32 = { 4, { 96,1,1,16 } };
const TfArray<96, float> quant32_scale = { 96, { 0.0017341402126476169, 0.0013941772049292922, 0.0022603396791964769, 0.0029953389894217253, 0.001823060680180788, 0.0016768412897363305, 0.0013510729186236858, 0.0020901798270642757, 0.0022549917921423912, 0.0011162296868860722, 0.0032389871776103973, 0.001760267186909914, 0.0019180390518158674, 0.0022361562587320805, 0.0026284977793693542, 0.0022871587425470352, 0.0020997931715101004, 0.0014055585488677025, 0.0018965571653097868, 0.0027666119858622551, 0.0017738423775881529, 0.0010001530172303319, 0.0016363435424864292, 0.0026248497888445854, 0.0029478978831321001, 0.0016776610864326358, 0.001368839293718338, 0.001672798884101212, 0.0021357417572289705, 0.0018063661409541965, 0.0010573844192549586, 0.0032847260590642691, 0.0011422329116612673, 0.0025999026838690042, 0.002058990066871047, 0.0017445705598220229, 0.0023809461854398251, 0.0014078059466555715, 0.002329166978597641, 0.0023354631848633289, 0.0028486489318311214, 0.0028368353378027678, 0.0038756437133997679, 0.0038851408753544092, 0.0030745803378522396, 0.0025304260198026896, 0.0024261670187115669, 0.002304852707311511, 0.0024966578930616379, 0.0022192422766238451, 0.0019327295012772083, 0.0023211189545691013, 0.0023254388943314552, 0.0034539294429123402, 0.002679609227925539, 0.0022795381955802441, 0.0021253761369735003, 0.0022091499995440245, 0.0014920254470780492, 0.0020064318086951971, 0.0033185977954417467, 0.0017484063282608986, 0.0017945027211681008, 0.0026650286745280027, 0.0018526853527873755, 0.0014062767149880528, 0.0018380352994427085, 0.0031339840497821569, 0.0016804499318823218, 0.0027694017626345158, 0.0014887881698086858, 0.0020194260869175196, 0.0021915435791015625, 0.0017027260037139058, 0.0022336447145789862, 0.0014802463119849563, 0.0021211199928075075, 0.0020487329456955194, 0.0019785657059401274, 0.0019519616616889834, 0.0022377090062946081, 0.0017779626650735736, 0.0016250930493697524, 0.0020797124598175287, 0.0025006553623825312, 0.001968329306691885, 0.0021813192870467901, 0.0030160164460539818, 0.00095342739950865507, 0.0028546389658004045, 0.0030458951368927956, 0.0024606040678918362, 0.0010054589947685599, 0.0021604886278510094, 0.0032028702553361654, 0.0020647263154387474, } };
const TfArray<96, int> quant32_zero = { 96, { 0,0,0,0,0,0,0,0,0,0,0,0,0,0,0,0,0,0,0,0,0,0,0,0,0,0,0,0,0,0,0,0,0,0,0,0,0,0,0,0,0,0,0,0,0,0,0,0,0,0,0,0,0,0,0,0,0,0,0,0,0,0,0,0,0,0,0,0,0,0,0,0,0,0,0,0,0,0,0,0,0,0,0,0,0,0,0,0,0,0,0,0,0,0,0,0 } };
const TfLiteAffineQuantization quant32 = { (TfLiteFloatArray*)&quant32_scale, (TfLiteIntArray*)&quant32_zero, 0 };
const ALIGN(16) int32_t tensor_data33[96] = { 7309, 4794, 1454, -1109, 6670, 7317, 10078, 2366, -410, 11554, 742, -4846, 4607, 3875, 116, -438, 4792, 9217, -618, 155, 5587, 14824, 8634, -1926, -3190, -1201, 11373, 98, 1854, 1160, 13591, -1362, 12780, 3038, 5275, -6275, 1012, -8049, 56, 2645, 2812, 1429, 1296, -312, 1320, 2629, 3951, 4112, 4305, 3880, 6028, 2890, -2845, 1635, 1551, 3032, 2754, 2764, 9029, 1805, -991, 6912, 6349, 4120, 5350, 8738, -5700, 1992, 6041, -988, 7880, 1819, 3376, 4341, 4573, 3160, -1194, 2765, 3278, 4876, 3224, 3768, 7760, 919, 2088, 5901, 938, -1675, 16981, -718, 577, -1656, 15256, 3581, -9, -1259, };
const TfArray<1, int> tensor_dimension33 = { 1, { 96 } };
const TfArray<96, float> quant33_scale = { 96, { 0.00010155679046874866, 8.1647471233736724e-05, 0.00013237271923571825, 0.00017541661509312689, 0.00010676425881683826, 9.8201184300705791e-05, 7.9123150499071926e-05, 0.00012240761134307832, 0.00013205951836425811, 6.5369975345674902e-05, 0.0001896854373626411, 0.00010308687342330813, 0.00011232649558223784, 0.00013095645408611745, 0.00015393322973977774, 0.00013394332199823111, 0.00012297059583943337, 8.2313999882899225e-05, 0.00011106844613095745, 0.00016202163533307612, 0.00010388188093202189, 5.857215728610754e-05, 9.5829505880828947e-05, 0.00015371959307231009, 0.00017263831978198141, 9.8249191069044173e-05, 8.0163605161942542e-05, 9.7964446467813104e-05, 0.00012507586507126689, 0.00010578657384030521, 6.1923812609165907e-05, 0.00019236405205447227, 6.6892811446450651e-05, 0.00015225860988721251, 0.00012058104039169848, 0.0001021676289383322, 0.00013943581143394113, 8.2445614680182189e-05, 0.00013640345423482358, 0.00013677218521479517, 0.00016682597924955189, 0.00016613413754384965, 0.0002269700780743733, 0.00022752626682631671, 0.00018005724996328354, 0.00014818983618170023, 0.00014208408538252115, 0.00013497953477781266, 0.00014621226000599563, 0.00012996591976843774, 0.0001131868120864965, 0.00013593214680440724, 0.0001361851318506524, 0.00020227314962539822, 0.00015692647139076144, 0.00013349704386200756, 0.00012446881737560034, 0.0001293748791795224, 8.7377775344066322e-05, 0.00011750305566238239, 0.0001943476963788271, 0.00010239225957775488, 0.00010509181447559968, 0.00015607259410899132, 0.00010849917453015223, 8.2356054917909205e-05, 0.00010764122271211818, 0.00018353611812926829, 9.8412514489609748e-05, 0.00016218500968534499, 8.7188192992471159e-05, 0.00011826404079329222, 0.00012834378867410123, 9.9717071861959994e-05, 0.00013080937787890434, 8.668795635458082e-05, 0.00012421955761965364, 0.00011998034460702911, 0.00011587113112909719, 0.00011431310849729925, 0.00013104738900437951, 0.00010412317351438105, 9.5170638815034181e-05, 0.00012179460463812575, 0.0001464463712181896, 0.00011527165042934939, 0.00012774502101819962, 0.00017662755271885544, 5.5835753300925717e-05, 0.00016717678226996213, 0.00017837734776549041, 0.00014410083531402051, 5.8882891607936472e-05, 0.0001265251194126904, 0.00018757031648419797, 0.00012091697135474533, } };
const TfArray<96, int> quant33_zero = { 96, { 0,0,0,0,0,0,0,0,0,0,0,0,0,0,0,0,0,0,0,0,0,0,0,0,0,0,0,0,0,0,0,0,0,0,0,0,0,0,0,0,0,0,0,0,0,0,0,0,0,0,0,0,0,0,0,0,0,0,0,0,0,0,0,0,0,0,0,0,0,0,0,0,0,0,0,0,0,0,0,0,0,0,0,0,0,0,0,0,0,0,0,0,0,0,0,0 } };
const TfLiteAffineQuantization quant33 = { (TfLiteFloatArray*)&quant33_scale, (TfLiteIntArray*)&quant33_zero, 0 };
const ALIGN(16) int8_t tensor_data34[1*3*3*96] = { 
  /* [0][0][][] */ 16,126,-30,26,-37,8,38,25,81,-86,-91,39,-13,-2,70,-46,-97,26,28,15,36,55,74,96,18,-24,-21,-15,-22,-1,11,-16,-56,10,-29,84,-13,34,3,5,23,-35,-39,30,-75,-49,21,-4,-27,-95,-16,-23,17,46,-12,-21,-75,-60,-27,-127,-127,21,-83,-12,-42,50,13,-4,-9,45,22,-7,-18,1,46,-13,-15,-53,-57,34,-13,-61,53,-40,-86,-47,-10,-2,-113,-10,-127,36,68,-30,57,4, -36,-46,-10,117,-19,110,-24,-27,63,2,-127,59,-43,-39,-92,127,-88,64,64,105,127,3,127,115,32,19,37,78,-11,127,-20,-127,40,74,2,82,65,93,-25,-98,127,-7,85,127,-40,-99,127,-34,-5,-57,-34,-46,38,127,-25,-127,-15,27,-127,-85,-37,-127,-34,127,-53,83,79,-28,29,127,127,-1,-67,27,-34,-81,-5,-75,-7,127,0,-36,127,-37,-92,-48,70,65,85,92,-74,-2,127,-32,127,69, 22,-103,52,0,-26,-21,-15,44,38,43,-92,29,-17,50,11,-72,-32,7,6,-14,48,31,52,99,23,-38,58,42,-8,-24,-11,-65,-71,-81,-16,72,3,21,13,66,-13,30,-24,83,-48,-35,1,2,32,-9,44,19,15,6,24,4,44,-72,7,-70,-95,52,-106,10,31,17,-62,-10,-14,-38,12,6,-15,-33,-9,-13,18,-17,-54,-23,5,-61,34,-20,1,-46,-13,-29,-87,4,-7,15,22,27,18,-21, 
  /* [0][1][][] */ 92,-5,61,127,10,-43,127,26,-30,-117,-76,127,4,-127,-62,-9,-88,-41,63,33,-89,-2,-108,-70,-12,49,-121,127,-75,71,127,97,12,46,11,127,-127,59,-12,-83,57,-127,27,72,-127,-67,13,-127,-102,-108,-52,10,117,-60,71,-17,-127,-8,-71,10,-56,-71,-66,63,-102,-33,55,-94,-24,27,-57,-127,-127,64,127,-78,43,68,-89,-55,127,-127,-24,127,-16,-16,-11,96,-11,-30,-87,44,-18,-104,33,-30, -127,21,-42,122,-81,-127,-117,-127,89,9,-47,34,-72,-99,-42,104,-127,-127,127,127,43,-127,-115,127,-127,127,20,63,-74,-59,-109,77,-127,69,127,-89,-2,127,127,-57,-52,21,16,31,-58,-127,-63,-70,-7,-127,-95,127,15,66,54,-75,28,27,101,-19,-12,-39,-127,122,-14,-127,127,127,9,44,-119,-78,-44,45,-106,-127,127,127,91,-60,-77,-12,-92,61,-98,-87,127,127,127,127,-123,-127,-114,-69,69,127, 55,7,85,119,10,-21,13,25,-64,127,-77,80,27,-9,-127,50,14,-45,18,5,-74,1,-61,-78,-5,-1,127,-22,127,119,12,-116,-42,-127,-17,95,-109,-19,-36,-62,-20,87,26,102,-46,-34,-2,-113,127,-42,-127,-5,42,-83,-127,53,96,-5,-127,64,-3,-47,-10,90,127,-45,-69,3,-52,2,-27,-44,-122,-127,1,-28,19,-31,-127,-71,-69,-122,-9,100,-127,38,0,20,-16,-20,15,47,-30,127,16,-23, 
