/* Generated by Edge Impulse
 *
 * Permission is hereby granted, free of charge, to any person obtaining a copy
 * of this software and associated documentation files (the "Software"), to deal
 * in the Software without restriction, including without limitation the rights
 * to use, copy, modify, merge, publish, distribute, sublicense, and/or sell
 * copies of the Software, and to permit persons to whom the Software is
 * furnished to do so, subject to the following conditions:
 *
 * The above copyright notice and this permission notice shall be included in
 * all copies or substantial portions of the Software.
 *
 * THE SOFTWARE IS PROVIDED "AS IS", WITHOUT WARRANTY OF ANY KIND, EXPRESS OR
 * IMPLIED, INCLUDING BUT NOT LIMITED TO THE WARRANTIES OF MERCHANTABILITY,
 * FITNESS FOR A PARTICULAR PURPOSE AND NONINFRINGEMENT. IN NO EVENT SHALL THE
 * AUTHORS OR COPYRIGHT HOLDERS BE LIABLE FOR ANY CLAIM, DAMAGES OR OTHER
 * LIABILITY, WHETHER IN AN ACTION OF CONTRACT, TORT OR OTHERWISE, ARISING FROM,
 * OUT OF OR IN CONNECTION WITH THE SOFTWARE OR THE USE OR OTHER DEALINGS IN THE
 * SOFTWARE.
 */
// Generated on: 27.10.2023 16:47:04

#include <stdio.h>
#include <stdlib.h>
#include "edge-impulse-sdk/tensorflow/lite/c/builtin_op_data.h"
#include "edge-impulse-sdk/tensorflow/lite/c/common.h"
#include "edge-impulse-sdk/tensorflow/lite/micro/micro_mutable_op_resolver.h"
#include "edge-impulse-sdk/porting/ei_classifier_porting.h"

#if EI_CLASSIFIER_PRINT_STATE
#if defined(__cplusplus) && EI_C_LINKAGE == 1
extern "C" {
    extern void ei_printf(const char *format, ...);
}
#else
extern void ei_printf(const char *format, ...);
#endif
#endif

#if defined __GNUC__
#define ALIGN(X) __attribute__((aligned(X)))
#elif defined _MSC_VER
#define ALIGN(X) __declspec(align(X))
#elif defined __TASKING__
#define ALIGN(X) __align(X)
#elif defined __ICCARM__
#define ALIGN(x) __attribute__((aligned(x)))
#endif

#ifndef EI_MAX_SCRATCH_BUFFER_COUNT
#ifndef CONFIG_IDF_TARGET_ESP32S3
#define EI_MAX_SCRATCH_BUFFER_COUNT 36
#else
#define EI_MAX_SCRATCH_BUFFER_COUNT 72
#endif // CONFIG_IDF_TARGET_ESP32S3
#endif // EI_MAX_SCRATCH_BUFFER_COUNT

#ifndef EI_MAX_OVERFLOW_BUFFER_COUNT
#define EI_MAX_OVERFLOW_BUFFER_COUNT 10
#endif // EI_MAX_OVERFLOW_BUFFER_COUNT

using namespace tflite;
using namespace tflite::ops;
using namespace tflite::ops::micro;

namespace {

#if defined(EI_CLASSIFIER_ALLOCATION_STATIC_HIMAX) || defined(EI_CLASSIFIER_ALLOCATION_STATIC_HIMAX_GNU)
constexpr int kTensorArenaSize = 335392;
#else
constexpr int kTensorArenaSize = 334368;
#endif

#if defined(EI_CLASSIFIER_ALLOCATION_STATIC)
uint8_t tensor_arena[kTensorArenaSize] ALIGN(16);
#elif defined(EI_CLASSIFIER_ALLOCATION_STATIC_HIMAX)
#pragma Bss(".tensor_arena")
uint8_t tensor_arena[kTensorArenaSize] ALIGN(16);
#pragma Bss()
#elif defined(EI_CLASSIFIER_ALLOCATION_STATIC_HIMAX_GNU)
uint8_t tensor_arena[kTensorArenaSize] ALIGN(16) __attribute__((section(".tensor_arena")));
#else
#define EI_CLASSIFIER_ALLOCATION_HEAP 1
uint8_t* tensor_arena = NULL;
#endif

static uint8_t* tensor_boundary;
static uint8_t* current_location;

template <int SZ, class T> struct TfArray {
  int sz; T elem[SZ];
};
enum used_operators_e {
  OP_CONV_2D, OP_DEPTHWISE_CONV_2D, OP_PAD, OP_ADD, OP_FULLY_CONNECTED, OP_RESHAPE, OP_SOFTMAX,  OP_LAST
};
struct TensorInfo_t { // subset of TfLiteTensor used for initialization from constant memory
  TfLiteAllocationType allocation_type;
  TfLiteType type;
  void* data;
  TfLiteIntArray* dims;
  size_t bytes;
  TfLiteQuantization quantization;
};
struct NodeInfo_t { // subset of TfLiteNode used for initialization from constant memory
  struct TfLiteIntArray* inputs;
  struct TfLiteIntArray* outputs;
  void* builtin_data;
  used_operators_e used_op_index;
};

typedef struct {
  TfLiteTensor tensor;
  int16_t index;
} TfLiteTensorWithIndex;

typedef struct {
  TfLiteEvalTensor tensor;
  int16_t index;
} TfLiteEvalTensorWithIndex;

TfLiteContext ctx{};
static const int MAX_TFL_TENSOR_COUNT = 4;
static TfLiteTensorWithIndex tflTensors[MAX_TFL_TENSOR_COUNT];
static const int MAX_TFL_EVAL_COUNT = 4;
static TfLiteEvalTensorWithIndex tflEvalTensors[MAX_TFL_EVAL_COUNT];
TfLiteRegistration registrations[OP_LAST];
TfLiteNode tflNodes[70];

const TfArray<4, int> tensor_dimension0 = { 4, { 1,96,96,1 } };
const TfArray<1, float> quant0_scale = { 1, { 0.0039215688593685627, } };
const TfArray<1, int> quant0_zero = { 1, { -128 } };
const TfLiteAffineQuantization quant0 = { (TfLiteFloatArray*)&quant0_scale, (TfLiteIntArray*)&quant0_zero, 0 };
const ALIGN(16) int32_t tensor_data1[4*2] = { 
  0, 0, 
  0, 1, 
  0, 1, 
  0, 0, 
};
const TfArray<2, int> tensor_dimension1 = { 2, { 4,2 } };
const ALIGN(8) int32_t tensor_data2[2] = { -1, 144, };
const TfArray<1, int> tensor_dimension2 = { 1, { 2 } };
const ALIGN(8) int32_t tensor_data3[3] = { -93, 52, 51, };
const TfArray<1, int> tensor_dimension3 = { 1, { 3 } };
const TfArray<1, float> quant3_scale = { 1, { 4.7105910198297352e-05, } };
const TfArray<1, int> quant3_zero = { 1, { 0 } };
const TfLiteAffineQuantization quant3 = { (TfLiteFloatArray*)&quant3_scale, (TfLiteIntArray*)&quant3_zero, 0 };
const ALIGN(16) int8_t tensor_data4[3*144] = { 
  76, 72, 98, -83, -55, 9, -35, 28, -4, 41, 38, -43, -40, -102, 81, 29, -53, 71, 74, 101, -19, -23, 44, -99, -108, 107, -71, 7, 66, 3, -25, -10, 15, 88, -40, 55, 27, 80, -14, -102, 38, 41, 56, -57, 62, -127, -31, 75, -102, -44, 2, 111, -107, -97, 15, 7, 90, -21, 15, -23, -77, 93, -85, 97, -32, -76, -100, 53, -36, 105, 87, 69, -12, 35, -4, -89, -36, -38, 53, 65, -10, -59, -79, -96, 69, 61, -64, -26, 115, 96, -115, 52, 98, -51, -18, 40, 53, -3, -76, -34, 27, -67, 11, -24, 20, 72, 73, -50, 48, 24, 64, 74, 1, -116, 33, 90, 105, 28, 100, -38, 63, -84, 76, 54, -8, 51, -114, 39, 67, 51, 81, 43, -35, -81, 117, 20, 35, 66, 31, 105, -111, -82, 55, -92, 
  50, -35, -69, 23, -12, 118, -10, -3, 110, -45, -7, -70, -61, 101, 32, -54, 77, -42, -12, -88, -110, 22, 109, 73, 20, 18, 4, -14, -62, -50, -1, -32, -9, 12, -8, 77, -57, 94, -73, 23, -17, -4, 60, 116, 2, 91, -69, -37, 91, 57, 55, -9, 112, 4, -1, 36, -55, -29, 17, -81, -37, 74, 110, 26, 24, -102, 55, -114, 35, -43, -17, -26, 10, 35, 48, 1, 7, 23, -77, -112, -37, -110, -54, -25, -64, -61, 10, 13, 55, 7, 70, 48, 50, -30, 107, -28, 17, 9, -15, 16, 6, -84, -74, 107, 21, -17, 62, 3, -96, -33, 61, -84, 71, -16, -62, 97, -111, 30, -17, -76, 80, -95, 59, 39, -27, -79, 81, -64, -25, -85, 96, 116, 88, 23, -76, -29, -36, -32, 11, -26, -96, 84, 0, 72, 
  -23, 71, -71, 69, 78, -40, -34, 103, 84, 37, 116, -2, -92, -76, 82, 110, -76, -52, 11, -107, 68, 107, -48, -91, 83, -50, -16, -112, 22, -73, 83, -21, 37, -84, 9, -85, -84, -38, -46, 99, 71, -23, 110, 13, -83, 18, 17, 25, -119, 121, 91, -14, -91, -26, -17, 70, 23, 53, 52, 57, -38, -64, -100, -26, 102, 67, -78, -109, -69, -3, 41, -67, -7, -80, -56, -81, -104, -64, -14, 47, -97, 83, -30, 78, 74, 23, 113, 37, -69, 112, 18, 103, 5, 47, -42, -108, -23, -66, -26, 54, 106, -54, 45, 85, 51, -38, 38, 92, -104, -92, 36, -106, -86, -9, 83, 27, 31, -63, 70, -72, -106, 88, 50, -31, -18, 106, 68, -24, 43, 94, 2, -78, 67, 112, 16, 6, -68, 71, 44, 55, -22, -15, -63, 87, 
};
const TfArray<2, int> tensor_dimension4 = { 2, { 3,144 } };
const TfArray<1, float> quant4_scale = { 1, { 0.0017238437430933118, } };
const TfArray<1, int> quant4_zero = { 1, { 0 } };
const TfLiteAffineQuantization quant4 = { (TfLiteFloatArray*)&quant4_scale, (TfLiteIntArray*)&quant4_zero, 0 };
const ALIGN(16) int32_t tensor_data5[16] = { -133, 187, -189, 4, -66, -222, -19, 131, -184, -56, 329, -180, -96, 98, -241, 71, };
const TfArray<1, int> tensor_dimension5 = { 1, { 16 } };
const TfArray<1, float> quant5_scale = { 1, { 1.5082583558978513e-05, } };
const TfArray<1, int> quant5_zero = { 1, { 0 } };
const TfLiteAffineQuantization quant5 = { (TfLiteFloatArray*)&quant5_scale, (TfLiteIntArray*)&quant5_zero, 0 };
const ALIGN(16) int8_t tensor_data6[16*1280] = { 
  -36, -74, -62, 4, 94, 94, 16, -58, 69, 53, -9, 99, -76, -36, -97, 28, 60, 46, -99, 49, -94, -106, -15, 72, 35, -10, 4, -51, -43, -63, 64, -70, -55, 112, -28, 79, -54, 56, -57, 79, -79, 94, -110, 58, -5, -45, 84, 51, -122, -29, 22, 37, 63, -61, -49, 79, 92, -99, -2, 14, -20, 19, -60, 15, 83, -111, -47, 91, -89, 52, 62, 61, -99, -30, -55, 53, -99, -56, 19, -62, 87, 26, -97, -22, -78, 84, 99, 91, 28, 54, -93, 96, 94, 81, 3, -11, -2, -36, -69, -116, -36, -9, 65, 110, -65, -48, -57, 88, -101, 56, 81, 60, 15, 14, 45, 93, 118, 52, -96, -1, -70, 125, 60, 91, -40, 18, 59, 54, -22, 50, 25, 0, 67, -47, 100, 79, 61, 58, 97, 83, 70, -11, -121, -18, 77, 46, -104, 91, 54, 58, 94, 84, -87, -17, -11, 73, -73, -101, 27, -13, 35, -5, 1, -81, 61, 61, -22, 11, -57, -7, -34, 81, -93, 107, 101, -3, 39, 60, 87, 18, -6, -11, -116, 84, -7, 48, 70, -31, 20, -89, 27, 39, -47, 56, -75, -30, 84, -64, 67, -67, -81, 83, 71, 49, 46, 18, -84, -72, 18, 1, -82, 97, 16, -75, -11, 107, 6, 51, -10, 15, 48, 60, -53, -100, 9, -39, -20, 19, -90, 85, -91, -68, 3, -51, -50, 16, -8, 64, 7, 94, -38, -88, -65, -71, -94, 33, -45, -63, 35, -80, 5, 65, 62, 19, 85, -75, 11, 41, -40, 85, -49, 76, 40, 2, 82, -5, 114, 88, 61, -18, 6, -40, -12, 11, -103, -110, -20, -82, -47, -7, 46, -96, 49, 51, -44, -29, -49, -18, -10, 20, -41, 10, 102, 0, 14, 22, -86, -82, -93, -48, -45, 92, -46, 69, 100, -4, 5, -9, 104, -95, -65, 51, 3, 43, -19, 21, -39, 41, 2, 17, 63, -54, 50, -87, -37, 93, -45, -59, 72, 49, 35, -41, -60, 77, -48, 79, -87, 77, 37, 88, -76, -71, -40, -75, -9, -32, -86, -68, 74, 4, 94, 85, -77, -57, 6, -20, 31, 34, 38, -35, -42, 84, 76, -24, 52, 32, 13, -55, 111, 1, -56, -32, 57, -49, -37, 89, -19, 111, -66, -11, -98, -32, 76, 10, 10, 81, -101, -80, 14, 85, 82, 56, -57, -75, 14, -1, 20, 24, -93, -37, -74, 70, -98, 83, 7, -49, -32, 113, -75, 93, 71, -53, -31, -38, 40, 22, 2, -77, -61, -26, 56, 67, -67, -111, -26, -50, -100, 60, -25, -85, 54, 96, -14, -15, 91, 90, 83, 46, 42, 9, 12, 38, -6, -89, -38, 17, -113, 89, -99, -17, -70, 16, 55, 107, 8, 75, -107, 18, -77, -4, 29, -73, 80, -45, 67, 11, -37, 35, 76, -4, -77, 31, 77, -59, -9, -84, 95, -24, 92, -82, -16, 79, -89, -45, -18, -103, 27, 44, -26, 65, 73, -25, 3, -16, -92, -69, -81, 89, -87, -101, -4, 61, -70, 53, -97, 83, 66, -92, 10, -84, -1, -4, -65, -66, 21, -41, 28, 108, 82, -45, -47, -18, -73, 97, -2, 68, -10, 87, 96, 102, -37, -3, 96, -52, -88, -82, 7, -34, 8, 101, 92, 69, 47, 22, 10, -94, 28, 23, -74, -81, -47, -59, 16, 75, -50, -120, 65, -77, 33, 112, -93, -119, -48, 72, -68, -102, -24, -32, -68, 23, -64, -16, 33, -19, 79, -73, -12, -25, -84, 38, -49, -118, -98, 39, 78, 74, -76, -44, 101, -116, 71, 28, -34, -62, 105, 76, -20, -91, 29, -20, 84, -60, 20, 81, 77, -17, -18, 34, -32, -9, -110, 8, -72, 71, -36, -101, 1, -116, -52, 33, -44, -9, -70, -83, 47, -79, 77, 85, -80, -24, 35, 20, 40, -38, -67, -8, -86, -73, 10, 4, 96, 84, -105, 56, -101, -29, -24, -90, -33, 72, -56, -38, 95, 22, 78, -84, 13, -83, -29, 110, -34, 29, 80, 92, -34, 59, 66, 52, 41, -37, -63, -99, 7, 51, -51, -60, -16, -40, -87, 80, -21, 37, -78, 27, -110, 37, -35, 61, -66, 19, 1, -73, -48, -5, -25, -101, -76, 27, -73, 94, -52, -43, 76, 80, 37, 75, 16, 29, -96, 67, 34, -2, -14, 49, 67, 41, 41, 84, -96, -54, -66, -124, -96, 87, -17, -54, 52, 17, -89, -74, 20, 32, -44, 84, 5, 49, -54, 50, 40, 9, -111, -102, 72, 5, 93, 16, -34, -22, 57, -13, 95, -18, -34, 31, 15, -67, 22, -30, 99, 50, -21, 61, 38, 101, -95, 55, 27, -66, 33, -27, 52, -17, -58, -31, 48, 91, -70, -84, -55, 71, -110, -93, -8, 57, -39, 69, 44, 6, -66, 65, 76, 47, 26, -37, -43, 98, -77, 8, -92, 32, 31, -37, -30, -8, -61, 13, -85, -73, 65, 8, -97, 4, 42, 87, 76, -15, -75, 73, 30, -11, 81, 88, 4, -83, -30, -35, -65, 49, 53, 98, 0, 7, 32, -38, -70, 5, -4, -81, 28, -17, -113, -98, 50, 9, -80, 75, -51, 16, 43, -13, 78, 106, -52, 18, -14, 7, -37, 27, -71, 84, 84, 40, -16, -75, 4, 14, -59, 79, -22, 41, 29, 49, 27, 39, 39, -11, -24, 19, 89, -37, 84, 50, -69, -41, -69, -81, -87, 43, -34, -37, 91, -44, 6, 71, 94, -70, -49, -3, 55, 75, -59, -26, -51, -24, 34, 86, -97, 70, 71, -40, 60, 28, -73, -36, 88, 11, -101, 49, 59, -26, -96, -92, -40, -58, 43, 7, 52, 15, -24, 45, 105, 91, -34, -35, 82, 95, -36, -41, -57, 22, -26, -41, -58, 39, 63, 37, 64, -27, 3, 10, -31, 64, 79, 78, -18, -104, -1, -70, 46, -39, -2, 8, -54, 61, 62, -100, -42, -38, -77, 20, 4, -84, 17, -34, -39, 78, 76, -30, -26, 94, -49, 82, -75, -23, -39, 64, 26, 36, 55, 68, 2, -39, 36, -53, 100, -80, 81, -24, 70, -93, 55, -4, 4, -69, 52, 42, 67, 2, -47, 76, 61, 9, -96, -54, -10, -59, -42, 23, 5, -68, -104, 5, -96, 67, 33, 86, 2, -11, -51, 84, -72, -33, 24, -44, -4, 109, -41, 28, -66, -51, -31, 48, -92, -1, 110, -12, 82, -64, 4, -80, 64, 74, 20, -91, -94, 2, -2, -25, 66, -47, -13, 25, 1, 13, 61, -97, -62, 27, -20, 51, -53, 55, 69, 50, -3, -38, 75, 82, 96, -83, 14, 97, -2, -94, -105, -21, 103, -87, -61, 26, 80, 7, 39, -68, -59, -1, 19, -76, -25, -28, -97, 111, 43, -90, 31, -98, -34, 19, -115, -34, 104, -100, 58, -9, -71, -30, 8, -20, -32, 13, -6, -2, 83, 12, 77, -75, -10, 81, -81, 14, 3, 1, 6, 5, -40, -82, -66, 64, -39, -12, -31, -33, -19, -68, -97, -44, -7, -31, 59, 10, 34, -89, 36, -85, -81, -46, -33, 9, 17, 87, 30, -83, 69, -57, -104, 39, 40, 1, -93, 58, -8, 35, -94, -95, -45, 91, -21, -42, -82, -31, -81, -20, -112, 13, 92, -35, -101, 96, -36, -25, -65, 82, -35, 16, 64, 88, -91, 123, 115, -69, 80, 65, -121, -21, 93, 14, -71, 29, -9, -79, -35, 58, -66, -82, 44, 40, 49, -19, -93, 10, -15, -17, 55, 17, 77, -59, -49, 111, 81, -72, 82, -29, 56, 30, -68, -36, -34, -86, 101, -29, 32, -41, 74, -67, 3, -33, -25, 6, -80, 100, -26, 38, 13, 13, 25, 2, 68, 33, 93, 7, 82, -95, 18, -34, -2, -99, 7, -88, -83, 43, 30, -62, 105, -13, -47, 44, 60, -47, -26, 3, 
  -43, 28, 48, -112, -62, 25, -14, 86, -26, -54, 82, -102, 19, -61, 13, -92, 67, 27, -79, -72, -80, 91, 74, 32, 55, 76, -10, 48, 19, -106, 42, 62, 98, 16, -21, 53, 24, 85, 110, 83, -34, -67, 13, -1, 32, 27, 12, -64, 21, 23, 28, 64, -38, -67, 103, 10, 22, 113, 27, -44, 88, -12, -75, 84, 45, -35, 84, -32, -4, 31, 21, -1, 46, -43, 37, 86, -2, -63, -51, -43, -74, -81, 4, -50, -26, 4, -68, -4, -19, 11, 37, 20, -33, 84, -40, -81, -1, 58, -68, 79, 109, 1, 66, 15, 22, -2, 94, 85, -64, 90, -32, -49, 21, -120, 108, 62, 45, -65, 85, -111, -39, 37, 116, -84, -48, 84, -66, 87, -60, -84, 16, -73, 52, 47, 16, -104, 83, -117, 6, 9, 31, 84, 27, 48, -115, 22, 92, -93, -59, -65, 55, 44, 59, 122, -52, -24, -17, 30, 76, -59, -69, -8, 69, 0, -57, -72, -85, -83, 15, -118, 119, 91, -66, 79, -60, -22, 55, 17, 82, 80, 89, -87, 34, -114, 89, -18, 64, 104, 24, -5, -3, -4, -32, 52, -20, -85, 111, -64, 55, -50, -15, -15, 84, 3, -76, 40, 82, 42, 72, -33, -56, -41, 57, -5, 9, -34, 51, -17, 83, 23, -69, -57, 73, -34, 15, 44, 70, -37, -26, 10, 111, 45, -56, -91, 68, -6, 39, 68, 58, -103, -91, 11, -90, -13, 22, 66, 49, 26, 40, 69, 88, 98, -13, 7, 0, -119, -47, 49, -39, 7, 25, 39, -28, 11, 93, -82, 51, -51, -29, 5, 123, -42, -27, -76, -67, -58, 85, 107, -61, -93, -65, 105, -64, 10, -33, -58, -1, 75, -75, 32, 92, -47, 103, -26, -58, 25, -3, -78, 5, 25, -18, 63, 59, 79, 71, -51, 21, -65, 84, 88, 26, -61, 56, 51, -47, 15, -21, -71, 24, -74, -42, -86, -77, -99, 37, -55, -53, 16, -77, 42, 23, -17, 69, -92, -78, -34, 1, -42, 54, -84, -65, 8, -30, -31, -65, -52, 23, 34, 99, 30, 52, -24, 53, 38, 77, -21, 26, 65, -89, 100, 7, 1, 60, -44, -42, -77, -5, -43, 115, -37, 65, -82, 87, 109, -96, 0, -102, -72, 1, 66, 23, -62, -3, -91, -90, 42, -28, -20, -20, -73, 32, -9, 23, 115, -82, -4, -98, -75, -114, -31, 51, 44, 42, -49, -1, 33, 1, -9, -55, -5, 61, 10, -48, 82, 63, -109, 72, -76, -61, -45, 36, 14, 95, 38, -31, 56, -68, -53, -17, 102, 101, -2, 32, -29, 68, -46, 104, -68, 105, -17, -82, 49, 96, 107, -17, -76, -30, 17, 7, -68, -108, -97, 59, -73, 21, 29, 91, -58, -62, -43, 106, 1, 80, -78, 82, -104, 109, 89, 76, -36, 62, -104, -4, 59, -30, -35, 62, -11, 5, -14, 68, 62, 75, -68, 58, 6, 101, -64, -78, 120, 61, -21, -18, -14, 86, -98, -83, -63, 120, -40, 61, 98, -44, 32, -51, 72, -74, 27, 53, -74, -31, 46, -44, -17, 43, -50, -41, -61, -65, -112, -37, -30, 72, -97, -36, 110, 73, -3, -51, -31, 16, -50, 44, 90, -84, -40, 113, 51, -13, 50, 65, 15, 15, 63, 46, 18, -23, -100, -2, -61, 59, -86, 23, 26, 91, 66, -24, 83, -65, 38, -14, -24, -27, 47, -66, 32, -61, -85, 43, -97, -79, -39, 81, 48, -31, 98, 19, 22, -43, -71, 78, -102, 41, -27, -22, -48, -21, -57, -40, 32, -78, -26, 105, 91, 11, 13, -8, 28, 38, 62, 79, 105, -19, 105, 59, -92, 60, 39, -68, -3, -16, -48, -46, -26, 8, -55, -14, 19, -85, 23, -31, -73, -14, 75, -62, 44, -83, -47, 7, 82, -84, 44, -57, -7, -20, -71, -80, -12, -74, 0, 37, -104, -58, 100, 18, 78, -5, 70, 9, 33, 50, -90, -83, -40, -76, 43, -88, 84, 41, 22, -77, -81, 14, 5, 91, 35, -52, -100, 17, -116, -77, -69, -24, -79, 83, -41, -31, 91, -64, 34, -86, -43, 49, -91, 16, -28, -6, -5, -30, 104, -23, 100, -68, 106, 80, -31, 42, 53, -40, 32, -104, 96, 43, -98, 88, -71, -105, 13, 59, 83, -26, -26, 24, 96, 104, -21, 103, -21, -59, -34, -33, 48, -31, 13, -80, -77, 26, 76, -17, 73, -29, -24, -28, 52, 87, 114, 0, -73, -25, -4, 0, -105, -54, 56, -8, 77, 33, -54, 100, 12, -120, 83, 18, -44, -5, 86, 90, 95, 42, 64, -78, 79, -64, -9, -105, -53, -17, 109, 25, -28, 15, 99, 49, -71, -100, 40, 44, 52, 10, 99, 71, 56, 54, -64, -18, -45, 66, -77, -6, -97, 61, -67, 36, 62, -61, -39, -90, 2, -30, 0, -34, 9, -41, -100, -60, 74, -15, 12, -18, 0, 12, -95, 0, -55, -99, 10, 96, -2, -20, -24, -14, -76, 30, 1, 21, -93, -77, -63, -62, 82, -33, -59, -104, -40, 66, -35, -2, -51, 72, 102, 49, -92, -52, -8, -40, 42, -75, -61, 116, 4, 28, 83, 10, 12, 9, -47, -73, -83, 19, 97, -42, 21, -55, -99, -21, 52, -43, -86, 68, -22, 84, -75, 100, 55, -17, 23, -3, -25, 96, 46, 88, -17, 68, 91, 88, 6, 15, -63, 32, 49, 117, 58, -57, -38, 0, 95, -37, -69, -39, -70, 28, -38, -13, 18, -42, -44, 19, -14, -3, 25, -14, 57, -1, 55, 36, 23, 8, -48, 23, 59, -14, 8, -72, 83, 12, -63, 43, 15, -38, -70, 9, 22, 11, 22, 84, 28, -112, 66, 32, 14, 119, -70, -14, -36, 72, -84, -34, -60, -4, 29, 15, 76, -101, 2, -61, -102, -99, 21, 65, -36, -63, 15, 76, -85, -80, -3, -75, 47, -45, 9, -97, 12, -12, 25, -120, 75, 38, 89, 108, -104, 51, 102, -37, -50, 85, -23, 36, -90, -71, -44, 91, 87, -55, -6, 49, -29, 4, 43, 49, 23, -21, 109, 53, 48, 7, 3, -31, 46, 84, 36, -73, -109, -1, -19, 42, 60, -99, 70, 2, 38, -43, -38, -34, 51, -34, 49, 88, 30, -76, 2, 78, 114, 1, -78, 50, 71, -75, -3, -74, 121, 93, -46, -88, -66, -12, 61, 85, -12, -40, 63, -3, -107, -54, 33, -44, -32, 41, 71, -27, -103, -28, 54, 86, -72, -51, -74, 43, -21, -26, 36, 62, -66, 106, -20, 39, -37, -73, -25, 28, -48, 72, -70, 34, -27, -28, 33, 95, -48, 28, -93, 30, 72, -17, -15, 96, -12, -3, -31, -96, -29, -26, -80, 80, 40, 42, -89, 50, -25, -64, 11, 70, 101, -15, 61, 50, -111, -40, -32, 84, 55, 94, 1, -25, 58, 76, 44, -24, -2, -86, 103, -83, -42, 57, 68, 68, 13, 92, 15, -4, 19, 72, 43, 90, 36, 42, -54, -88, 42, -39, 23, -52, 38, 39, 65, -88, 66, -30, 34, -62, -58, -75, -49, -59, 51, -67, -58, 111, -42, 51, -75, 93, -15, -2, 65, -43, 79, -29, -114, -24, -30, -7, 77, -39, 11, 82, 52, 41, 99, -14, 66, -49, 64, -91, 80, -95, -96, 48, 79, -18, 73, -17, 15, 40, 29, -9, 94, 33, -3, 36, 59, -33, -18, 126, 0, 96, 47, -2, -4, -83, 79, 51, 70, 45, -10, 26, 115, -32, -24, 88, -51, 89, -25, -63, 93, -120, -120, 82, 18, -4, 85, -45, 104, -70, -6, -14, -36, 40, 24, 58, -97, 70, 51, -48, -12, -60, -16, -72, -62, -1, -41, -95, -16, -40, -8, 97, 79, -101, -89, 113, 16, 17, 1, -80, 49, -13, 88, 49, 57, -33, -29, 
  43, -97, 17, 88, -69, 114, 88, -53, -31, -8, -55, -101, 67, -84, 70, 1, -85, -8, 84, 52, -25, -103, 97, -47, 82, -18, -4, 25, 60, 68, -108, -72, -41, 4, -32, -10, 43, 47, 65, -25, -91, 86, 1, -38, 112, 30, -1, -80, -35, 26, 68, -70, 85, -27, 11, 83, -61, 41, 78, 17, 70, 20, 71, 31, -62, 42, -27, -36, -84, -95, -110, -84, -64, -40, 75, 33, 109, -15, -32, 47, -119, -36, -68, -3, 3, -62, -9, -5, -64, -103, 98, 9, -23, 39, -85, 4, 93, 15, 25, -5, 84, 79, -69, 19, -47, -91, 44, 3, 8, 15, 26, 56, -75, -29, 74, 13, -61, -12, -10, -88, -15, 57, 65, 101, -42, 2, 53, 22, 91, -68, 20, -105, 54, -9, 64, 68, -86, 45, 43, -65, 24, -82, -50, 109, 19, -80, -80, -23, 45, -84, 6, -102, -66, 47, -3, 64, 17, -13, 11, -85, 27, -72, -96, -16, -6, -33, -26, -61, 17, 94, -76, -12, -26, 46, -32, 62, 68, -82, 90, -78, -15, -55, -1, 107, -38, 95, -86, -63, -39, 60, -83, -27, -55, 67, 82, 74, -70, 19, 13, -87, -56, -72, 29, 16, -80, 19, -62, 8, 108, -71, -7, 6, 58, -111, -17, -103, -25, 9, -42, 59, 27, 45, 19, -100, -23, -89, 108, -15, 56, 36, 114, 73, -47, -17, 93, -90, 2, -75, -106, 67, -43, -59, 48, -61, -116, 41, -50, -79, -17, 36, -86, 56, 21, 6, 99, 66, -89, 26, -52, 92, -15, 60, -106, 8, -46, -47, 28, -63, -76, 65, 91, 5, -78, 31, 74, 82, 74, -8, 61, 49, -94, -23, -1, 5, 16, -48, 3, 94, 10, 35, 64, -46, 43, 30, 111, -33, 98, -38, -105, 40, 27, -87, 38, 79, -44, -66, 64, -59, 79, 10, 93, 42, 98, 91, 96, 5, 18, 70, 13, -103, -89, 68, 102, 62, 92, 92, 93, -2, 47, -27, -8, 45, -22, 70, 96, 44, 6, -57, -29, 111, 82, 90, -86, -57, -104, 57, -27, -43, 43, -28, 45, -74, -20, 7, -42, -63, -85, 1, -60, -1, 34, -7, 34, -64, -50, -47, 88, 79, 22, 48, -68, -44, 6, 56, -89, 10, 49, -103, -11, -38, -15, -66, -61, -83, -22, 79, 90, 8, 7, 11, 38, 18, 103, 15, 29, 16, -52, -19, 92, -23, 73, -11, 29, -7, 83, 51, 19, 87, -52, -40, 99, 3, 70, 117, 22, 96, -29, -71, 5, -13, 77, -32, -73, 31, 62, 87, 74, -37, 44, -1, -41, -75, -101, 12, 19, 18, 43, 0, -95, -52, 42, 71, -54, 37, -85, 20, 26, 121, -47, 7, 55, 58, -66, -72, 13, 50, -2, 58, -87, 39, 8, -15, 35, -16, 84, 95, -28, -29, -46, -115, -60, -6, -53, 89, -2, 106, -110, 45, -69, 59, -17, -60, -19, 112, -71, 25, -73, 76, -18, -21, -121, 41, -59, 82, -89, 30, 4, -104, -57, -18, 82, 71, -14, -40, 77, 100, -27, -87, 38, -8, -36, 8, 85, -62, -34, 60, 69, 79, -53, -6, -87, 93, 59, -44, 47, 28, -95, -75, 40, 61, 118, -44, -5, -52, 42, -59, -93, -69, -30, 56, 80, 37, 84, -108, 101, -92, -84, -106, -1, 92, 88, 106, -43, 79, 113, -61, -82, -34, -39, -56, 47, -66, 58, -59, -19, -48, 42, -98, -43, -57, 26, 110, -72, -18, 49, -46, 100, -25, -67, -69, 96, 24, 49, -40, -76, 102, -8, -75, -91, -20, -38, 76, 114, -41, 42, 77, 9, 91, 42, -69, 58, -21, -20, 82, 41, -72, -30, -106, -9, -87, -107, 55, -82, 45, -102, 72, 30, -42, 62, 76, 27, -105, -6, 50, 42, -102, -74, 40, 38, -13, -66, 15, 66, 90, -47, -4, -40, -67, 24, -51, -98, -66, 54, 38, -12, 57, 37, 77, -48, -106, 5, -41, 63, -68, 20, -2, 37, 64, 109, -75, 105, -22, -93, -59, -90, -33, 93, 87, -74, 78, -18, 76, -38, 82, 25, -27, 36, 59, -69, 68, 68, 101, 94, 48, 25, -13, -107, 68, -88, 41, 96, 32, -12, 16, 70, -89, -91, -6, 79, 30, 47, 31, 106, -70, 27, -56, -22, 61, 90, -18, -80, -106, 71, -36, -67, 46, -12, -6, -48, 65, 68, 56, 67, 15, 5, -66, -64, 3, -84, -59, 87, -107, -76, 77, -85, 85, -13, 16, -70, -1, 60, -33, -88, 83, -47, -101, -23, -16, -98, 58, 84, -52, 11, -97, 59, -83, -35, 73, 7, 32, -113, -83, -23, -25, -46, 6, -39, -85, 100, 55, 96, 72, -91, 55, -56, 95, 117, -77, -53, 44, 63, -81, -62, 81, 106, 85, 76, -26, -49, 15, -81, 24, 9, -32, 14, -54, -78, 65, 33, 16, 27, -70, 85, 59, -93, 40, -65, 1, 77, 40, -50, 81, 65, 108, 69, 12, -81, -65, 52, 61, -3, 20, -3, -90, -34, 48, 27, -22, 13, 28, 0, -3, -48, 63, -76, 53, -67, 82, 3, 61, -16, -70, -57, -73, 45, -110, -75, 61, -54, 31, -56, -23, 32, -82, -68, 18, 27, -57, 27, 106, -94, 33, 1, 46, -71, 53, -53, 44, -33, -8, -19, -74, -15, -54, -76, -8, 103, -48, 92, -36, 68, -63, -8, -39, 32, -66, 81, -104, 30, 80, 37, -94, -61, 43, 6, -55, 89, -14, -93, 52, -89, 59, -106, 86, -83, 107, 2, 108, -53, -64, -18, 12, -94, -100, -73, 71, 44, -95, -59, -97, 10, 88, -11, -70, 27, 57, -26, -16, 58, 42, -56, 122, 75, 0, -72, -11, 23, -54, 12, -12, -59, 11, 0, 52, -60, 25, 10, -14, 2, -13, 114, -52, -65, 48, 7, 117, -67, -24, 42, 41, 54, 99, -51, 13, 27, 21, -60, -21, -60, 59, -107, 73, -91, 36, -14, -45, -57, 6, 81, -15, -52, -81, 24, -40, 62, 30, 66, 10, 7, 31, 84, 81, 76, -50, -4, -84, 83, -36, 98, -56, 1, -103, -63, 68, -13, -52, -59, -18, -93, 46, -5, -95, -28, -29, 65, -14, 12, -10, -40, -83, -81, -13, -88, -24, -18, -84, -102, -58, 5, 16, -22, 25, 58, -80, -57, -85, 17, -32, -28, -46, -58, -85, 46, 88, 31, -53, -109, -74, -100, 12, -2, -74, 39, -36, -30, 2, -31, -50, -69, -34, -9, 72, 4, -25, 18, 51, -24, -78, 86, 37, 29, 83, -27, 53, 21, -9, 22, 68, -107, -33, 27, 17, 30, 83, -1, -18, -60, 30, -65, 14, -30, 38, -55, 57, 17, 75, 77, -58, 87, 90, -49, 6, 28, 101, 50, 88, 48, -56, 21, -2, -47, -60, -52, -103, -3, -11, 12, -26, -45, -95, 5, 46, 60, 39, 33, 22, 18, 99, -62, -37, -68, 50, -69, 3, 15, 72, 102, 11, 45, 7, 96, -63, 94, -7, -25, -1, -108, -115, -100, 85, 23, 81, -77, 99, 17, -21, -113, 46, -2, -9, -53, 19, -7, 81, -22, -72, 1, -24, 97, -75, -35, 94, 4, -58, -33, -50, 51, 16, 87, 2, 22, -19, -86, 28, 62, -59, 109, 0, -8, 3, 26, -90, 112, -5, 3, -64, 33, 81, 76, 101, -18, -46, 84, 41, 57, -4, -80, -101, 13, 95, 6, -63, -73, 18, -73, -53, -74, 59, -53, -42, -46, -105, 86, -92, 1, 47, 37, 101, 82, -23, -18, 40, 42, 108, 82, -58, 40, 12, -5, 52, -37, 84, -49, -23, -13, 14, -5, -36, 28, 8, 47, -46, 77, -58, 32, 38, 87, 61, -92, 96, 37, 69, 39, -4, -30, -8, 89, -68, -12, -86, -85, -83, -45, 24, -76, 71, 53, 65, 27, -43, 
  69, 32, 13, 29, 27, 85, -17, 37, -79, 45, 38, -64, -80, 77, 54, 82, 57, 86, 24, -43, 58, 20, 25, -7, 102, -75, 81, 27, 57, -39, -2, 65, 93, 78, 72, -85, -39, 90, 14, 37, 97, 2, -92, 93, -40, -63, -95, 33, -21, 71, -104, -62, -77, 41, 100, -65, 42, -85, -63, -108, 80, -54, -4, 59, -44, 68, -19, -57, -3, 33, -27, 13, -76, -1, -2, -49, 54, -49, 37, -82, -30, 43, -79, -106, -77, -78, -14, 22, 59, -72, 38, 19, -49, 73, -74, -72, 50, -6, -77, 58, 46, -47, -1, 31, 95, -31, 28, -6, 75, 17, -94, -6, -110, 41, -114, 106, -99, 5, -46, -5, -72, 30, 22, -44, -43, 84, 77, 65, 60, -66, -18, 20, -32, -10, -38, 8, -31, 13, -53, 42, 8, 77, 86, -43, 9, -61, -103, -102, 52, -36, -56, -78, 42, -18, 98, -112, 71, 0, -36, 99, -81, 66, -95, -102, 47, -16, 72, 66, 36, -63, 36, -15, -31, 21, -117, -9, -56, 75, 27, 35, -5, 0, -108, 63, 76, -15, -75, 105, -68, 64, 33, -53, -46, 75, 111, -20, -32, -29, -65, 32, -19, 37, 48, 24, -8, 98, 15, 21, 65, -102, 51, 25, 112, 83, -73, -21, -13, -8, 95, 13, -26, -74, -35, -93, 60, 62, -98, 22, -33, 25, -23, 57, 52, -86, 56, -20, 86, 22, 56, -30, -112, 5, -65, 83, -33, -103, -62, -31, 58, 17, 78, -21, -23, 56, 86, 24, 76, 32, 69, 55, 97, -33, -77, -120, -97, -45, 46, -83, -86, 39, -89, 91, 57, 101, -38, 33, -67, -86, -98, 19, 39, -17, 96, 31, 67, -63, -87, 35, -73, -58, 64, 27, 88, 80, -22, 29, -55, -5, -10, -10, 56, -51, 76, -53, -111, 36, 110, 1, -69, -94, 13, -25, 6, 20, -17, -86, 25, -47, -75, -47, 5, -43, 25, -7, -52, -42, 82, 25, 49, -116, 20, 46, -92, -4, 96, -95, 120, 84, -33, 41, -49, -32, 62, -16, -21, 17, -27, 123, 24, -101, 78, 26, 97, -9, 87, -66, -24, -9, 46, -40, -71, 13, -20, -89, 35, -54, 95, 9, -99, -37, -115, 64, -88, 22, -30, 79, 68, 31, -16, -12, -69, 36, 96, 49, -6, 60, 93, -96, 61, -26, 112, 11, 7, 61, -14, -41, 10, 25, 73, 101, -86, 26, 93, 12, 57, 85, 42, 98, 70, -48, 61, 46, 68, -71, 25, 2, -78, -19, 49, -48, 60, 60, -99, -17, 42, 28, 19, -15, -79, -96, -73, 93, 30, 106, -65, -34, 6, 46, -55, -85, -34, -30, 16, 22, 87, -70, -122, -25, -26, -73, -3, -9, 23, 62, 41, -97, 46, -46, -1, 29, -116, -3, -107, 91, -92, 30, -108, 102, -82, -38, 115, 107, -25, -115, -1, 14, 102, -112, -42, 34, -3, -74, 101, 78, 66, 21, -12, -10, -20, -38, 62, 1, -54, -85, 100, -88, -82, -109, 90, 61, -65, 77, 106, 6, -103, 15, 62, 62, 8, 22, 63, 90, 91, -106, 75, -37, -67, -85, -26, 30, -22, 87, -28, -46, -99, 22, 83, 23, -66, 104, 114, 40, -30, -29, 97, -83, 62, -87, 101, 29, -60, -72, 77, 103, 96, 32, 22, -115, -51, 50, 54, 57, 88, -71, 41, 20, -82, -17, -28, 95, 9, 57, -29, 28, 28, 86, -52, -54, -47, -82, -58, -4, 35, -22, -11, 34, 49, -73, 65, -45, 114, -20, -82, -33, -102, 8, -78, -87, -58, 21, 70, 115, -57, -39, -49, -3, 55, 98, -78, -18, -28, 12, -5, -75, 0, 29, -64, 73, -23, 86, -50, 53, 3, 64, -83, 48, 97, -5, -55, 15, 103, -63, -58, -69, -100, 28, -31, 61, -24, -54, 73, 78, -111, 61, -7, 17, 52, 63, 59, -28, 64, 70, 91, 29, 11, 47, 67, 52, 95, 41, 30, 74, -19, -42, 81, -118, -74, -16, 57, -115, -78, 41, -46, 69, -21, -4, -113, 93, -16, -18, 93, 44, -87, -1, -78, 40, 82, -91, 25, -29, -67, 23, 45, -95, 63, 69, 59, 70, 33, -65, 65, -30, -54, 83, -78, -24, -53, -73, 93, -100, -91, 21, 18, 66, -68, -60, -29, 80, -16, -73, -102, 42, 64, 43, -32, -58, -25, -26, -86, -45, 25, 36, 18, -81, -76, 80, -32, 4, 42, -64, 35, -17, -78, 98, -1, -31, 58, 68, 67, -55, 9, 90, -106, 45, 107, -50, -9, -79, 1, 13, -85, -68, 71, 68, 24, 74, 109, 3, -51, 4, -83, 5, 73, -81, 17, 54, -37, 78, -93, -62, -27, -41, 37, 112, 77, 90, -82, 58, -30, 52, -28, 32, 104, -80, 83, -14, -86, 63, 18, 35, 73, -54, 105, -75, 55, -50, -53, -90, -7, -43, 51, 98, -14, 97, 101, -40, 33, -5, 16, -96, -39, -66, 56, -27, 53, 98, 52, 95, 93, 34, 8, -35, 18, 26, -50, 45, -95, -42, 101, 26, 92, 105, 88, -5, 86, 22, -73, -82, -61, -76, 10, -98, 54, -22, 15, 21, 37, 0, 60, 79, 1, 71, 19, 69, 16, -41, -70, 74, 76, -64, 77, 74, 57, 53, 29, -78, 94, -10, -8, 75, -88, 19, 97, -91, 9, 29, -40, -79, -57, -84, -19, 74, -48, 52, -36, 89, -37, 97, 51, -36, -45, -71, -30, 72, -11, -83, 46, 76, -47, -10, -4, -47, 67, 104, -88, -76, -94, -63, -95, 62, 110, -14, 10, 82, -81, -85, 67, 40, 0, 16, -98, 75, 81, -48, -89, -88, -4, -1, 99, 14, -37, -59, 23, 7, 81, -19, 46, -79, -31, -82, 15, 11, 26, -97, -89, -85, 24, -54, -28, 33, 76, 46, 91, -86, 88, -22, -52, 57, 75, -62, 51, 32, 3, -10, 102, -45, -16, -98, 48, 6, 80, 57, 51, 15, -8, -64, 96, -26, -51, -29, -100, 32, 13, 101, 98, -79, 44, -42, 10, 5, 89, -62, -49, -50, -85, 9, -60, -95, -23, -48, 60, -43, -91, -66, 56, 83, 88, -95, -10, 66, 72, -7, 26, 13, -44, 45, -103, 107, -30, -85, -32, 38, 29, 25, -42, 104, 21, 52, -55, 110, 37, 89, 79, -95, -61, 25, -110, -97, 25, 24, -49, -57, -65, -15, -72, 107, -27, 34, 90, -51, -65, -69, 72, 27, 96, 35, 103, 23, -25, -10, -87, 105, 113, -101, -79, 49, 61, -88, 90, -92, 61, -93, -25, 72, -30, -15, -48, -30, -75, -9, 27, -52, 30, -26, -1, -101, 102, 51, 46, -55, -27, -21, 66, 32, 48, 82, 75, -85, -91, -45, 52, 22, -4, 63, -3, 2, -74, 66, -46, -54, 86, 17, -9, 54, -7, 47, 61, 13, 2, 35, 43, 19, 24, -23, 12, 73, -31, 112, 90, -99, -82, 40, -22, -57, 104, 9, 102, 25, -18, -11, -15, -72, -76, 79, 60, -21, 101, 72, 30, -47, -24, 6, -60, 85, 1, -25, 71, -22, -19, 89, -3, -86, 18, -40, 66, 94, -80, -50, 55, -37, -15, 115, -37, 18, -80, -19, -58, -33, -84, 88, 38, 22, 53, 42, 67, 72, -83, -46, -88, -20, 91, 40, 56, 48, 89, -66, 123, -37, -39, -48, 79, 49, -7, -70, -43, 94, 39, 29, 70, 48, -51, -38, -38, 70, 46, 38, -71, 6, 83, -59, 50, 85, 55, -57, 83, -7, -60, 70, -52, -7, -71, -94, 86, 67, 32, -22, -36, -2, -90, 55, 87, -93, 121, 23, 77, -33, 80, 47, 67, -5, -28, -2, 19, -73, -88, -13, 21, -21, -16, 40, -88, 54, -19, -67, -68, -57, -45, 4, 80, -33, -96, 61, 77, -14, -84, 82, -55, -53, -41, -22, 
  48, -6, 110, 69, -2, 56, 37, 84, -2, -79, -27, 76, 20, 20, 6, 70, 57, 8, 70, 4, -8, -76, 39, 0, 13, 1, -30, 80, -1, 52, -59, -77, -31, -56, -1, -36, -69, -66, 12, -15, 102, 10, -83, -25, 75, -49, 14, -64, 2, 71, -14, -76, 57, -92, -54, 33, -40, 6, 34, 32, -58, -14, -55, 127, 52, 107, 96, 26, 9, -10, -84, 42, -53, 38, -16, -36, -85, -7, 36, -101, -58, -77, -40, -27, -65, -88, -77, -81, 19, -22, 92, -52, 36, -57, 46, 83, 39, 42, -22, -112, -18, -76, -72, 42, -71, 35, 61, 92, -59, 37, 11, -2, 27, 70, -63, 73, 16, 102, 24, 85, 15, 94, -49, -48, -39, -51, -67, -33, -48, -24, 38, -56, -7, -59, -33, 24, 21, -84, -101, -61, -83, -73, -79, 84, -38, -61, 20, -67, 74, 29, 58, 19, 43, 94, -8, 57, 12, 103, -51, 90, 11, 82, -45, 7, -68, 78, -10, -14, 3, 59, 64, 111, 79, -16, 13, 54, -105, 11, -49, 105, 39, 27, 51, 52, 15, 36, 78, 41, -89, 3, -21, 6, 81, -5, -33, -57, 74, -54, -63, -92, 45, 4, 52, 17, 25, 24, 88, 21, 78, -85, -58, 5, -55, -30, 103, -46, 91, -86, -102, -26, -85, 3, 14, 15, 36, -89, -36, -29, -61, 7, -44, -7, 48, -71, -99, -25, -7, -103, 81, 69, -2, -82, -98, 80, -70, -39, -86, 16, 17, -98, 22, -42, 16, -67, -9, -85, -98, -13, -12, -68, 51, 98, 6, 86, -15, 8, 89, 25, 33, -110, -61, -99, 49, -99, -67, 106, 13, -75, -52, 97, -7, 94, 10, 76, 53, 44, 28, -79, 69, 86, 82, -23, 97, -80, -26, 115, 2, -86, -16, -64, 12, 50, -16, -65, -63, -61, 83, 22, -24, -103, -40, -4, 102, -22, -83, 75, 45, -1, -2, -106, -3, 18, -24, -54, -65, -49, -97, 63, 67, -12, 25, -17, 74, -60, 45, 17, -69, 10, 98, 30, -54, 33, 34, -4, 34, -51, -28, 73, -67, 29, 91, 67, -55, -17, 16, -111, 4, 31, -9, -101, 89, 37, 96, -101, -98, -11, 22, 46, 47, 81, 3, 68, 30, 19, 23, -77, 61, 0, -96, 13, -84, 35, -68, 83, -14, 87, 78, 53, 30, -120, 90, 3, -25, 5, 66, -76, 38, -79, -40, -46, -42, 35, -66, 89, -34, -17, 79, 4, 62, 23, 61, -16, 93, -66, -6, -89, -9, -39, 82, 95, -73, -31, -59, 34, 10, -28, 63, -24, -31, 61, -37, 31, -33, -87, 9, 47, -84, 89, 3, -53, 80, -85, 114, 33, 16, 84, 104, 1, -65, 89, 74, 56, 14, 23, 45, 37, 3, -98, 119, 36, -8, 97, 92, -39, 59, 13, -78, 79, -74, -43, -42, 50, -75, -70, -35, -73, -28, 72, 116, 46, 21, 37, -63, -58, 111, 112, 93, -30, -91, -51, -47, 6, 102, 95, 71, -27, 106, 90, 70, -47, 47, -48, -9, -76, -34, -59, -4, -96, -61, 100, -37, 99, 47, -15, -4, 55, 94, -100, 99, -64, -105, 11, 64, 24, 10, 73, -8, -54, 37, 47, -37, 58, -57, 73, 30, -78, 81, -26, -5, 72, 73, 1, -63, 114, -72, -110, 9, 70, 77, -76, 105, -6, 105, -48, -80, 49, 22, 90, -62, 31, -52, 10, 38, -61, 4, -74, 97, 33, 60, 6, 88, -72, 18, 64, -32, 98, 32, 97, -37, 42, -14, -86, 17, -12, 85, -67, -5, 29, 1, 84, -5, 111, 98, -95, -25, 6, -101, 85, -54, 23, 47, -2, 21, 8, -109, -88, -25, -78, -90, -62, 20, 100, 99, 79, 77, -43, -17, -25, 76, 6, 8, -37, -37, -44, 59, 76, 37, -46, -84, 43, -5, 105, 120, 21, 59, -24, 39, -51, -41, -91, 8, -16, 40, 91, -33, 57, -33, 63, 87, 83, 65, -56, 44, 48, -16, 14, -96, -80, 41, -68, -96, 28, -27, -71, 10, 79, -77, -98, 123, 40, -97, -49, 50, -79, 47, 56, -55, 75, 14, -104, -29, -98, 31, -63, -80, -21, 53, 13, -77, -41, -73, -103, 9, -7, -117, -11, 56, -67, -66, 95, 75, 43, -9, -37, -81, -33, -51, -64, 54, 14, 54, 59, -16, -53, -65, 13, -82, -71, -4, 92, -97, -38, -81, 37, -93, -71, -84, -86, 34, 21, 82, 84, 102, -69, 57, -80, 56, 60, 27, 37, 4, 16, 72, -72, 42, -22, -41, 14, -33, -31, -98, -87, -28, -86, -62, -73, -29, 20, -73, 95, -75, -111, 21, 59, -64, 44, -29, -46, -109, -60, 41, 12, 14, 38, -92, 58, 88, 0, 15, 59, -107, -29, -8, 96, 29, 86, -73, 46, -62, -30, -43, 39, 12, -10, -14, 46, 74, -42, -78, 18, -25, 48, -61, -23, -63, -98, -58, -29, -21, 102, 57, -23, 20, -108, -25, 26, -6, -62, -51, -50, -105, -35, 51, 49, 7, 80, 114, -24, -113, -50, 104, -38, -90, -3, -74, -34, -35, -41, -73, 25, -68, -70, 47, -11, -29, 9, -98, -26, 75, 17, 95, 48, 85, 12, -45, -4, -54, 84, 51, -45, 100, 71, 2, 29, -87, 27, -84, -99, -77, -42, -96, -36, 95, -23, -72, -73, 24, 56, 79, -92, 72, 47, -69, 99, 94, 70, -3, -57, -39, 26, 16, -5, 61, -96, -45, 3, -39, 60, -11, -93, -95, 66, -5, 89, -47, -45, 67, -68, -88, -90, 82, 29, -54, -16, -12, 30, -30, 1, 93, 94, -70, -58, 75, -48, 55, 65, -63, -100, 88, 100, 108, 56, 2, -5, 87, -58, 68, 45, 9, 94, -25, -61, 26, -71, -78, 63, -10, -23, -9, -72, 89, -52, 11, -38, 47, 3, 5, 9, -91, -38, -47, -40, 18, -8, -92, -18, -12, -100, 61, 84, -64, -92, -52, -62, -1, 53, -31, 95, -81, -58, -94, 25, -2, -85, -34, -16, 40, -54, -56, 90, 80, 106, 102, 109, -20, -90, -40, -38, -106, -1, -11, -103, 87, -85, -37, 56, 59, 40, -60, 99, 103, -90, 47, 99, -55, -33, -22, 1, 76, -96, 79, 4, 66, -13, 101, 29, 111, -3, -43, 126, -85, 36, 49, 6, 66, -114, 96, 56, -15, -5, -58, 105, -48, 36, -85, -10, 107, -45, -83, 38, -34, -38, -80, -10, -9, -25, 67, -38, 99, -48, 45, -40, -84, 110, 57, -51, -31, 58, -34, -79, -24, 103, 58, -64, 69, 45, 68, -7, -14, 90, 35, 75, -93, 21, -40, 80, -70, -38, -98, -3, 4, 70, 4, 22, -30, -83, -70, -58, 79, -82, -70, -8, 10, -9, -23, -38, -28, -85, -82, -106, 37, -58, -60, -55, -37, -32, -40, 106, 10, -85, 75, -72, 74, -41, 50, -44, -94, -70, 74, -99, 25, -5, -41, 46, -44, 23, 92, 42, 31, 65, 60, 45, -73, -3, 65, -65, 7, 57, -8, 72, -28, 27, 88, -105, -69, 4, -41, 11, 4, -34, 16, -101, 28, -33, 12, -38, 96, -105, 99, -99, -31, 14, -95, -11, 5, -85, -65, -92, -30, 30, -66, -1, 83, 86, 105, -57, -44, -62, -88, 23, -74, 56, 78, 84, 76, 94, -108, 73, -96, -80, 52, -63, -115, -19, -96, 43, -36, 25, 44, -79, 40, -13, -19, 23, -107, -69, -5, -82, 61, -98, 79, -15, -39, -104, -8, -94, -5, 91, 116, 28, 85, -115, 73, -18, -30, -30, 47, 23, 29, 21, -35, 0, 46, 55, 69, -37, 63, -96, -8, -69, 59, 30, 55, 96, 2, 81, 58, -54, -67, 15, -76, 90, -22, -78, -74, 63, -46, 35, -92, 83, -9, -51, -107, 57, -7, -15, -65, 33, 5, 5, 
  74, 95, -90, 68, 48, 52, 81, -84, 36, 94, -107, -74, 32, 59, 53, 30, 96, -14, -113, -60, -8, -74, -83, 35, 28, 16, 85, 36, 24, -56, 36, -67, 44, -82, 65, -39, -80, 32, 80, 3, 16, 99, 30, -48, 14, 76, -21, -62, -92, 50, -72, -93, -19, -15, -97, 84, 34, 1, 12, 15, 13, 5, -79, -15, -42, 15, 0, 16, -74, -84, 29, -111, -115, 99, -25, 78, 52, -117, 9, -16, -61, -18, -50, 15, 45, 37, 82, -19, -24, -96, 2, -83, 14, -85, -36, 64, -109, -19, 79, -76, 21, -15, 16, 71, 36, 23, -2, 73, 34, -95, -37, 44, 105, -33, 48, 54, -49, -45, -35, 110, 39, 47, -70, -65, 27, -2, -80, -4, -38, 65, 100, 29, -31, -48, 39, -50, 57, -93, -6, 0, 86, 52, -79, 63, -51, 16, 80, -19, -40, 62, -46, 63, 21, -121, -45, -42, 17, 56, 90, 96, 91, 26, 59, 92, 40, 28, 86, -71, -86, 2, 59, -94, -16, 72, 17, -95, 65, -103, -90, 83, 111, 96, 70, -116, -29, -40, 39, -82, 63, 70, -58, -13, 64, 31, 72, 103, -23, 22, 29, -118, -71, 83, 14, -70, -67, -78, 76, 25, -24, 23, 55, 20, -79, -69, -56, 21, -98, 57, -56, 66, -2, -87, -54, -102, -75, -37, -22, 72, 34, 12, -28, 41, 3, -61, -85, 11, -9, -49, -33, -98, -60, -102, -101, -18, -26, 26, 81, -5, 41, 18, 39, -76, 93, 20, 48, 78, 19, -15, -71, -41, 7, 53, 47, 15, 48, -45, -66, -102, 65, -75, 49, 78, 105, -16, 74, -84, -55, 18, 28, 15, -69, 8, -96, -1, -75, -62, 46, 21, 88, 2, -1, -33, 31, -67, -22, 63, 15, 35, 103, 47, 85, -95, 104, -15, -57, 57, 65, 29, 107, -12, 30, 48, 34, -96, 53, 59, -59, 98, -54, 30, 4, 66, 35, -38, -42, -4, -24, 12, 80, -15, -2, -97, -45, 74, 40, 20, -28, -77, 65, -70, 91, -85, -8, 3, 71, -39, 1, 69, 26, -101, -27, -75, 59, -7, -29, 100, -29, 17, 21, -7, 39, 100, -91, -57, 21, -85, -83, -94, -75, -18, 46, 87, 122, 94, 105, 97, -102, -5, 91, -80, -50, -47, -49, 40, -70, 37, 14, 83, 19, 29, -88, -27, -29, -27, -35, -5, 60, -56, 109, 5, 18, -61, -67, 49, 15, 70, -86, 84, 35, -30, 79, 74, 48, -99, -112, 93, 81, -53, 13, 92, 3, -46, 81, 21, -74, 17, -21, 0, -73, -64, 75, 50, -93, -12, -6, -67, 91, -73, -81, -59, 80, 119, 114, 83, -87, -41, 53, 94, -13, -15, 86, 51, -83, 68, -33, 86, 24, -8, -1, -67, -84, -61, 61, 93, -30, 24, 90, 39, 67, 51, -2, -10, 33, 30, -56, -64, -20, -75, 29, -97, -49, -64, -78, 0, 63, -17, -64, 26, 100, -57, -56, -45, -71, 103, 58, 32, -53, 42, 37, -49, -96, -108, -83, -88, -60, 45, -83, -83, 41, 26, 85, -85, 83, -22, 95, -57, -54, 38, -26, -105, -116, 76, 94, -17, 62, -77, 90, 91, -64, 111, -77, 41, -76, 2, 58, 114, 66, -14, 106, -9, 29, -32, -61, 1, 44, -108, 88, -94, -46, -48, 71, -39, -18, -57, -17, -60, 15, -23, -6, -38, 84, -75, -110, 32, -77, -38, -73, -47, -2, -36, 5, 21, -48, 94, 9, 77, -4, -69, -74, 91, 73, 24, -63, 88, -23, -67, -23, 15, 17, -107, 76, 90, -124, -26, 100, 31, 75, 42, 101, 88, -71, -39, -102, 7, -84, -72, -72, 91, 47, 39, 101, -81, -35, -16, -30, -37, -69, 12, 21, 22, 5, -71, 46, 46, -122, 44, -58, -96, 98, 50, 20, 44, 35, -30, 5, 1, -23, 82, 50, -22, 89, -3, 75, -32, -45, 88, -1, -30, -54, 54, 47, 53, -41, 71, 6, 99, 88, 84, 73, 49, 50, -112, 44, 23, 89, 44, -70, 97, 102, -15, -34, 20, 50, 4, 89, 67, -97, 41, 49, -94, -26, 43, -23, 33, 47, -60, 70, -15, 30, 91, -38, -12, 79, -106, 17, -88, 28, 57, -32, 74, 3, 42, -120, 59, -108, 82, -67, -20, -64, -26, -73, -11, 48, -71, -86, 4, 44, 22, 5, -77, -42, 66, 46, 97, 33, 21, -72, -108, 12, -26, 90, 78, 14, -97, -66, 60, 61, -5, -64, -45, -30, -110, -43, -54, -55, 3, -70, -61, -99, 63, -17, -47, 58, 26, 16, -92, 78, -61, 51, -91, 0, -46, 2, 10, -60, 18, -68, -51, -34, 21, 6, -24, -105, -52, 62, 97, -99, 91, 96, 9, 62, 74, -32, -37, 106, 10, 64, 104, 32, -95, 89, 55, -64, 104, -6, 16, -64, -34, 18, -86, -56, -69, 24, -59, -85, 5, -31, -8, -47, -20, -44, 76, 76, 64, 34, 62, 12, -40, 60, -59, -19, 87, -14, -54, -90, 55, 84, 74, -64, 27, 82, -88, -21, 24, 71, -39, 41, 83, -48, -105, 41, -59, -39, 102, -39, 91, 36, 67, -32, -102, -93, -74, -99, -95, 46, -69, -94, 102, -55, -59, 29, -39, 72, -62, -112, 78, 5, -43, 103, -80, -50, -53, -84, 27, 67, -96, 12, 71, 26, -9, -7, -82, 77, -71, -20, -14, -39, -11, -92, 70, 38, -63, 77, -15, 68, 98, 58, 82, 83, 90, 80, 98, 4, -79, 31, -82, -100, 62, -81, -121, 18, -51, 76, 92, 3, -48, -80, 67, 95, -36, -18, -38, 6, 50, -76, 97, 0, -5, 113, 69, 112, -121, 5, -116, 43, -47, 6, 65, 91, 29, 102, -71, -14, -32, -46, -69, -13, -93, 84, 88, -85, -39, 6, -12, 60, -23, 7, -101, 75, -21, -41, 88, -112, -5, -76, -97, -20, 57, -2, -61, 4, 14, -68, 92, 25, 62, 76, -44, -47, -58, -28, 55, -67, 101, -91, -54, 4, 15, -30, 86, 99, -17, 33, -54, 18, 5, -73, 91, 5, -10, -38, -74, -33, 91, -92, -86, 54, -87, -71, 80, -57, 35, 9, -53, 41, 34, -18, -106, -3, -97, 12, 22, -29, -6, -59, 83, -92, 8, 76, 122, -59, 1, 0, 83, 50, 94, -32, 104, -93, -29, 77, 51, 73, 44, 91, -37, -69, -64, -47, -46, 47, -69, 88, -35, -31, 30, -82, 54, 3, 59, -90, 58, -1, 73, -64, -105, -80, 58, 81, 40, 28, -105, 17, -8, 13, 61, -86, -22, 63, 95, 19, -115, 42, 23, 79, -66, 84, -47, -83, 35, 31, 19, -71, -113, 108, -105, 92, 11, -116, -86, -95, 58, -110, 95, -59, -64, -76, 59, 46, -83, 65, 41, -78, -15, 107, -72, 35, -99, -89, 39, -50, -51, -56, -117, 3, 34, 27, 55, 67, 50, -97, -81, 4, 85, 25, -54, -51, 11, -29, -65, -103, 12, 51, 11, -2, -41, 36, -35, 78, 35, -69, 8, -89, 70, 22, 60, 64, 1, -96, -76, -90, -63, 78, -4, 38, -39, 71, 30, 65, 33, -53, -118, 57, -107, 72, 41, 66, 9, 40, -63, 77, 83, -91, -54, 49, -25, 84, 52, 38, 61, -11, -45, 81, 76, -61, -59, 40, 6, -42, -4, -106, -57, 18, 26, 88, -78, 85, 13, 37, -69, -18, 83, 83, -54, 41, 86, 106, 63, -100, 44, -12, -24, 105, -21, 56, -110, 26, 85, 79, -84, -71, 17, 94, 40, 111, 106, 75, 47, -69, -99, -39, 37, 102, -36, 62, -37, 50, -72, 43, -44, -58, -70, -14, 4, 21, 53, -16, -16, 49, 54, 55, 41, -86, 46, 41, -65, 39, 14, 47, -13, -50, 22, -4, 38, -7, 34, 25, 79, 14, -72, 
  18, 36, -55, -42, 103, -68, 76, -72, -91, 88, -40, -52, 0, 88, 54, 66, -14, -99, -57, 85, 21, -56, -80, -78, 66, 115, 67, -110, 94, -113, -110, -56, 41, 51, -2, 68, -11, -86, 94, -44, -84, 85, -98, -78, 98, 12, 69, 53, -63, 83, -67, -2, 0, -117, -64, 91, -15, -50, -76, -85, 45, -49, -52, -96, -80, 49, -87, 39, -27, 17, -85, 7, -17, 8, 33, -12, -80, -36, 84, -103, 103, 16, 63, -26, 12, -9, -24, 97, -110, 49, 99, -93, -84, 90, -24, -11, -68, -48, 4, -87, -9, 20, -44, -8, 58, -38, -60, -95, 74, -41, -25, 8, 20, -16, -21, -4, -49, -38, 94, -42, -74, 84, 21, -66, 56, -66, -47, -88, -39, -61, 50, 18, 107, -96, -18, -23, 86, 95, -7, 105, -104, -32, 14, 2, 37, -65, -74, 16, -95, 74, -34, -79, -85, 60, -98, -35, -50, 41, -25, 90, 46, 114, -20, -84, 31, -51, -9, -120, -73, 52, -63, 97, -13, 81, -104, -49, 67, -34, 68, 49, 89, -59, 30, 41, -32, 23, -66, 1, 79, -13, -33, 80, -36, 57, -76, -45, -85, 8, 102, -71, 79, -68, 82, -42, -49, -32, -15, 45, 26, 103, -85, -18, -96, 35, 85, -41, 50, 76, 54, 118, 91, -62, 41, -58, 46, -57, 5, -124, 28, -80, 105, -78, 63, -38, 24, -44, -18, -91, 65, -66, -66, 20, -25, 27, 12, 55, 27, -50, -52, 12, 19, -49, 68, -2, -16, 21, -78, 93, -41, -5, -67, -69, 15, -21, 87, 110, 78, 91, 82, -20, -80, -17, 75, -65, 65, 72, 77, 52, -7, -58, -94, 89, -97, -79, -7, -11, -11, 5, 102, -46, 28, 101, -40, 37, -2, 15, 55, -41, 59, -89, -37, -7, 101, 74, -67, 100, 97, 101, 104, 61, 77, -66, -82, 111, 83, -13, -75, -90, 59, -2, -40, -35, -19, -70, 70, 85, 55, -32, 50, 24, 12, -7, 38, -21, -64, -64, 53, -41, -82, -45, -111, 77, 109, -57, 107, 89, 15, -1, -46, 86, 55, 25, 89, -93, -81, 88, -34, -90, -69, 15, 21, 0, 77, 12, -7, 6, -21, 100, -39, -94, -7, -39, 33, 40, -83, -37, 1, -39, -36, 67, -90, -26, -94, -101, 79, -69, -18, 2, -54, 8, -53, 67, 1, 55, -40, 54, -80, 69, 70, -2, 78, 22, 21, -79, 57, 35, 61, -23, -64, 41, -85, -19, 42, -29, 104, 51, 97, 73, 10, 9, -6, 30, 22, -90, 39, 41, -37, -56, -86, -65, -18, -98, 64, -54, -50, -60, 91, 104, -77, 76, 5, 38, 111, -15, -9, -72, 54, 67, -50, -114, -100, 109, 31, 47, 45, 90, 38, 49, 34, -4, 19, 44, 76, -9, -98, 17, -55, 56, -17, -73, -54, 119, -49, -1, -47, 20, 123, 78, -21, -88, 56, 72, 31, -58, -15, -49, 62, -42, 33, 102, -9, 85, 35, 93, 94, -24, 36, 24, 116, -23, 86, -25, -31, -13, 5, 31, -109, 82, 60, -1, -17, 94, 98, -92, 68, -74, 44, 80, 62, -63, 11, 47, -44, 13, 84, 97, -50, -9, 15, 112, -1, -79, -70, -13, -67, -2, 45, -79, -91, 83, 2, -93, -71, -21, 42, 35, 38, 74, 117, 53, -87, -10, 23, -92, 90, -38, 24, 97, -43, 19, 2, 89, -64, 72, 71, 53, -65, -28, 5, 7, 66, 48, 9, 16, 84, 39, -67, -7, 51, 62, 84, -14, 58, -45, 10, 11, -61, 99, -31, 66, -65, 108, 98, -84, 77, 58, -87, 3, 69, 39, -27, -48, -4, 33, -107, 2, 103, 37, -39, -104, -46, 15, -74, -72, -17, 61, 79, -40, -93, -7, 45, -44, -32, -69, 62, -56, -4, 63, -52, 43, -73, 66, 103, 87, 9, -35, 69, 7, 67, -60, 37, -49, -38, -56, -108, 84, 63, 68, 61, -63, -17, -56, 14, 25, -86, -14, 9, 72, 22, 14, -44, -6, 74, -61, -92, 9, -92, 14, -14, 85, -41, -66, 31, 93, 108, 42, -37, 44, -70, -52, 53, -11, 27, -8, -18, -85, 98, -65, 7, -55, -113, 38, -49, 20, -44, -109, -14, -18, -73, 38, 60, -92, 66, 47, -108, -108, 35, 44, -39, 7, 37, -35, 36, 95, -103, -92, -70, -124, -5, -1, -67, 91, 43, -103, -93, -73, -15, -61, 80, -26, 100, -22, -43, -77, -44, -34, -17, -85, -115, -81, 84, -2, 65, -21, -46, -100, 78, 62, -68, -59, 60, 89, 94, 40, -9, -96, 69, 80, 55, -82, 89, -21, -4, 38, 47, -66, 17, 14, 47, -14, -84, 114, 19, -1, 117, 93, 45, -57, 94, -80, 65, 20, -95, 9, -57, 30, 44, -14, -40, 81, 43, -31, 92, 32, 71, 3, 78, -64, 11, 76, 68, -53, 34, -36, 55, -77, -44, -62, -125, -30, -40, 98, -41, 42, -18, 84, -60, -58, 51, 90, 21, 52, 32, 99, -71, -96, -18, -8, 30, 35, -13, -5, -104, 45, -102, 50, 74, 99, 92, 9, 16, -99, 74, -71, 63, -64, -48, 66, 97, -102, -37, -29, 80, -89, -75, -54, -78, -6, -96, -78, 53, -14, -74, 96, 11, 6, -98, -70, -108, -61, 112, -55, 84, -77, -70, 22, -11, -28, -39, 73, -35, 1, -66, 35, -92, 49, -23, 107, -37, 28, 38, 121, -11, 13, -51, 43, 23, -59, -50, 38, 82, 4, -56, -108, 96, -72, 27, 26, -8, -43, -42, 100, -31, 73, 25, 51, -75, 29, 10, 9, 83, 41, -108, 24, 79, -112, 42, 39, -48, -103, -28, -2, 111, 15, -64, 61, -92, -18, 93, 10, -60, -58, -27, 36, -65, -97, 47, -6, 86, -76, -19, -115, -19, -52, 0, 111, 116, -41, 88, 65, 81, -74, 119, 36, -22, -93, -15, 60, -13, 80, 51, -73, -81, 24, 9, 96, -65, 94, -80, -73, 46, 27, -92, -11, 47, -67, 68, -6, 59, 44, 78, 101, -10, -86, -53, 101, 43, -101, -94, -80, -4, 23, 80, -71, 87, 101, -65, -29, 50, -43, 15, 78, -18, 66, 73, -46, -15, -61, -60, 67, 37, 8, -17, 18, -94, 51, -63, -43, 35, -35, -4, -82, -13, 60, -26, 55, -62, -98, 88, -5, 72, 11, 29, 6, -45, 5, -64, 96, 34, -12, -84, 105, 105, -50, 68, 34, 70, -41, 31, 74, 25, 87, 90, -101, -39, -9, -27, 22, -83, -92, 48, 24, -43, 10, 76, -30, -8, 43, 13, -27, 97, 110, 28, -108, -98, -95, -42, -14, 54, -60, -19, 105, 64, -73, -15, -102, -8, -40, -11, -11, -19, -58, -77, 73, 23, -47, -68, -43, 45, 103, 82, 110, -26, 88, -45, 30, -120, -69, 114, -33, 3, 67, -41, -99, -38, -94, 76, -82, -17, 17, -10, 23, 94, 87, -54, 33, 17, 74, 88, 35, -82, -37, -87, -41, -82, -18, 14, -41, 42, 4, -17, 85, 36, -69, 36, -102, 84, -10, -102, -68, 61, -86, 38, -21, -27, -5, 83, -90, -111, -72, -74, -37, -84, 52, 5, 34, -74, -64, -53, -56, 92, 101, -59, -43, -46, 103, 61, 33, 51, 102, 22, -70, 37, 68, 53, -35, 81, -73, 24, 115, 44, -29, 81, -75, 18, -74, 42, 102, 90, -87, -3, 88, -84, 77, -23, 24, -13, 15, -95, 66, -46, -27, 33, -43, 45, 23, -78, -53, 17, -109, -67, 96, 31, 5, 46, 31, 60, -55, -33, 55, 20, 77, 102, 92, -7, 56, 89, -7, 87, 27, 95, -31, -24, 63, 89, 62, 8, 65, -104, -104, -74, 3, -44, -32, -10, 52, 93, 36, -48, 60, 103, 87, 65, 15, -4, -51, 65, -19, -43, -86, 
  103, 55, 52, -71, -33, -2, -43, 57, -77, 93, 118, -104, -12, 18, -2, -92, 109, 65, 5, -66, -87, 76, 26, 69, 57, 14, -73, -99, 41, 5, 82, -35, 54, 95, 16, -19, 18, -76, 106, 68, 47, 97, 13, -85, 10, 86, 81, -31, -68, -15, 83, -14, 40, 67, 61, 17, -61, 47, 84, 28, -17, 57, 45, -21, 35, -36, 15, 18, 79, 16, 93, 43, -96, 84, 65, 7, -9, -101, -32, 19, 96, -99, -61, -2, 79, 15, 49, -105, 58, -62, 2, -90, 108, 105, -102, 6, 67, 68, -64, -110, -96, -74, -70, -35, -40, 70, 71, -55, 8, -47, 24, 72, 96, -74, -99, -11, 12, 77, -53, 31, 21, -123, 1, -92, 66, -51, -107, -10, -44, 47, -62, 28, 56, -106, 12, -104, -94, 59, 7, -1, 43, 87, 65, -75, 83, -10, 12, -28, 41, -35, 42, -92, -58, 46, 46, -24, -106, 87, 29, 92, 87, -37, -38, -50, -15, 19, -66, -94, 78, 80, 22, 2, -110, 91, 70, -33, 76, -82, 0, 25, 83, 93, 59, 2, -40, 85, -29, -36, 3, -41, -66, 73, -6, -49, -72, 42, -47, 24, 56, 95, -85, 109, 12, -63, 0, 79, 14, -91, -87, -9, 80, 41, -40, 34, 88, 86, 102, 14, -110, 5, -15, 27, 97, 26, -88, 58, -1, 8, -8, 6, 107, 34, -36, -79, 86, 92, 116, 14, -90, 80, -44, 111, -53, 5, -28, -45, 26, 65, 33, 92, -40, -23, -7, -109, 88, 6, 0, 91, 62, -8, -31, -10, -11, 99, -35, -34, 20, -1, 65, -87, 26, -102, 58, 57, -17, -13, -13, 40, -85, -95, -36, 66, -41, -52, 81, -61, -100, -40, -28, 16, -79, -12, 69, -23, -72, -1, 48, 25, 0, -16, -11, 6, -4, 36, 12, 22, 39, 30, 19, 60, 4, 16, 39, 25, -33, -88, -94, -67, 101, -88, -9, -25, 104, 30, 17, 86, 102, 40, 2, -67, 24, -66, 117, -22, -24, -45, 14, 12, -39, -43, -55, 21, -23, -77, -16, -8, 43, 54, 83, -16, 12, 93, 107, 65, -81, -107, -47, -6, 63, 66, -92, -82, -85, -42, 47, 101, 75, 56, -88, -14, -112, -87, -39, -4, 43, 70, 61, -65, 28, 10, 14, 10, 7, -30, 39, -4, -82, 102, -57, -72, -37, -37, 65, 73, 62, -86, 43, -84, 8, 46, 26, 41, 2, -61, -34, -64, 37, 36, 19, 39, -51, -85, 28, 4, 0, -11, -6, 5, 36, 0, -15, -32, -22, 48, -95, -47, 81, -98, 85, -1, -16, 101, 35, -66, -20, 88, -71, 45, 58, -4, -45, 42, -59, -11, -31, 31, 39, -87, 15, 8, -10, 11, -70, -82, 87, -54, -70, -91, -32, -88, 22, -5, -76, -38, 3, -68, 1, 37, 104, 46, 83, 69, -57, -74, 62, 72, 3, -63, 69, 58, 27, -58, -71, 59, 85, -7, -3, -106, -43, -63, -7, -10, 1, 70, 33, 89, -107, -86, 52, 107, 109, -29, 61, -89, 35, 36, -54, 37, 52, 3, 9, -87, -76, -72, 33, 96, 47, -22, 83, 74, -18, 102, 102, 80, -41, -92, 59, 84, -41, 49, 17, 21, 31, 91, 4, 39, -76, -43, -62, -87, -36, -46, 18, 14, 33, -19, -41, -7, 27, 51, -62, -73, -68, 29, -64, 4, -9, -17, 108, -101, 57, -95, 13, -110, 112, 25, 60, -6, 52, 58, -33, 48, 21, 30, 101, 28, 52, 65, 69, 11, 67, -78, 56, 56, 41, 65, -18, -37, 28, -27, -6, -27, 54, 44, -52, 63, -44, -58, -24, 75, -19, -86, -13, 90, -18, -66, -93, 62, 23, -32, -18, -12, -37, 38, -46, 29, -55, 67, -3, 35, 3, -73, 32, -104, 22, -63, -18, 65, -15, -112, -11, -1, -22, 64, -99, 15, -4, 75, 80, 26, 37, 93, -92, -23, -73, -30, -93, 7, -22, 5, -81, -73, -101, 41, 56, 72, 79, -92, -89, -104, 60, -54, 89, -41, -26, -34, 51, -64, 83, -66, 66, 81, -81, 36, 14, 83, -88, 43, -39, 10, 11, 26, -19, -74, 18, -79, 52, -55, -10, 6, -91, -37, -29, 93, 37, 44, -39, 17, 29, 53, -18, 89, 14, -26, 31, -44, -25, 66, -40, -12, 110, -36, 72, 99, -101, 89, -41, -78, -77, -104, 48, -93, -58, -95, -53, -2, -5, -73, 89, 110, -94, 113, 83, 43, -28, -73, -47, 10, 31, 15, -43, 39, -61, 54, -39, 50, -80, -59, 32, 8, -78, -102, 7, -65, 57, -18, 111, -79, 27, 10, 78, -5, 57, -105, -76, -96, -81, 104, -87, -11, 62, 99, -23, -16, -60, 8, -100, -100, 79, 22, 46, -82, -2, -49, 48, -99, -63, 55, 117, -99, -17, -25, -38, 45, 93, -76, -55, 94, 40, 79, 46, 63, 35, -77, 20, -54, -47, -82, 13, 49, 83, -22, -17, -60, 107, 43, -19, 60, 91, 94, 50, 31, -85, -112, -54, 66, -8, -60, 75, -37, 9, -23, -64, -17, 59, -84, -65, -47, -75, 81, -5, 19, 17, 59, 104, -69, -37, 2, -110, 14, 74, -17, 63, -115, -81, -99, 120, 20, -115, -95, -40, 84, 35, 109, 24, 0, -21, 61, 37, -27, 14, 55, 58, 119, -53, 31, 27, -77, 96, 5, -71, 36, -84, -64, -89, 11, -76, -59, 22, -58, 50, -28, -2, 71, 68, 24, 92, 97, 97, 23, 48, -10, 2, 93, 8, 55, 67, 101, 35, 34, -97, 1, 52, 28, -11, 58, -89, 54, 50, -88, 7, 47, 16, 20, 65, -80, -35, 1, 14, -22, -27, 69, -87, 62, -26, 46, -51, -69, 70, -59, 67, 25, 72, -68, -26, 30, 19, 118, -22, -44, -7, 21, -44, -95, -71, 14, -86, 0, 72, -57, -25, 45, 60, 91, -24, -8, -35, 55, 88, -32, -86, -35, 38, -69, -61, -58, -2, 106, -37, 84, -59, 17, 83, -61, -92, 114, 42, 39, 61, -13, -73, 76, 69, -102, 39, 91, -5, 109, -12, -114, 68, 69, 6, 48, 52, -36, -94, 43, -19, -54, 76, 73, -11, -102, 37, 7, 49, -15, 11, 11, -109, 94, -14, -56, 19, 81, -1, 82, 39, -34, -9, 19, 22, 26, 67, -19, -28, 73, -83, -44, 109, 106, 37, 101, 33, 61, -26, -77, -15, 54, -119, -36, -34, 80, 92, -115, -84, 5, -57, 39, 15, 60, 66, -59, -5, -27, 92, -43, -15, -28, -23, 0, 16, 31, 96, -63, -65, -6, 28, -100, -115, -24, 59, -64, 102, 92, 24, -68, 26, 82, -91, -41, 11, 81, 26, -9, -32, -15, -62, -29, 51, 26, -74, -76, 28, 14, -102, -7, -36, -51, -89, 67, 61, 21, -8, 1, -23, 42, -80, 50, 65, -31, -42, -25, 46, 102, 77, -110, 22, -91, 25, -47, 68, -45, -103, 60, -83, 51, -29, -50, -97, 75, 75, 98, 71, -83, 7, 119, 54, -17, 55, 96, -91, -4, 86, -32, -60, -66, -48, 5, -28, -79, 19, 92, 36, 66, 59, -78, 103, 36, 95, 67, -63, -71, -7, -44, 83, -63, -103, 46, -15, -19, 76, 65, -35, 83, -80, -31, -88, -14, 101, -82, 5, 2, 17, -110, -40, 70, 52, 32, 107, 43, -46, 62, -84, 96, 21, -87, 18, -78, 21, -72, 68, 18, 96, 54, 75, -20, 47, 68, 100, 62, -41, 48, -92, 73, -37, -37, 3, -4, -3, -71, -12, 88, 27, -104, -71, 7, 13, -80, -80, 11, 20, -71, 22, -33, -62, 35, -81, 35, -117, 25, -70, -81, -109, -59, 77, 108, 103, 37, -2, 98, 21, 80, 47, 23, -31, 97, 44, 62, -75, -6, 58, -81, 68, 51, 0, -66, 89, -88, 
  7, -70, 30, -38, -35, -98, -84, -67, 58, -72, 19, -105, -71, -66, -23, -82, 2, 66, 29, 101, 35, 70, 90, 36, 8, 103, -44, 51, -76, -35, -60, -104, -66, -73, 81, 34, -52, 20, 11, -47, 23, 82, -27, -72, 69, -54, 94, -29, -105, 47, 83, -22, 36, 67, 64, 48, -65, 96, 13, 53, -81, -1, 101, -61, 80, -1, -29, 13, 38, 45, -7, 22, 100, -52, -2, -81, -17, 51, 59, -14, 68, -71, 88, -94, -103, 93, -110, 0, -9, 15, -21, -28, -16, 35, 97, 65, 24, -73, -76, -42, -61, -25, -6, 18, -57, 60, -7, 54, -28, 58, -100, -61, 48, -3, 100, 66, -89, 23, 89, 1, 96, 77, 34, -9, 38, 38, 102, 82, -33, -93, -36, 83, -13, -41, 94, -85, -81, -87, 52, 44, 25, -56, -6, -28, 68, -30, 62, 32, 3, 81, 20, 96, -46, 61, 97, -67, 74, -98, 66, -69, 27, -65, 71, -89, -100, -51, -72, -99, 18, 5, 33, 53, 70, -7, -37, -94, 38, 20, -34, -101, -80, 6, 86, -74, -66, -16, -94, 26, -46, -81, 51, 34, -79, -98, -76, -34, -81, -5, 13, -78, -6, -33, -2, 25, -19, -14, -108, -42, -45, -2, 33, 50, 18, -103, -66, 8, -9, 96, -100, -41, -18, -35, 82, 5, 78, -46, 14, 12, 75, 28, -79, 105, 27, 99, -39, 66, -58, -12, -69, 65, 14, -78, 19, 47, 74, -74, -16, -40, -108, -88, 93, 29, -54, -105, -78, -3, 13, 88, -51, 23, -88, -85, -10, -7, -59, -4, 70, -92, -96, 85, -16, -61, -79, -65, -28, -42, -91, 84, -21, 101, -27, 102, 36, 2, -84, 36, 4, 52, -98, 6, -57, -83, 15, -85, 40, 101, -16, 80, -5, 15, 92, 62, 93, -37, -57, 29, -84, 94, -21, -60, 19, -97, 87, 58, 78, -94, 37, 47, -78, 84, 25, -92, 6, 87, -24, 50, 17, -91, -62, 49, 87, 37, -67, -45, -88, 3, 13, -37, 84, -45, 28, 55, 34, 74, -103, 66, -82, -106, 19, 5, 86, -5, 100, -27, 11, 88, 67, 29, -28, 36, -82, 85, -54, 95, -99, 21, 26, 88, -107, 93, 74, 18, -92, -74, -88, -9, -93, 39, -64, 3, -7, 3, -75, 100, -9, -62, -15, -82, 54, -56, 23, -7, -95, -2, 10, 99, 16, 45, 10, 74, 58, -73, -25, 50, 23, -51, 53, 1, 13, -8, 47, 87, -35, 26, -109, 91, 97, -96, 71, -59, 21, 85, 85, 97, -101, 37, -60, -43, -54, -97, 14, -60, 29, -88, -8, -20, -29, 49, 20, -33, 51, -57, -38, -104, -50, 15, -35, 57, -1, 70, 40, 16, 73, 39, 57, 71, -98, -75, 31, -51, 5, 5, 47, 9, -19, 63, 33, 50, 40, -17, 105, -67, -91, 65, 1, -34, -81, 16, -28, 8, -79, 21, 71, 24, -51, -85, 36, -86, -17, 66, 28, -23, 59, -63, 5, 23, 86, 15, 91, -46, 79, 21, -29, -69, -85, -74, -82, 84, 48, 5, -29, 36, 72, -8, 4, 7, -31, 87, 35, -28, 88, -20, 50, 28, 55, -57, -99, -64, -37, 18, 98, -78, -53, 34, 27, -12, -11, 39, 91, 69, -69, -47, -51, -7, 70, -67, -69, -12, 36, 23, 19, 97, 13, -67, -97, -45, -81, -32, 4, -49, 78, 14, -55, 13, -96, -90, 65, -29, 22, 17, -57, -62, 47, -105, -93, 56, 100, 36, 58, -34, 46, -103, -72, 108, 57, 80, 68, -38, -28, 38, 94, -43, 41, -44, 89, -69, 10, -41, 11, -6, 47, -62, -57, 36, 22, -59, 98, 74, 76, -72, -92, -63, -14, 96, 63, -96, 46, -38, -79, -39, -46, -15, -39, -70, -104, -78, 43, 103, -93, 101, 18, -20, -15, -55, 8, 56, 79, 96, 63, -21, -27, -96, 16, 99, 69, 55, -69, -69, 72, -76, -43, 103, -26, -62, -32, -42, 49, -85, 41, -27, -9, 64, -74, -81, 63, 58, -68, 40, -59, -22, -46, 76, -91, -75, -57, -25, -11, 8, 6, -97, 66, 102, -49, -83, -95, 62, -38, 66, -22, -4, -31, 95, -15, 1, 91, -57, 78, -5, 3, 4, -59, -52, -20, 54, -67, 110, -23, 3, 77, 23, -93, -8, -69, -62, 4, -10, 1, -80, 91, -43, -83, 3, -24, 10, -103, -93, 79, -89, -42, 72, 29, -94, -7, 80, 60, -74, -52, -75, 74, -62, -94, -72, 74, -104, -38, -2, -91, -90, 52, 102, -94, -48, -98, 42, 9, 48, 93, 50, 64, 58, 11, -70, -62, -59, -41, 5, 100, 33, -10, -67, 50, -43, -56, -25, 31, 61, -31, 94, 22, -65, -64, -65, -81, 81, -95, 29, 29, 48, -36, -37, -88, -109, 56, 23, -37, -37, -53, -88, -65, -60, -104, 54, -31, 73, -50, -101, 34, -95, -1, -65, -39, -13, 90, -12, 84, 104, 68, -85, -55, -81, 7, 35, 59, -58, -4, 70, 64, 37, -45, -11, 4, 90, 46, 35, -17, -41, 31, -36, -49, 31, -72, 17, -5, -98, -6, 110, -106, 76, -69, 91, 44, -65, -2, -30, -97, 16, -98, 43, 20, 67, -11, 86, 2, -84, -28, 98, -89, -46, -99, 39, 88, -77, -16, 32, -10, 53, 59, 61, -9, 26, -56, 84, 21, -30, 42, -41, 57, 87, -109, -67, 27, 92, -93, 58, -69, -96, 38, 0, 67, 57, -12, -31, -47, 39, -85, -107, -92, 56, -92, 44, -20, 41, 59, -7, 9, 49, -47, -54, -13, -28, 69, 6, -17, -28, -47, 22, 60, -74, 20, 53, 23, 65, 58, -85, 79, -68, 73, -74, 45, 94, 54, 65, 14, 52, 90, -35, 24, 108, 66, 100, 56, 17, 77, 21, -98, 74, 25, -38, -43, 57, -91, 5, 30, -64, 65, 37, -93, 78, -23, 33, -57, 23, 63, -86, 89, 51, -30, -30, -80, 60, 64, -24, 105, 12, 49, 60, -19, 51, 39, -6, 73, 57, -50, -42, -12, 64, -101, -38, -84, -51, 50, 2, 3, -10, -73, 91, -98, 12, 72, 95, -97, -72, -65, 82, 46, -50, -52, 37, -22, -5, 33, -73, -80, -56, 36, -62, -75, -53, -4, 89, 84, 83, -69, 64, -29, 97, -7, 91, -74, -63, -59, -92, 21, 63, -9, 88, 7, 35, -39, 30, -103, 67, -47, -5, 1, 74, 64, 19, 6, 59, -64, -67, -106, -83, 20, -37, 60, 105, -51, -39, -23, 80, 22, 98, 6, -18, 99, -58, 2, -6, 64, -67, -19, 66, -80, 24, -5, 98, -91, -37, -52, 60, -55, -77, -80, -58, -21, -32, -32, 97, -87, 0, -43, -51, 60, -12, 62, 10, -107, -82, 86, -11, 48, -24, 35, -85, 39, 53, -95, -68, -95, 3, 96, 42, -32, -18, 39, 2, -39, 19, -78, -4, 28, 90, 84, 101, -28, 49, -92, -74, -75, 33, -55, -72, -32, -67, 14, 66, 17, 60, 69, 95, 80, -43, -28, 18, -6, -49, 68, 44, -25, 84, 80, 55, -10, 85, -25, -87, 9, 73, 69, -53, -82, 95, -8, 91, 43, 92, -85, 10, -18, 76, -3, 31, -47, 100, -93, -61, 12, 8, -93, -105, -84, -110, -63, 29, 73, -76, -82, 8, -10, -88, 7, -95, -39, -55, -34, -16, -1, -81, 68, 35, -44, 98, 81, -43, 17, -14, 103, 10, -81, 72, -95, 101, 76, 42, 7, -45, 0, -38, -41, 10, -74, -96, 52, -22, -7, 37, 102, -42, -73, 97, -109, -90, -78, 83, -88, 94, -58, -80, -89, 60, 108, -59, -74, 92, 100, 27, -93, -41, 16, -9, 29, 91, 98, -89, 42, -28, -101, -22, 48, -21, -26, -82, 98, -108, -31, 84, -50, 32, 
  1, -62, 22, -60, 110, -65, 38, 0, 84, 75, -106, -61, -33, -93, -99, 35, 38, 28, 60, -102, -5, -36, 61, 8, -23, 50, -63, 10, -96, -92, -35, 0, 12, -54, 14, 53, -101, 13, -64, -122, -9, 66, 111, 87, -93, 7, -89, -57, 84, 12, 3, -49, -11, -99, 8, 20, -19, 86, -70, -81, -79, 51, 81, 99, 59, 85, -5, -113, 14, 38, -15, 61, -54, 82, -4, -67, -31, -11, -26, -24, 33, -73, -55, 97, 40, -110, -88, 3, 89, 87, 16, 49, -102, 58, 55, 49, 44, -106, 3, 64, -67, -45, -32, -4, 80, 54, -52, -4, -52, -61, 86, 15, 89, -32, -65, 29, -14, -95, -2, 61, -83, 108, 107, 48, 91, 37, -67, 43, -66, 0, -9, 66, 91, -26, 26, -9, -46, -92, 88, 4, 111, -25, -65, -89, -8, 36, 87, -98, -96, 75, -68, 0, -79, 55, -113, 86, -22, 10, 102, 16, 28, 62, 42, 37, 78, -45, 39, 62, -35, -88, -74, -22, 23, -92, -24, -91, 83, -5, 22, -34, -13, 93, 101, 17, 114, -91, -13, 4, 66, -5, -25, -80, 70, 5, -70, 104, -34, 19, 75, -103, -51, 101, 103, 60, -82, 41, -96, 52, -89, 52, 53, -27, 70, 72, -87, -86, 29, 71, 62, 16, 49, -57, 92, 68, -27, -77, -4, 14, -62, 69, 41, 33, -86, -86, -70, -42, 59, -69, -11, -45, 67, -45, 10, 43, -35, -84, 104, -101, 55, -93, -8, 86, 26, 47, 91, 49, 40, 104, 54, 72, -39, 27, 0, -37, 41, 25, 88, -80, 76, 93, -107, -109, 80, 40, 52, -96, 34, -24, 21, 36, -62, -55, -27, 71, -36, 51, 76, 95, 38, -68, -54, -6, -45, 33, -56, -86, 65, 67, -71, 47, 60, 51, -10, -70, -48, 8, -38, -72, -4, 40, 46, -7, 66, -58, -88, -48, -2, 10, 78, -95, -79, 56, 60, -5, -77, -81, -4, -39, 25, -57, -85, 27, 50, 54, 38, -43, 14, 4, -85, -6, -77, -26, 50, 4, 62, -89, -56, -53, 103, -24, 54, -25, -96, 46, -51, 73, 31, -70, 48, 10, -55, 76, -12, -51, 28, -45, 90, 29, -95, -27, 50, -65, -66, -40, 36, 91, -81, -42, 99, -68, 24, 34, 44, 76, -35, -81, -37, 95, 108, 20, -14, -68, 100, 33, 95, -50, -55, -83, 57, 90, 7, 89, -58, 9, -25, 6, -45, -18, -1, -104, 22, 43, -52, 36, -2, -95, 87, -23, -25, -80, 110, -68, -86, -97, 51, -2, 46, -53, -41, 26, 21, 61, 77, 72, -85, -81, 14, 26, -39, 46, -15, 72, -76, -47, -49, 84, 47, 4, -59, -85, -98, 3, 114, 34, -10, 31, -60, -58, -100, -24, 19, 9, 77, 37, 24, -68, -86, 39, -95, -98, -55, 41, 54, 88, -95, -88, 84, 34, -67, 111, -28, 92, -6, -19, 50, -52, 33, -78, 68, 30, -107, -3, -66, 28, -45, 111, -90, 34, 86, -77, -71, 60, -36, -87, 52, 79, -23, 44, 68, -100, -8, -67, 35, -27, 73, -79, -77, -19, -5, 65, -79, -21, -31, 87, -103, -72, 4, 73, 33, 41, -94, 79, 20, 50, 121, -81, 19, 53, 93, 58, 89, -6, -82, -87, -42, -70, -82, -107, 1, 40, 11, 68, 91, -64, -24, 4, -63, -95, -9, 42, 51, -39, 43, 121, -22, -54, -75, -32, 80, -86, -91, 35, 14, 45, 116, -33, -96, 15, 37, 16, 1, -83, 0, -36, 26, 13, 68, -105, 10, -30, 59, -8, 35, 10, -103, -17, 87, -68, 60, 16, 83, 9, -74, -71, 37, -50, -67, -84, 95, 23, 106, -5, -53, 31, -103, 53, 65, -2, 80, 66, 30, -12, 20, -63, 101, 57, -63, 75, 53, 24, -26, -59, -23, 74, -75, -45, 5, -72, 65, 76, -79, 61, 70, -4, -35, 92, -21, 47, 30, -3, 103, -123, -34, -8, 10, -48, 57, 69, 65, 18, -13, 83, -96, -38, 50, 35, 87, 44, 17, -53, 4, -77, -83, 37, -36, 101, -95, -106, 58, -95, -38, 81, 31, -115, -89, 92, 99, -15, 92, 23, -9, 99, 48, 115, 42, -23, -118, -71, 46, -40, -100, 76, 8, -9, 44, -67, 49, 86, 67, -47, 59, -27, -84, -36, 106, 54, -78, -73, -5, 70, 33, -45, 92, -19, 17, 93, -18, -33, 17, -109, 36, 45, -15, -56, -27, 33, 77, -98, -28, 97, -37, -27, -83, 115, 35, 17, 75, -33, 70, 84, -21, -21, 84, 80, -31, -43, 7, 115, 32, 52, 26, 20, 74, 90, -92, -33, -50, -90, 4, -63, 19, 45, -67, 92, 26, 8, 24, 14, -53, -99, -73, -97, 0, 55, 41, 7, 41, 108, 49, -48, 35, 85, -5, 60, -86, 74, -68, -29, 0, 39, 16, 52, 28, -53, 88, 89, 38, 70, -17, 109, -28, 33, 41, -14, -52, 34, 40, 81, 43, -5, 42, 114, -89, -25, -54, -17, 2, 81, -60, 48, 36, 32, -57, 90, -80, 34, 26, 94, 90, -13, 25, -106, 47, -4, -5, 81, -3, -47, -51, 78, 69, 67, 63, 1, -45, -21, -48, 19, 101, 68, 0, -50, 55, -110, -87, -64, -87, 71, 80, 73, -64, -101, 58, -107, 24, -83, 81, 76, 2, 43, -90, -32, 12, 18, 43, 22, -87, 6, -30, 37, 41, -92, 42, -47, -61, 14, 51, 87, -54, 68, 65, 109, -87, -37, 20, 79, -7, 58, -93, 84, 10, 66, -34, 69, -20, 99, 42, 17, -6, -93, 70, -64, -72, -92, 8, 29, -19, 75, 82, -111, -83, 115, 84, 12, 27, 91, 88, 54, 40, -68, -11, -16, -103, 45, 97, 99, 10, -92, -25, 98, 77, -18, -78, -84, 37, -13, -17, 118, 88, -86, -57, -28, 4, -57, -79, 54, -113, -27, -75, 115, -72, 6, 14, -19, -67, -43, -101, 81, -13, 15, -4, -51, 108, -81, -13, 34, -27, 101, -25, 50, 79, 99, 16, 32, 72, -69, -14, 28, 20, 72, -28, -22, -88, 15, -10, 40, 36, 9, 16, 67, 37, 20, -34, -94, -92, -30, 47, 81, 72, 23, 83, -80, -47, 26, -80, 35, 82, -26, -126, 58, 18, 26, 38, 106, -49, 107, -30, 1, 47, -29, -16, 32, 72, 43, 53, 79, -89, -69, -93, 32, -18, -63, 25, 63, 87, -27, 9, 5, 10, 97, -78, 1, -19, -88, 99, -36, -20, 44, -37, -71, 63, 96, -93, -2, 101, 20, 7, -38, 63, 61, 23, 15, 41, 60, 42, 78, 65, -57, -38, 104, 42, 44, 80, 8, -24, -84, -13, 2, 14, -5, -98, 74, -51, -59, 12, 101, 120, -117, -40, -19, -84, 88, -6, -100, -90, -40, -27, -30, 8, 40, -5, 60, 8, 8, -97, 102, 29, 45, 87, -31, 60, 38, 82, -71, 7, -73, -5, 66, 69, 30, -109, 80, -73, 6, 43, 22, 114, -107, -93, 3, 34, -91, -99, -29, 75, 96, 82, -13, 22, -41, 46, 35, -35, -11, -71, -23, -58, 83, -59, -114, -82, -24, 13, 107, 67, 69, -23, -70, 54, -75, -34, 82, 100, -22, 66, -107, -89, -13, 96, -42, 23, 55, 28, 72, -87, -69, 62, 77, 29, 98, 90, -35, 57, 24, -3, -63, -62, 84, -58, -1, 104, 44, -74, -63, -73, 65, 22, 41, -53, 65, 71, -52, 3, -4, 63, 19, 98, 56, 68, -22, -16, 64, -85, -80, -93, -94, -45, 115, -27, 51, -57, -54, 92, -3, 53, -53, 86, 49, 15, 22, 100, 9, -11, 32, 93, 114, 64, 21, -35, -33, -87, -27, -82, -83, 29, 46, -27, -86, 117, -8, 24, -37, -28, -81, 33, 68, 31, -32, 57, 92, 
  -52, 47, 80, -94, 81, -10, -49, 1, -25, -73, 109, 6, 79, 7, 24, -24, 37, -77, 41, -98, 33, 110, -55, 78, 75, -80, 69, -48, -24, 0, 26, -28, -26, 94, 78, 45, -74, -67, -61, -75, -9, -1, 20, 56, 50, 80, -72, 3, 29, 49, 50, 73, -104, -1, -92, 54, -36, 5, 60, -10, -85, -95, -72, 17, 89, -29, 98, -67, 122, -85, 53, -75, -37, -42, -11, 90, -45, -49, 15, 105, -49, -83, 95, 90, -96, 58, -47, 30, -73, -56, -43, 81, 9, -34, -72, 81, 13, -18, -6, 47, 31, -17, -9, 107, 35, 18, 30, -49, -60, 10, -22, -78, -107, 74, -36, 63, 36, 43, -55, 13, -8, -12, 64, -90, 110, 71, 45, -22, 113, 119, -51, -14, -89, -57, -28, 49, 30, -61, -28, 80, -96, 97, -46, 81, 84, 87, 47, -79, -57, -79, 92, 18, 5, 41, 59, -100, 47, -86, 10, 0, 65, -27, -19, 64, 30, 89, 102, -51, -76, 95, 67, -15, 91, -58, -5, 23, 37, -67, 10, 123, -11, 12, -57, 37, -46, -32, -43, 123, -48, 42, -56, 74, 0, -97, 20, -103, -56, 41, -2, -13, -68, -42, -103, 50, -79, -94, -38, -106, -83, 97, -20, 113, -87, 35, 90, 35, 74, -67, 81, 4, 103, 47, -79, 3, 109, 30, -88, 67, -19, 31, 9, 31, -31, -9, -24, 36, 62, 88, -47, 26, 27, 83, -83, -52, 17, -40, 89, -19, -32, -90, -24, -57, -69, -78, 17, -2, 18, 81, -83, -89, -77, -112, -6, 109, 108, -24, 26, -90, 47, 20, 95, 115, 99, -23, 6, 79, -12, 36, 74, 48, 7, 91, -81, -20, 41, 79, -108, -86, 88, -91, -35, -7, -41, 12, -11, -13, -27, -33, -25, -12, -97, 18, -66, -106, 48, -73, 43, 45, 88, 25, 73, -65, 37, -71, 42, 67, 34, 87, -4, -33, 72, -3, 116, 96, -94, -97, -25, 3, -51, -43, 99, 90, 58, -7, 72, -115, 87, 67, -35, -39, 66, 76, 97, 32, 104, -92, -102, 42, -98, 17, -83, 89, 58, 112, 8, 109, 5, 61, -88, 77, -18, -37, 45, -74, -77, -7, 88, 89, 75, -7, 91, 25, -111, -59, -68, -77, 85, 29, -3, 8, -7, -83, 71, -35, -48, 71, -70, 35, 1, -116, 29, 65, 39, -31, -58, -29, 95, -67, -36, -27, -90, -24, 0, 90, -78, 1, 36, 107, 2, 70, -3, 65, -72, -81, 17, 104, 9, 81, -92, 5, -9, -50, -34, 83, 97, 98, -39, 4, -95, 95, -16, -80, -13, 66, -38, 108, 18, -38, 84, -78, 114, 58, 67, 19, 108, -72, 56, 82, 2, -76, 23, -84, 59, 56, -38, -1, 2, -49, -74, 10, 40, 71, -95, -22, 54, -5, -39, 119, -103, 56, -5, -53, 82, 20, 41, -96, -2, 20, 68, -82, -48, 6, 1, 88, -85, 97, 58, 32, -47, 37, 80, 81, 29, 27, 71, 80, 65, 23, -90, 93, 72, 83, -78, -79, -61, -30, 0, 43, 44, 80, -33, 78, -29, 88, -83, -119, 37, -115, 31, 90, -15, -75, 63, 15, -82, 78, -93, 7, 27, -52, 70, -95, 22, 0, -102, 64, 3, 63, 74, -8, 13, 59, -53, -46, -73, -58, 102, 46, 53, 110, -43, -101, -71, 23, -50, 35, -77, -24, 8, 48, 69, -62, -30, -96, 6, 46, -70, 49, 86, -45, 9, 55, 75, -43, 41, -23, 40, -1, 21, 84, 53, 70, 94, -2, 48, 75, 96, 46, -90, -99, -1, -41, -61, 95, 16, 36, 16, -80, 36, -45, -89, 18, 29, -74, -27, -38, 34, -8, -110, 0, -85, 61, -54, 91, 72, -88, 9, -50, 80, 93, 43, -37, 41, 75, 22, 37, 91, 86, -12, 113, 3, -29, 43, -55, -58, 71, 34, -8, 103, -30, 106, 81, -86, -54, -82, -118, 30, -94, 34, 14, -79, -99, -72, -63, 20, 39, -63, -31, 42, -108, 37, -47, -57, -69, -95, -27, 5, 22, 12, -22, -10, 18, -104, 27, -27, 19, 15, 111, 28, -28, -86, -99, 73, -57, 30, 20, 96, -29, 43, 87, -53, -94, 111, 87, -19, 2, -81, -25, 107, 97, 29, 0, -72, 62, 40, 75, 76, -13, -64, 50, -78, -70, 48, -8, -58, -54, 12, 83, -5, 62, -72, 87, 100, 95, 86, 72, 84, 15, 32, -13, 57, 15, -97, -16, 23, 45, 47, -92, -3, 26, 13, 28, -78, -28, -60, 65, -83, 66, 26, 73, -4, 13, 16, 68, -56, -64, -1, 90, -43, 42, 36, 32, 52, -43, 83, -97, -77, 37, -93, 99, -35, -92, 78, -95, 33, 97, 4, 44, 36, 110, 57, -106, 1, -74, 96, -24, -83, 25, -94, -108, 94, 116, 34, -6, 4, -24, -2, -27, 48, 71, 25, 97, -49, -42, 65, 38, -21, 40, 8, 87, 35, 109, 80, -19, -85, 67, 78, 26, 36, -87, 81, 30, -19, 66, -70, 104, 24, 36, -23, 81, -40, 8, 72, -33, 3, -15, -7, 37, -47, -39, -38, -68, -81, -66, -108, 81, 89, 15, -26, -49, 63, 101, -51, -37, 65, 98, -2, -31, -8, -18, 20, 72, 94, 10, 67, -48, -96, 54, -50, 61, -98, 10, -28, 88, -98, 36, -103, -47, -2, -28, 98, 33, 75, -104, -55, -92, 47, -34, -94, -42, 67, -25, 7, 71, -28, -54, -32, -12, 36, -8, 6, -32, -63, 51, 109, 75, 69, -74, 22, -34, 63, -46, -58, -31, 86, 69, 62, 23, 51, 76, 45, -74, -100, -109, 72, -61, 41, 13, 61, 40, -92, 34, 34, -86, 116, 72, 126, 27, 102, -3, -27, 12, 78, 61, 56, 7, -47, 111, 37, -9, -76, 72, 96, -60, 76, -17, -34, -35, 79, 91, -70, 57, -54, 18, -107, -34, 80, 18, 26, -28, -106, 107, -96, -48, 84, 17, 73, 31, 68, 114, 63, -62, -68, 30, -36, 97, -67, -2, 72, -92, -33, 79, 38, 27, -88, -9, 11, 40, -3, -12, -32, -85, 39, -67, 85, -3, 58, -57, -27, 98, 39, 94, -117, -88, 66, 27, -79, -56, 51, -60, -3, 112, 24, -96, 43, 47, -110, 82, 41, 12, 104, 9, -79, -16, -79, 97, 11, 109, 30, -31, -83, -82, 39, -84, -47, 68, 2, -111, -73, -84, -31, 57, -14, -79, 0, -24, -58, 8, -83, 60, -89, -25, -61, -63, 5, -49, 53, -58, -48, -47, 44, -19, 70, -95, -40, 42, -87, -63, 36, -77, 74, -21, 44, -93, -83, 20, -98, 30, -113, 109, -63, 102, -92, -87, 14, -66, -23, 22, -46, 54, 106, 15, 45, 10, -33, 68, -25, 29, 88, -74, 12, -78, -82, -22, 105, 21, 8, 101, 34, 82, 102, 80, 63, 35, -65, -10, -72, -83, -67, -55, -77, -85, -19, 91, 41, -98, 23, 38, -111, -20, 99, 31, 16, -10, -37, 101, 78, 32, -34, 47, 55, -25, -76, -57, 34, -94, 23, 12, -106, 10, 28, -66, -72, 97, 13, -60, -61, -49, -68, 116, -50, -5, 55, 28, 80, 90, 66, 31, -38, 104, -1, -121, 65, -83, 88, 12, 45, -3, 69, -79, 69, 96, 87, -27, 109, 21, -9, 31, -34, 50, 74, 74, 35, -4, 63, 51, 71, -110, -38, 56, -96, 8, 102, 56, 100, 27, -55, 78, -37, 39, -15, -58, -7, -97, -11, -60, 91, -91, 45, 75, -78, -77, -87, 66, -82, 31, -63, 12, 38, -1, 34, -28, -75, -104, 45, -4, 42, -32, -100, 91, 89, 10, -6, 5, -47, -12, 74, -30, 11, -90, -12, -104, -15, 101, -61, 10, -66, 3, -75, 29, 65, 94, 72, -47, -60, 81, -85, 102, -27, 80, 
  95, 12, 11, 5, -13, -58, 92, -93, 105, -104, 36, -65, 43, -60, 27, -13, 95, 40, 78, 86, -74, 31, 100, -98, -7, -22, -80, 48, 25, 75, -59, -24, -55, 61, -92, -17, 52, 53, 31, -76, 23, -81, 67, 12, 17, -28, -99, -23, -95, -91, -86, 43, -23, -94, 58, -1, 66, 60, -7, 27, 23, -31, -18, -6, -83, 57, -65, 59, 46, -79, 41, -79, -57, -78, 67, -60, -27, -102, -58, 77, -24, -82, 89, 13, -72, 27, 4, 17, -37, 86, -53, 24, -81, 59, -80, 94, 69, 78, 89, 62, 95, 55, 40, -65, -88, -82, -82, -74, 15, -8, 23, -28, -65, 93, -55, -20, -30, -103, -80, -68, -72, -49, 74, -57, 75, -33, 8, 46, 21, 37, 77, -44, -51, -98, 26, 96, 78, 42, 47, 7, -75, -102, -65, 5, 36, 57, 93, -45, -90, -10, 46, -76, -60, 40, 30, -56, -45, 76, 79, 93, -100, 74, -23, -22, -69, 101, -40, -52, 41, -64, -76, -76, 12, -32, -23, 30, -89, -45, -7, -2, 5, -29, -95, -47, -77, 52, -30, 18, -68, 80, -35, 52, -66, -90, -4, -3, 40, 75, -68, -77, -33, -85, 95, 88, -45, -45, 4, -10, -64, -53, 72, 19, 93, 104, 86, -47, 32, -52, -1, -77, 70, 81, 42, -93, 37, 38, 8, 64, -106, 63, 49, 32, -92, 88, -68, 27, 2, 79, -3, -61, 67, 81, 90, -11, -54, -63, 97, -100, -99, -80, 92, 81, -40, 3, -64, -70, -73, 67, -18, 9, 31, -58, -4, -92, 1, -110, -105, -94, -90, -97, -38, 53, -54, -87, 16, 51, 93, 21, 11, 86, -1, -14, -101, -71, 36, 28, -59, -39, -57, 35, 20, -24, -75, -53, 95, 38, 44, -70, -102, -60, 37, 11, -40, 70, 37, -20, 10, -54, -73, 14, -18, -45, 2, -99, -85, 5, -97, -63, 100, 77, 14, -82, 69, 11, -31, 22, 36, 37, 46, -84, -29, 65, 46, 85, -97, -70, 49, 84, 65, 68, 97, -63, 14, 64, -73, 82, 85, 42, 6, -4, 79, 75, -28, 49, -84, 4, 48, -86, 18, -73, 95, -1, -16, 17, -42, -58, 93, -54, 61, -57, 67, 21, -102, -22, -11, -23, 43, -78, -20, -91, 101, 26, 64, 74, 74, 31, 84, -72, -14, 47, 75, 8, 42, -84, -26, 84, -65, -98, 78, -8, 54, 53, -92, 67, -104, -60, 7, -65, 77, -36, 43, 78, 23, 94, -81, 10, -26, -63, 65, 63, 93, -17, -90, -33, -105, -106, 70, -30, 77, 39, 96, -79, 65, -54, 79, 56, 16, 44, 95, 40, 28, 91, -65, 102, 86, -68, 27, -87, 2, -41, 19, 1, 10, 83, 0, -14, 100, -58, -92, 78, -52, -78, 29, -89, -54, 94, -13, -18, -27, -37, -64, 39, 76, -56, -86, -24, 66, -82, -52, 90, -13, -22, 27, 22, 3, 21, -51, -54, 31, 0, -11, 54, -61, -50, 57, -64, -71, 71, -66, -68, -44, -48, 50, -76, -47, 40, 40, -54, 102, -34, 42, 85, 103, -29, 72, -60, -52, -103, -59, 23, 64, 62, 53, -16, 24, -25, 94, 62, 12, -86, 31, -91, -41, 33, 91, 58, -53, -93, -76, -95, -31, 20, -99, 91, -55, -33, 84, -32, -15, -18, 28, 93, -75, 37, -25, -101, 41, 103, -63, 47, 19, -64, -50, 60, 77, 87, 18, -88, 77, 32, 5, -81, -3, -46, 70, 76, -60, -24, -14, -109, 6, 57, 33, 95, 78, -70, -96, 62, 105, 73, -99, -79, 80, -74, -20, 19, 40, -63, 64, 65, -9, 61, -23, -55, 14, -20, -64, -3, -40, -21, -58, 50, 38, -106, 35, -61, 16, 64, 60, 14, 39, 10, -23, -21, 92, 63, 11, -82, 65, -75, -22, -34, 93, 27, 95, -78, -105, -20, -12, 80, 49, 62, 50, 5, -26, -59, 45, -94, -20, 84, 35, 72, -107, 16, -109, -24, 33, -13, -63, 65, -74, -102, -86, 99, 75, 74, -24, -29, -66, -49, -96, 99, 16, -35, -83, -22, 37, -6, 17, -104, -78, 100, 17, 40, 40, -73, 21, -23, -62, 17, -90, -30, 10, 33, -15, 32, -18, -55, -85, -106, 21, 84, 0, 38, -39, 72, -46, -95, 37, -50, -70, -68, 54, 103, 63, 98, 57, 44, -109, 15, -82, -5, -65, -34, 33, 96, 89, -33, -105, 86, -30, -44, -102, 91, -72, 22, -95, -18, -9, -2, 13, -35, -94, 42, 61, 88, 64, -3, 87, -46, -86, 8, -55, 70, -6, -65, -25, 98, -66, 65, 4, -103, 37, -55, 48, -98, -94, -56, -12, 103, 80, -21, -4, -51, 96, 12, -106, 17, 84, -57, 56, 50, -91, -52, -71, 44, 63, 64, 44, 85, -13, 55, 87, 41, -25, 17, 19, -67, 81, 90, 25, 101, -108, -2, 85, 2, 68, 57, -45, 66, -94, 16, 62, 93, 26, 31, 49, -80, -16, -80, 98, 105, -104, 0, -84, -60, 63, -104, 97, -31, 78, -96, 71, 44, -86, 95, 44, -55, -10, -57, 3, -40, 7, -24, 0, 81, 20, -64, -26, -58, 66, 25, -53, -44, -81, -9, -68, 102, -68, 13, -56, 47, -68, -63, 59, 33, -109, 37, -101, 104, -25, 33, -51, -19, -71, 81, -10, -106, 25, 39, -44, 32, 55, 96, 51, -21, 50, 49, -102, -70, -25, 48, -74, -68, -84, 96, 87, -66, 7, 100, -109, 6, 68, -104, 7, -68, -55, -78, -87, -29, -75, 44, 16, 60, 8, -26, 63, 94, -84, 92, 85, -29, -98, -18, -105, 96, 2, -101, 44, 45, 3, 74, -47, -63, -102, 33, 69, 98, -30, -62, 62, -102, -95, -15, -82, 70, 45, 24, -87, -24, -31, -84, -76, 32, -70, 39, -79, -77, 29, -105, 10, 26, -9, 78, 30, 79, 20, -74, 66, 9, 61, -9, 22, -72, 51, -61, 0, -31, -9, -45, -84, -48, -23, 42, -24, -63, 90, -69, 97, -42, 84, 38, -45, 37, -103, 29, -70, 61, -76, 28, -5, -78, -24, -10, 19, -100, 61, -13, -49, 101, 53, -81, -79, -34, -9, 32, 85, 69, -54, 35, 72, -64, 5, 36, -1, 25, 58, -84, -2, -49, 45, -69, -61, -70, 25, 24, -83, -71, -44, -95, -3, 99, 21, -46, 63, 40, -100, 51, 31, 81, 40, -91, 92, 81, -95, 97, 52, 93, -52, -69, 86, -95, 22, -87, 87, -84, 17, 79, 59, -67, 97, 31, 50, -35, 33, 22, -63, -76, -95, -102, 33, 15, -59, -36, 100, -31, 31, 50, -105, 33, 27, 69, 1, -88, 45, -100, 95, 73, -81, -98, -77, 4, 29, -94, -9, 11, -61, 67, 23, 61, 81, 21, 47, 8, -63, -110, -56, -6, -44, -32, 82, 11, 13, -95, 56, 106, -83, -24, 24, 1, 50, -94, -59, -16, -34, -32, -24, 13, 77, -11, 87, -55, 26, -30, 66, 104, -65, 99, -70, -23, 11, -15, -14, 98, -37, -75, 33, 34, -110, -72, -72, -103, 45, -11, -41, 18, 91, 31, 7, 106, -80, 53, 90, -23, -75, -10, 45, 8, 34, 29, 2, -62, -15, 95, 44, 76, 18, 7, 65, -93, 16, -28, 104, 64, -44, -44, 12, -65, 77, -26, 89, 39, -3, 24, -18, 20, 7, 87, 6, -26, -92, -81, -43, 83, 44, -87, 42, 40, 91, -10, -37, 101, 24, 30, -4, -43, 51, -15, 4, -42, 0, -36, -98, 53, -72, 20, -45, 61, -13, -4, -62, 84, 9, 44, 18, -10, -29, -28, -70, -59, 33, 86, 56, -58, 16, 39, 79, -2, -83, -80, -60, 17, -54, -97, -67, 29, -47, -71, 55, -54, 65, -81, -92, -64, -13, -86, -39, -69, -1, 99, 
  9, 82, 74, -6, -48, 79, 4, 39, 89, -104, 1, -58, -21, -81, 37, -68, -72, -40, 51, -100, -14, 48, 20, 53, -46, -79, 7, -72, 39, 13, -74, 102, -92, 75, -19, 98, -50, -70, -79, 68, 15, -28, -15, 27, 12, -98, 104, -68, -66, -103, -38, 61, 83, -75, -98, -40, 76, -65, 0, -69, -32, -9, 100, -23, -76, -101, -56, 12, -50, 71, 25, 63, -3, 15, -67, -101, -28, -39, 31, 22, 97, 91, 31, 50, -105, -84, -25, 45, -7, -100, -80, 2, -42, 10, 100, 54, -44, 30, -101, -66, -70, -67, 85, -30, 38, -75, -3, 32, -77, 43, 67, 38, -7, 37, -63, -9, 47, 70, 58, 37, 69, -18, 101, -26, 5, -91, 63, 3, 96, 52, 36, 72, -33, -30, 103, 73, 45, -57, 98, 24, 38, -81, 61, -41, 71, 59, 116, 34, -5, 1, 11, -95, -35, -102, 12, -47, -110, -85, -73, 54, -56, -47, 109, -88, 33, 98, 11, -33, -24, 48, 25, -96, 47, 58, 110, -80, -91, -89, -101, -52, 87, -32, 34, -61, 81, -25, -19, 37, 25, -87, 82, -59, -68, -70, 7, 61, -74, -12, 65, -84, 78, 110, -35, 104, 35, -98, 103, 92, -99, -56, 65, -71, 8, -89, 5, -94, 22, 0, -47, -5, -37, -2, -94, -78, -82, -88, 58, -38, -45, -90, -43, -87, -23, 25, 26, 9, 15, 30, 67, 45, 82, -61, 82, -85, -109, 46, -76, 71, 102, -15, -52, 78, 49, -7, 35, 100, -51, -40, -58, -1, -2, 86, -81, -35, -111, -6, -58, 98, 60, -80, -19, 49, 32, 89, -89, 5, 4, 61, -96, -106, -37, 95, 84, -106, -109, 44, 76, 45, -36, 31, 5, 8, -77, 74, 28, -97, 99, 103, 69, -76, -96, -10, 32, -62, -80, 69, -11, 62, -67, -24, -34, -69, 64, 96, -37, 97, -47, 92, 15, -33, 74, -97, 94, -20, -64, -55, 36, -60, -44, -89, -111, -108, 102, 49, 71, 22, -100, 97, -35, 60, 45, -35, -85, -47, 87, 92, 20, 86, -29, -67, 53, -87, 44, -91, -20, -13, -62, 52, 85, -74, 24, -6, 22, 6, 61, 73, -23, 59, -69, 91, -70, 70, 1, -82, 69, 76, -6, 64, -30, 73, -20, -90, 54, -13, -24, -13, 36, 33, -51, 38, 1, 16, -65, -35, -15, 104, 100, 19, -66, 67, -106, 41, -51, -45, 41, 38, -13, -43, 45, -1, -2, 69, 72, -115, -29, 34, 91, -53, 7, -91, 63, -95, -100, 10, -60, -13, 99, -38, 78, -74, 47, 93, -46, -30, 89, 26, 0, 104, -34, -62, 69, 25, 35, 64, -43, 64, 33, 9, -60, 48, 30, -2, -26, -77, -31, 23, 58, 76, 63, 5, 10, 95, 7, 12, 81, 8, 75, -100, 32, -109, 38, 36, -55, -13, 69, 61, 19, 29, 63, 107, 48, -36, 32, 55, -115, -57, -4, -15, 23, -61, 56, -24, 52, -5, -38, 27, -10, 104, 59, -83, -13, 73, 70, -69, -7, -86, -70, 74, -39, -52, -30, -44, 45, -33, 32, 117, 84, -6, -63, 97, -78, 58, -37, -84, -89, 98, 106, 46, 50, -5, 53, 38, -94, -56, 88, -32, 64, -34, -63, -88, 36, -99, 66, 85, 78, 15, 37, 11, 8, -35, -37, 57, 3, -11, -89, -85, 34, 54, -104, -7, 67, 49, -11, 0, -102, -67, 33, -34, 82, 93, -35, -44, 6, -1, -54, 32, 76, 9, -13, -83, -81, -30, 81, -31, 63, -3, 32, -98, 117, -69, 7, 116, 71, -57, 2, 58, 30, -27, -47, 7, -31, -79, -50, 73, 100, -19, -26, -18, 91, -85, 83, -56, -81, 66, 6, 16, 110, -62, -98, -94, 34, 55, -31, 55, 10, -7, -51, -81, 52, 45, -61, 85, 12, -43, 64, 80, -38, -76, -11, 73, -40, -32, 37, 75, -37, -9, 54, -9, -41, -50, 57, 17, 34, 11, -49, 43, -74, -51, 5, -33, 74, -32, 94, 81, 33, -39, -93, -58, 82, 68, -22, 35, 20, 17, 71, 93, 16, -53, 85, -80, 7, -96, -14, 10, 89, 103, 45, -13, -46, -78, -71, -51, 44, -17, 43, -54, -12, 95, 32, -48, 75, 45, 55, -78, -83, 57, 62, -69, -86, 2, 90, -35, 48, -2, 65, -54, 48, 35, -83, -103, -30, -30, -62, -10, -9, -94, -29, 66, -86, -53, 26, 89, 83, -76, 92, 77, 72, -34, 87, -19, -77, 72, 85, 29, 105, -65, -25, 6, 68, 67, 53, -18, 17, 5, 70, -32, 45, 31, -9, -67, -71, 34, -78, -85, 3, 8, -51, 63, -49, 34, 14, 63, -72, -49, -101, 54, 102, -69, -15, 32, 90, 77, 105, 84, 36, 38, 31, -36, 48, 78, -100, 59, -62, -40, 99, -43, 29, 18, 23, 22, 47, 36, -58, 76, -23, -82, -19, -85, 28, -78, 66, 2, 7, -76, -69, 9, 14, -96, 103, -86, 94, 40, -104, -38, -43, 95, 103, -33, -51, 38, 47, 35, -37, -109, -35, 85, -62, -14, -94, 39, 44, -92, 7, 22, -66, -10, 60, 47, -38, 82, 57, 74, -45, -47, 23, -32, 40, 17, -96, -27, 47, 74, -72, 20, 64, -47, 59, -38, -104, 7, 63, -34, 41, -33, 96, -5, -62, -82, -16, -2, 63, -99, 39, 32, 51, 96, 36, -45, -72, -90, -87, -67, 84, -13, 77, -100, -22, -20, -1, 96, 33, 42, -92, -50, 103, -97, -9, 61, 28, -46, -103, -1, -5, -88, -93, 12, 20, -21, -19, -2, -49, 64, 83, 21, 56, 5, 22, 82, -67, 27, 22, -17, 90, -37, -25, -59, 37, 89, 7, -53, -43, 45, 1, -85, 114, 9, 21, -9, -95, 49, 61, -15, 93, 77, -78, -40, -26, -112, 52, -89, 73, 16, -70, -5, -42, -99, -81, 66, 1, 98, 53, -21, 47, -2, 84, 22, 39, 44, 80, 45, 39, -75, 87, 96, 32, -108, -59, 108, 104, 9, -86, 51, 29, -75, 81, 7, 25, -41, -86, 9, -53, 70, -37, 27, -48, -25, 22, -21, -57, 93, -102, -58, 78, -88, -3, 14, -88, 1, -107, 62, 17, 23, 79, 70, 32, 76, -99, -18, -1, 106, -44, -30, 34, -73, 7, -59, 61, -5, 85, -7, 50, -101, -76, 82, 62, 26, -15, -15, 64, -31, 58, -33, -58, 103, 13, -40, -83, 73, -6, 68, 97, -12, 65, 6, -27, -12, 99, 88, -81, 52, -68, -79, 100, 62, -7, 8, -95, 88, 33, 34, -61, -38, -106, -74, -99, -82, -77, 87, 53, -87, 75, -17, -83, -31, -50, -61, 23, -61, -80, -19, 104, 98, 62, 1, 73, -37, -62, -100, 82, 21, -19, -98, -60, -55, 45, 20, -3, -80, 56, -53, 114, -77, -34, -24, 2, -82, -9, -52, 39, -102, -24, 86, 31, 85, 25, 83, -87, 71, 63, -27, -78, 52, 47, -89, 25, -29, -55, 22, -75, 33, -27, -7, 73, -73, -69, 15, -68, 108, 14, -1, -21, -43, 83, -12, -15, 70, -55, 73, -47, 47, -89, 85, -43, 51, 82, 57, -32, -34, -102, -45, -27, 112, 32, -51, -89, 6, -81, 22, 54, 100, -70, 9, 89, 72, 88, -63, 55, 58, 25, 85, -61, 32, 35, 90, 39, -31, -76, -30, -69, -86, -30, 75, -69, -102, -25, 66, -47, -106, -64, 50, 9, 79, 63, -35, -57, 70, -18, 62, 106, -76, -77, 6, 11, 66, 21, -8, 2, 107, 60, -81, 100, -18, 45, 46, 2, -78, -26, 105, 52, 4, -69, -23, -74, 10, -59, 47, -50, 25, -89, -53, 85, -95, 44, 26, -92, -37, 24, 24, -3, 34, 43, 77, -78, -82, -80, 67, 14, 27, -67, 5, 
  100, 70, -66, 58, 74, 56, 93, -33, 70, -54, 114, 27, 68, -91, 54, -5, 63, 99, -100, -1, 21, -74, -18, -79, 82, 98, 59, -86, 60, -30, -20, -34, -114, -73, -41, 91, -61, 22, 14, -33, 53, -74, -14, -10, 106, 37, -38, 26, -63, -28, 51, 5, 5, -18, 3, 4, -82, -89, -63, -14, 74, 91, 55, -4, 30, 35, 101, -3, -28, -68, 23, -45, -66, 9, -39, 92, 34, -11, 71, 96, -29, 59, 67, 92, -52, -43, 12, 94, -48, 6, 36, 114, 6, -52, -5, -36, 19, 4, 83, 12, -32, 53, -102, -60, -74, 71, 14, -97, 84, 101, -61, 48, -30, -72, 5, 78, -5, -52, -86, 99, -34, -122, 96, 89, -52, -69, 35, -39, -60, -53, -57, -61, -93, 44, 103, 83, -14, 97, -24, -73, 79, 35, 1, -63, -76, 111, 21, 73, -52, 73, -31, 39, -99, 88, 42, -71, 60, -35, -32, 28, 49, -11, -65, -63, 89, 5, 31, -72, -79, 53, -80, 119, 88, 40, 107, 79, -4, -22, -54, 72, -70, 65, 59, 81, 87, -76, -26, 7, 56, 16, -12, 76, -42, -80, -20, 77, 32, 23, -69, -80, -109, -93, 6, -57, 52, -39, -65, -21, -85, 41, -74, 79, 72, 111, 22, -49, 68, 0, 71, -40, -97, 60, -85, -74, 43, 113, -35, 112, -63, -48, 11, 108, 72, -5, -92, -85, 51, -82, 105, -2, -14, -75, 26, 13, 13, 50, -40, 104, 34, -99, -23, -21, 68, -12, 2, 80, 78, -36, -71, 61, 38, -23, -41, 34, 51, 15, 115, 62, -99, 90, -106, 15, 91, -39, 1, 106, -35, -2, -93, -55, -43, 75, -35, -79, -50, -106, 47, 19, 28, -5, -50, -14, 77, -59, 29, -8, 75, 108, -3, 98, 91, -96, -20, -72, -109, -96, -103, 72, 69, -53, 30, 52, 1, -58, 63, -73, 29, 55, 91, 110, 60, 52, 98, 34, 40, 38, 22, -1, 76, -20, -12, 67, -47, -83, 97, 0, -27, -45, 4, -17, 57, 103, 109, 37, 52, 12, -100, 97, -27, -12, 20, 23, -70, -32, -24, -43, -91, 10, 81, 23, -79, 45, -68, -65, 24, 13, -42, 66, -1, 60, 77, 9, -87, -53, -54, 101, 88, 77, 73, -16, -16, 106, 59, -7, 29, -9, -91, -19, -61, -15, -6, -70, 22, -36, 88, -4, 99, 24, -23, 95, 21, -14, 61, -101, -6, 61, -6, 62, 82, 63, -104, -16, -73, 0, -106, -50, 28, 63, -47, -64, -90, 24, -16, 75, 103, 12, 73, 66, -21, 102, -7, -94, -102, -9, 60, 87, -1, 115, -93, -46, 43, 64, -86, -105, -35, 102, 75, 80, 63, -48, -33, -60, 48, -54, 126, 81, -37, 100, -17, -63, -28, -65, 74, -40, 30, -107, 88, -42, -38, 76, -14, 50, -31, 59, -32, -28, -65, -65, 64, -73, -85, 45, -28, -42, 110, 17, 60, 47, 7, 43, -56, 17, 44, -20, 17, 66, 88, 11, 87, 21, 36, -18, 42, -58, -80, -25, -23, 76, 6, 68, 29, -43, -25, -100, -2, 33, -21, -64, -14, 19, 78, -27, -99, -14, 47, -2, 33, 54, 55, -45, 82, -46, -60, 4, -93, -15, 85, 39, 99, -58, 9, -109, -58, -120, -61, -72, 97, -62, 24, -101, 23, 51, -52, 46, 24, -4, 68, -83, -78, 104, 16, -95, 13, -2, 60, 13, 101, -36, -79, 41, -8, 91, 25, -73, -90, -71, -83, 56, -63, 23, 89, 85, -91, 70, 92, 39, -109, 48, 21, -86, -10, -39, 72, 90, -95, -53, -93, 37, -4, -32, 46, 40, 9, -88, -77, 58, 110, 8, 37, 57, -60, -44, 2, 17, 46, -62, 103, 2, 92, -47, -2, -53, -45, -16, 15, -84, 44, 10, 80, 76, 3, 1, 10, 102, -10, 124, 61, -92, 38, -6, -10, -50, -47, 99, 3, 100, 100, -97, -73, 5, 72, -63, -29, -53, -54, 6, 77, -76, 35, -13, 70, -95, 86, -52, 107, 43, -71, 83, 97, 72, 27, -108, 100, -76, 67, 49, -4, 89, 11, -63, -22, 73, -87, 60, 7, -47, 32, 73, -82, 54, -109, 33, 36, -24, 61, 51, 29, 20, 92, -9, 45, -23, 17, -44, 87, 28, 5, 3, 16, -36, 27, -19, 70, 55, -17, -49, 8, 52, -80, 49, 25, -9, 79, 27, -89, -102, 11, -49, 3, 65, 69, 68, 52, 27, -26, -23, 44, -110, 10, -56, 31, 58, -92, 69, 21, 24, -1, 90, 112, 69, 9, -21, -41, 21, 74, -93, -21, 102, 104, 46, 11, 96, 87, 85, -61, -13, -81, -62, 71, 95, 27, -48, -116, -21, -8, -117, 30, 63, -98, -18, 44, 67, -2, 34, -84, -70, -20, -39, -46, -73, -14, -15, -94, 48, 20, 95, 74, 72, -43, -22, -81, -64, -51, -77, -7, 26, -72, -21, 25, 95, -27, 118, 44, 58, 116, -65, -49, 106, -100, 74, -8, -16, 6, 2, -81, -24, 51, -13, -61, 36, 83, -95, 99, 45, -84, -3, -35, -56, -73, 51, -34, -14, 21, 79, 57, -22, 78, -97, -52, -89, -109, -10, -25, -13, -88, -29, 85, -45, -49, 16, 10, -8, 45, -46, 73, -91, 40, -103, 63, 40, -39, -104, 54, -96, 6, -22, -59, -77, -72, -83, 50, -42, -8, 11, 110, 28, -11, 92, -74, 57, -41, -98, 15, -67, -19, -29, 18, -48, -73, -116, 119, 26, 35, 88, -54, -78, 69, -72, 40, 38, -89, -7, -44, -71, -53, 93, 73, 21, -87, 32, 107, -30, -117, -10, -1, 65, -56, -75, 19, -2, 119, 4, 46, 54, 3, -83, 105, -53, -37, 16, -13, 63, 49, -17, 77, -60, 50, -62, -7, -12, -92, -84, 116, -62, 95, 81, 47, -114, 47, 73, 76, 66, -13, -46, 67, 1, 29, 42, 29, 82, -13, -93, 29, 54, -19, -62, 98, -100, 63, -43, 62, -112, 23, -35, -64, -3, -63, 82, 34, 0, -100, 62, 91, -97, 71, 72, -3, -103, -45, 85, -112, 37, -58, 2, 39, -40, -17, 26, 70, -44, 0, -72, 2, 8, -27, 43, 74, -48, -109, 5, 0, -32, -99, 62, -104, -89, 37, -84, 80, -86, 14, 79, 65, -65, 50, -34, -78, 39, -49, -81, -29, 7, -67, 48, 65, -18, 31, -40, -43, 66, 41, 7, 18, 62, -56, 74, -71, -73, -28, 96, 5, -46, 52, 27, -83, -35, 12, 67, -29, 66, -67, -14, 47, -103, 116, 37, -37, -62, -31, -25, 93, 73, 1, 84, -43, -2, -23, 19, -52, 69, 89, 111, 34, -75, -70, 44, -97, 0, 26, 96, 62, 57, 64, 87, 76, -56, 32, -50, 69, -85, 7, -58, -27, -86, -56, 53, 114, 69, 56, 24, -13, 57, 97, -47, -91, -6, 1, -74, 0, -58, -43, -104, -57, 65, 53, 3, 71, -13, 60, -5, 15, 44, 104, 79, 50, 16, -68, 73, 38, 15, 57, -22, -34, -80, -70, -12, 33, -33, 101, 31, -97, 81, -91, 53, -3, 67, 12, 84, -18, -80, 19, -95, -73, 45, 5, -78, 76, 5, 17, -94, 67, 82, -39, 111, 5, -55, 16, -47, 13, 34, 76, -62, 108, 100, 40, 67, -62, -50, 21, 5, -74, -49, -82, -101, -15, 65, 78, -71, 91, 78, 78, -82, -6, 72, -103, 40, -56, -9, 26, -4, -46, 9, -2, 74, 34, -118, -48, -19, -97, -30, -45, -101, -75, 63, -98, 79, -39, 63, 30, -15, -63, 38, -7, 43, 113, 62, 43, -82, 51, 76, -94, 81, 66, -51, 4, 18, 23, -106, -27, 91, -42, 79, 92, -42, 65, -77, 56, -34, -25, -9, -59, -75, 68, 83, -72, -90, 73, 27, 66, -12, 
  -57, 31, -87, -63, 83, -60, 57, 27, 75, -94, -31, 15, -19, -56, -101, -12, -76, 97, -39, -20, 56, -6, 69, -42, -31, -90, -79, 10, -84, 54, -78, 14, -53, -3, -53, 26, 6, 89, 16, -87, -45, 30, 24, -89, -6, -100, 55, 7, -95, -100, -63, 16, -35, -61, 23, 100, -108, -7, -112, -103, -70, -79, 34, 0, 88, -75, -20, -56, -35, -105, 5, -54, 85, 8, 105, -20, 31, -10, -106, 16, -9, 74, -104, -73, 26, -10, 74, 83, 56, 89, -106, -34, 54, 86, -71, 53, 99, -63, 32, 67, 63, 11, 41, -99, 92, 78, -13, -51, -14, -14, 6, 86, -50, -76, 5, -54, 38, -75, 83, -49, -20, -97, -79, -8, -24, -71, 67, -31, -88, -103, -15, -82, 65, -90, -100, 77, -86, -60, -78, 96, -84, 44, 78, -37, -1, -84, 74, 90, 40, 31, -65, -72, 52, -45, -96, -69, 43, -70, 32, -56, 36, 33, -14, 19, -110, -99, -37, -25, -109, -94, -87, 22, -105, -101, 93, 99, 99, -40, 4, -96, 74, 71, -53, 42, 76, -35, 88, -2, -21, 0, 56, -65, -69, -16, -77, -25, 55, 93, 90, 91, 91, 59, -20, -91, -38, -36, 35, -28, 47, -100, 69, 6, -48, -83, 97, 40, -17, -16, 9, -62, 100, 89, 86, 31, 54, 66, -65, -23, -48, -84, -57, 1, 34, 57, 35, -45, -15, 97, -42, -38, 27, -16, 57, -19, -75, -94, 91, 24, 82, -7, 97, -111, -95, -21, 72, -78, -5, 20, -42, -84, 54, -33, -5, -59, 92, -31, 3, -16, -93, 105, -54, 44, -59, -11, 33, -109, 8, -100, 13, -45, -18, -14, -35, 64, -79, -14, 66, 48, 88, 36, -67, 77, -102, 8, 82, 9, -88, -27, -56, 12, 87, -99, -30, 37, -52, 72, 83, 52, 70, 5, 95, 12, -51, -65, 99, 96, -68, 55, -107, 0, -83, 78, -13, 72, 99, 38, -40, 26, -104, 17, -92, 96, 57, -86, 75, 93, -11, -102, -107, -68, -12, 37, -92, -83, -96, -18, 82, -89, -86, -14, 66, -12, -2, 102, -25, -86, 45, -28, -32, 10, 81, 18, 82, -39, 53, -51, 40, -63, -78, 35, 81, -27, 35, -75, -3, -108, -55, 77, -101, 80, -67, -44, 99, -108, -66, -25, 79, 98, 39, 27, 9, -104, 58, -31, -101, 56, 74, -13, -73, -26, 94, -82, 31, -107, -92, -107, 55, -108, -14, 71, -70, 45, 6, 98, -107, 25, 55, -18, -80, -91, -24, 39, 44, 21, -102, 49, -70, 25, 3, 89, 51, -36, -58, 96, -15, -73, 89, -15, 31, -48, -53, -43, -88, 64, -107, -97, -29, -51, -75, -52, 1, -57, -67, 19, 87, 36, -41, -31, 39, -14, -73, 56, -48, 100, 42, 77, -12, 2, 43, 109, -80, -4, 45, -67, -56, -92, -31, 52, -60, 78, 92, -44, 68, -32, 5, -107, 97, -46, 98, 69, 93, 16, -72, 54, 79, 57, -4, 85, 29, -105, -55, 84, -18, 39, 29, -111, -66, -20, -8, -40, 74, -78, 7, -107, -100, -86, 92, -80, 72, -24, -99, -64, -93, 44, -41, 65, 75, -45, 85, 3, 73, 30, 3, -34, 3, -30, 42, 73, -6, -98, 78, 24, -54, -2, 15, 16, 55, -100, 31, -41, -48, 78, 5, 29, 69, -73, 17, -2, 64, -36, -70, -104, -52, -58, -104, -11, 56, -41, -39, -48, -63, -43, -69, -94, 57, -37, -14, -103, -30, -82, 45, -67, -74, -19, 20, 89, -110, -84, -17, 64, -100, 59, -52, 29, 39, -103, 69, 51, -16, -42, -95, 29, -78, 97, -25, 32, -23, -26, 38, 10, -52, 54, -79, 25, -4, 88, -21, 30, -106, -103, 53, -49, 33, 10, -65, -38, -88, 13, -20, 73, -49, 65, 29, 83, 33, 72, -68, 68, -39, 95, 70, 98, 91, -89, 22, 85, 26, 93, 55, 86, -88, 57, 85, 15, -43, 26, -74, -99, -102, 15, -33, 9, 68, -97, 95, -29, 99, 102, 28, -94, -55, -27, 37, -59, -8, -33, -80, 65, -104, -67, 38, -104, 30, 25, 4, -6, -7, -30, -101, -59, 95, -76, 81, -74, 57, 96, -97, -105, 103, -46, 34, -88, -44, 37, 37, -64, 97, -52, -14, -36, 100, 55, -61, 105, -22, -90, 99, -55, -37, -54, 76, -25, -33, -89, 14, -97, 66, 110, -40, 74, 47, 11, -33, -32, -86, -46, 29, -25, -10, -84, -78, 84, -66, -17, -21, 35, -2, 6, 43, 68, -98, 93, 22, -29, 57, -13, -34, -66, -72, 3, -41, 15, 68, -13, -86, 10, -1, -34, 29, 51, -104, 66, -90, -58, -89, 6, -107, -60, 45, -55, 34, 18, -39, -80, -111, 94, -2, -9, 94, -18, 25, -90, -43, -30, -48, -17, -53, -4, -33, -48, 85, -22, -58, 47, 109, 33, -100, 16, -40, 97, 37, -39, 72, 69, 32, 46, -80, 14, 4, 67, 57, 64, -86, -111, 57, -29, 84, -98, 74, 67, 3, -16, -88, -66, -13, -98, 50, 1, 30, 84, -22, -52, 34, 21, 64, -97, 33, -3, 103, -100, 83, -96, -43, 94, -27, 62, 12, 32, -78, 4, -46, -33, 96, -21, -66, 75, 96, -33, 19, -7, 75, -76, -3, 36, -31, -15, -66, 82, 66, 94, 8, -107, -33, -51, -33, 50, -25, -34, -54, -54, 36, 45, -91, -14, 83, 31, 30, -72, -111, -62, -96, -69, 98, 4, -56, -92, 76, -64, -15, 59, 60, -69, -66, -79, 79, -104, 101, 100, -41, -89, -88, -74, 97, -48, -110, -29, -85, 23, 38, -103, -62, -6, -55, -53, 80, 25, 33, -46, -57, -67, -9, 11, -70, 55, -42, 51, -88, 12, 32, 97, -62, 28, -25, 93, 104, 59, 59, -49, 12, 69, 30, 54, -82, -90, -76, -58, 21, 54, 33, 48, -1, 9, 58, -99, -38, -66, -105, 19, 89, -35, 7, 88, 15, 37, -96, 93, -105, -44, -25, 48, 19, -88, -97, -56, -103, 49, 76, -14, 76, 23, -101, -2, 72, -85, -14, 48, -19, 86, 87, -100, -89, 49, -7, -47, -28, -85, -53, -31, 91, -21, -19, -110, 101, 54, -79, 67, 59, -10, 34, 104, 98, 94, 59, -56, -97, 10, 69, -65, -15, -85, 31, 77, -73, 105, -102, -11, 102, -54, 23, 91, -86, 85, 92, -44, 82, 29, -18, -32, -101, -87, -27, -20, -27, 7, 86, -84, 39, 5, 97, -26, -38, 18, 22, -35, -38, 32, -2, -69, -84, 3, -24, 109, -57, 43, -75, -3, -11, 74, -20, 35, 1, 16, -18, 38, 14, -29, 77, 48, -98, -45, -96, 28, -99, 66, -60, -16, 103, 94, -109, 53, 51, 40, -43, 31, 15, 30, -107, -74, 38, 4, 38, 103, -78, -74, 66, 94, -100, -35, 64, 61, 103, -22, 18, -21, 40, -85, 2, 10, 68, -69, -107, -18, 17, 13, 29, 36, -91, 91, 70, -98, 61, -52, -12, 100, -54, 89, 17, 89, -54, -56, 29, -23, -102, 12, -72, 96, 87, 43, -12, -59, 93, -87, -1, -46, -6, 41, -28, 35, -57, 60, -44, 100, -23, 45, 3, -92, 21, 62, -50, 9, 81, 44, 76, -4, 29, -51, -12, -23, -76, -10, -99, -53, -23, -29, -76, -19, -100, 96, 65, -62, 9, 17, 46, -54, 34, 97, -16, -49, -52, 82, 0, -107, 25, 70, -25, 62, 14, 3, 56, 36, 42, -4, -20, 39, -24, 33, -39, -45, 44, -37, -31, 87, -77, 72, 3, -2, 73, 51, -27, 31, 17, 75, -47, 30, 79, -31, -27, 93, -17, 35, -93, 101, -56, 79, 38, 32, -23, 45, -95, 12, 16, 102, -40, -9, -101, 69, 10, 84, -21, -89, 
  27, 90, -3, -73, -6, 29, 71, 93, 105, 46, -81, 63, 56, -59, -95, -100, 55, -29, -6, -13, -60, -65, 25, -76, 77, 81, 5, -90, -66, -25, -98, 121, 85, -68, 20, -87, -95, 30, 20, 35, 55, 45, 3, 40, 54, -19, 116, 104, 78, 43, 61, -97, 44, 19, 80, 37, 23, -54, 51, -45, 61, 62, -91, 104, 9, 18, 17, 6, -52, -79, 12, -6, -64, 99, 84, -25, 89, -50, -50, -94, 5, 72, 122, -63, -44, -36, -29, 39, 13, 14, -56, -36, -29, -30, -86, 39, 12, 76, -51, 25, 6, 77, 45, -16, -69, -90, -74, -52, -26, -65, 4, 11, 80, -123, 68, 77, -37, 8, 121, 107, -52, -17, -49, 11, 14, 94, 108, -54, -29, 62, 79, 100, -74, -50, 9, -57, -47, 71, 7, -101, 40, -103, -69, 14, 26, -106, 5, -45, 43, 19, -100, 2, -20, -48, 29, -37, 115, 66, 59, 98, -58, -44, 43, -21, -80, 72, -42, 61, -106, 41, -21, 87, -70, -80, 51, 37, 75, 28, 80, -41, -100, -74, -26, -34, 59, 11, 85, 112, -86, 2, 99, -14, 59, 60, -86, 57, -61, -37, -23, 31, 35, -1, 36, -67, -69, -55, -13, -113, 69, -109, -76, 37, 97, 71, -90, 85, 35, 84, 20, -15, 56, 102, -32, 96, -70, -67, -8, 48, 90, 43, -87, -30, 81, 42, 35, -60, 105, 10, 26, -26, 24, 66, 38, 13, 16, -101, 70, 14, 20, 43, 23, -54, 89, -91, -95, -22, -32, -85, -24, 33, -39, -24, 120, 51, -55, -21, -91, -5, 62, 20, -67, -81, 28, -21, -94, 113, -15, -36, 89, 36, -89, -28, 42, -107, 104, -1, -3, 91, -97, -100, 89, -88, 40, -73, 21, -94, 92, 66, 59, -78, 110, 17, 15, -91, -51, 86, -62, -28, -78, -76, -26, 94, -41, -39, 85, 54, 34, 13, -62, -4, -74, 42, -93, 100, -19, -8, -81, 34, 85, -43, 69, -69, 67, -2, -3, -88, 56, 66, 74, 109, 30, 67, -38, -45, 101, -37, 91, 85, -76, 40, 56, 0, 38, 54, -9, 33, -50, 43, 71, 13, -20, -49, 46, 108, -25, -56, -42, -34, -92, -1, -93, 11, 33, -90, 27, 50, -21, 11, 27, 77, -16, -86, 53, 25, -18, -10, 2, -41, -99, -63, -15, 96, 98, 12, -80, 76, -11, -108, -5, 26, 35, -36, -53, 18, -23, -60, -35, 73, 24, 54, -36, -28, 81, 86, -16, 21, -99, 54, -36, 79, 91, -78, -28, -52, -37, -26, -13, -37, 83, -19, -79, 17, -60, 12, -68, 5, 1, -83, 70, 110, -5, -118, 122, -53, 2, -113, -46, 74, 63, -65, -59, -32, -46, 4, 24, -50, -84, -93, 20, 62, -81, 105, 82, 50, 27, 44, 49, -19, -45, -72, 15, 15, -92, 37, 101, -77, 73, -56, 97, -47, 50, 36, 56, 18, -52, -14, -73, 48, 4, -67, -32, 88, -81, -65, 23, -8, 2, 93, 96, 61, 65, 92, 6, -85, -77, -18, -1, -54, 11, -81, -93, -3, -94, -75, 105, 44, 28, -74, 57, -62, -90, -94, -86, -32, 18, 4, 71, 72, 58, 94, 29, -101, 94, 29, -39, 67, -5, -58, 65, 94, -96, 75, 55, -77, -103, -68, -62, 92, -55, 50, 46, -61, 23, -96, -104, 56, 50, -16, 67, 77, -67, 114, -57, 39, -89, -87, -96, 38, -61, -44, 45, -23, -31, 111, 27, -8, 81, -3, 10, -13, -21, -83, 56, 70, 91, -79, -44, 95, -94, -23, 7, -58, -48, -71, 13, -95, 42, -16, 8, 34, -65, -87, 18, -72, 74, 104, 33, 69, 28, -43, -3, -18, 115, -61, -14, 77, -46, 55, -72, -68, -54, -14, -38, -76, 30, -42, 82, 69, -42, -80, -43, -61, 107, 102, -24, -35, 52, 44, 97, 67, 55, 58, -74, 38, 69, 72, -102, -22, 93, 6, -90, -44, 31, -82, -94, 75, 27, 5, -54, -25, -22, -12, -14, -67, 51, 11, 104, -25, 113, -40, -16, 19, -65, -80, 30, -76, 16, -59, -17, -66, 72, 21, 111, -106, -10, -6, 71, -76, -75, -3, 34, -17, 79, 37, -9, 87, 4, 19, -64, -37, 80, -65, 72, 103, 36, -12, -13, 92, -36, 77, 7, -105, 22, -62, 57, 67, -81, -21, 85, -32, 76, -16, -103, 43, 51, 73, 75, 53, 35, 83, -13, 75, -26, -50, 65, -110, 57, -63, -117, -92, -84, 41, 67, 57, 88, 86, 41, 23, 64, -4, -26, 1, 12, 19, -41, 83, -22, 8, 55, -33, -6, 10, 16, 94, 77, 27, 57, -42, -78, -37, 85, -5, 8, -31, 0, -48, -19, -2, 86, 104, -98, -43, 42, 46, -52, 57, 69, 100, -3, 81, 35, -44, -48, -54, -62, -76, 76, 53, 48, 67, -12, -98, -38, -1, -60, 93, 51, -54, 6, 44, 12, -27, -75, 67, -43, -89, 25, -17, -43, 67, 32, 38, -71, 83, -15, 19, 115, -31, 4, 15, -96, -31, -109, -66, -60, 41, -9, -7, -47, -70, -57, -14, -66, -84, 34, 32, -42, -14, -29, -71, 74, 88, -59, -76, 23, -33, -50, 30, -37, 47, 34, -36, 93, -71, -72, 90, 65, 67, -17, -85, -83, -85, -39, -29, 54, 64, 9, 86, 21, 116, 39, 90, 40, -23, -51, -69, -49, -65, 103, 86, 68, 58, -103, -35, -97, -31, -30, -78, 31, -46, 84, -51, -17, 33, 41, -70, -6, 86, 107, 24, 14, -41, 88, 46, 7, 34, 58, 46, -110, 108, -90, -8, -108, -62, 61, -108, 80, 0, 58, -48, 22, -102, 83, 50, 47, 30, 66, 49, 91, 95, -4, -18, -72, 112, -86, -72, -22, -93, -21, -20, -78, -112, 38, -90, -1, 28, 16, 67, -32, -88, -14, -39, 69, -19, 70, -71, 35, 34, -96, -40, -29, -85, 93, 6, -35, 67, -10, -79, 19, 22, 75, 58, -90, -31, 38, 96, 3, -20, -62, 31, 71, -23, -49, -52, 28, -31, -78, -103, -39, 46, 33, -10, 61, 64, 101, -53, -68, -67, 43, -12, 94, 57, -41, -91, 85, 50, -89, 22, 6, 99, -11, 20, 50, 90, -50, -56, -54, 69, 30, 102, 98, 60, -124, 65, -10, -13, 88, 27, 83, 108, 73, -18, 67, 17, 9, 93, 91, 99, -86, 11, 64, 26, -78, 33, -48, -89, -63, 89, 28, 72, -3, -51, -70, 103, -13, 115, -49, -20, 3, -49, -104, 25, 93, 2, 21, -37, 68, 14, 90, 106, -59, -2, -66, 101, -2, -73, 6, -121, 118, -50, 26, -44, 69, -82, 10, -55, 84, -48, 71, -69, -6, 34, 7, -41, -33, 60, -73, 26, -82, 95, 100, -49, 55, -58, 83, 117, 16, -61, -65, -7, -19, -43, -26, -41, -86, 96, 121, -107, 67, 38, 4, -42, -107, -5, -13, -67, -103, 88, 88, -8, 26, 61, -23, -54, 94, -72, 104, 103, -39, 96, 59, 1, 57, -34, -85, -64, 27, 17, 88, -11, -19, 61, -86, -12, -14, 12, -84, -9, -70, 34, -83, 93, -62, -11, -94, -67, -66, 9, 69, -1, -38, 63, -52, -20, -22, -79, 68, 47, 110, 38, -65, -23, -20, 95, 49, 70, 105, -110, -22, 97, 65, -64, -64, 31, -20, -10, -97, -27, -4, 120, 4, 1, 82, -112, -66, 11, 3, 99, -25, -20, -28, 115, -1, 1, 8, 108, 68, -78, 109, -89, 18, -89, 82, 58, -76, 7, 39, 47, 3, 75, 84, -101, -6, -56, -103, -14, 41, 106, -27, 52, 81, 56, 75, -33, -95, -45, -10, -63, 57, 80, 42, -11, 27, 38, -91, -46, 102, 2, 16, -22, -48, 81, 84, 22, -47, 83, 49, 63, 104, 89, 
};
const TfArray<2, int> tensor_dimension6 = { 2, { 16,1280 } };
const TfArray<1, float> quant6_scale = { 1, { 0.00064100977033376694, } };
const TfArray<1, int> quant6_zero = { 1, { 0 } };
const TfLiteAffineQuantization quant6 = { (TfLiteFloatArray*)&quant6_scale, (TfLiteIntArray*)&quant6_zero, 0 };
